{"layer_index": 2, "sample_index": 0, "token_index": 0, "num_heads": 8, "head_dim": 32, "rope": true, "rope_note": "Q,K are AFTER RoPE if enabled", "formula": ["Q = LN(x)·WQ, K = LN(x)·WK, V = LN(x)·WV", "scores_raw = (QK^T)/√d", "scores_masked = scores_raw + masks", "weights_softmax = softmax(scores_masked)", "weights_after_dropout = dropout(weights_softmax)", "context_h(t) = Σ_j weights_after_dropout[j] · V[j]", "Concat = [context_h]_h ; AttnOut = Concat · W_O^T"], "merge": {"concat_vector": [-0.00031779988785274327, -0.0931875929236412, -0.018826887011528015, -0.08263839036226273, 0.02115151472389698, 0.18142597377300262, -0.061136793345212936, -0.022853165864944458, 0.03371875733137131, 0.11226930469274521, -0.22742240130901337, 0.04911261796951294, 0.1663544625043869, 0.1629786342382431, -0.01571229100227356, -0.08135281503200531, 0.16169895231723785, 0.025913037359714508, 0.08251897990703583, -0.1548692286014557, -0.1333523839712143, 0.06020563095808029, -0.046686649322509766, -0.08360803127288818, 0.05463642254471779, -0.26705658435821533, -0.0399489663541317, 0.0721205547451973, -0.03131093084812164, 0.09693603962659836, -0.05567260459065437, -0.1805422604084015, -0.07841018587350845, -0.02169519104063511, 0.02839532494544983, -0.05519694834947586, 0.1235363706946373, -0.031547799706459045, 0.09247840940952301, -0.01667703129351139, -0.11298269033432007, -0.15064604580402374, 0.11655698716640472, -0.10521771758794785, 0.06746000051498413, 0.024518847465515137, 0.09077274799346924, 0.04006587341427803, 0.031599316745996475, 0.2186831533908844, 0.006449952721595764, -0.01812034286558628, 0.02943142130970955, -0.045941680669784546, 0.11891909688711166, 0.011386021971702576, 0.08304817974567413, 0.11067851632833481, -0.09564970433712006, -0.02362551912665367, 0.013776963576674461, 0.05958683788776398, 0.016041666269302368, 0.08745237439870834, 0.0046004606410861015, 0.042360249906778336, 0.13964930176734924, 0.005160076078027487, -0.02315497398376465, 0.0714913010597229, 0.10284460335969925, 0.14696884155273438, -0.12656350433826447, 0.17320623993873596, 0.03312620148062706, 0.058837227523326874, 0.14406123757362366, 0.07329832017421722, -0.15432432293891907, 0.1305711567401886, 0.0018674317980185151, -0.0040409015491604805, -0.14042247831821442, -0.10115502774715424, -0.058709558099508286, -0.04182073101401329, 0.011965006589889526, 0.04197187349200249, -0.1917749047279358, -0.04469138756394386, -0.12979885935783386, -0.04203091561794281, 0.0019684049766510725, -0.007453322876244783, 0.07944073528051376, -0.0970250815153122, 0.24099791049957275, 0.03775264695286751, -0.042773496359586716, -0.022219497710466385, 0.03067648783326149, -0.019077599048614502, 0.08657923340797424, -0.13517926633358002, 0.0505022294819355, -0.08633719384670258, -0.15541823208332062, 0.35062873363494873, -0.05549652874469757, -0.01702723652124405, -0.09654591977596283, -0.013770980760455132, -0.14443866908550262, -0.12113707512617111, -0.04353448376059532, 0.1278812140226364, -0.11095371842384338, 0.018848523497581482, 0.04313037917017937, 0.07825683057308197, -0.0613437257707119, 0.17236104607582092, 0.07916893810033798, 0.06247553601861, -0.06655608117580414, 0.05226502940058708, 0.028267499059438705, -0.07891673594713211, 0.12433039397001266, 0.07078873366117477, 0.05846581235527992, -0.1172565370798111, 0.11185036599636078, -0.05633307620882988, -0.03940081596374512, 0.001274994108825922, -0.06378623098134995, -0.016702542081475258, -0.09102217853069305, 0.061439815908670425, -0.057104818522930145, -0.05072719603776932, 0.05462709069252014, -0.05788233131170273, 0.041703350841999054, -0.06931855529546738, 0.0095185786485672, 0.21820174157619476, 0.033230435103178024, -0.02569286897778511, 0.013263759203255177, 0.1367374211549759, 0.10112937539815903, -0.10095955431461334, -0.10460658371448517, 0.09081558883190155, -0.00459314463660121, 0.07465547323226929, -0.023805830627679825, 0.1307300329208374, -0.0963505357503891, 0.19446510076522827, 0.021626241505146027, -0.03565486893057823, 0.1505148708820343, 0.010743011720478535, 0.19390687346458435, 0.08158574998378754, 0.007738619577139616, -0.025219911709427834, -0.18067744374275208, -0.23099109530448914, -0.04736965149641037, -0.3124499022960663, 0.17653433978557587, 0.26720130443573, -0.053150564432144165, 0.09328212589025497, 0.022111885249614716, 0.18695978820323944, -0.00674538966268301, 0.05112773925065994, 0.012206587940454483, -0.1372145712375641, 0.09418274462223053, -0.15670202672481537, 0.11251131445169449, 0.03541894257068634, -0.11580481380224228, 0.08803385496139526, -0.11960548907518387, -0.030076848343014717, -0.09086978435516357, 0.04079613462090492, -0.16608679294586182, -0.06992705166339874, -0.04231768101453781, 0.10191664844751358, -0.022562740370631218, -0.13854461908340454, -0.07577548176050186, 0.050505660474300385, -0.015383557416498661, -0.055336982011795044, 0.1717924326658249, -0.1673644632101059, -0.16226311028003693, 0.024669572710990906, -0.03673496097326279, -0.1699199676513672, 0.04202970862388611, 0.03413291275501251, -0.0854920819401741, -0.09596520662307739, -0.07559133321046829, 0.17441591620445251, 0.14181581139564514, 0.05965761840343475, 0.02718828059732914, -0.026531090959906578, 0.16389232873916626, -0.030071215704083443, -0.02157648280262947, -0.0682544931769371, 0.14891119301319122, -0.1460895985364914, -0.0275591854006052, -0.05008390173316002, -0.08520018309354782, -0.05494724586606026, -0.09704121947288513, -0.09353066980838776, 0.15814830362796783, -0.06429817527532578, -0.18794181942939758, 0.06671934574842453, 0.020068896934390068, 0.10720165818929672, 0.13872934877872467, 0.18305703997612, -0.09455343335866928, -0.13377471268177032, -0.10143905133008957, -0.1506251096725464, 0.11938628554344177, -0.02023068442940712, 0.07023061811923981, -0.0823594331741333, 0.03900215029716492, 0.02574761025607586, -0.19318658113479614, 0.0609331950545311, -0.11228979378938675, -0.03933984041213989, -0.011871051043272018, 0.1499244123697281], "wo_output": [-0.05655309185385704, 0.10552939772605896, 0.06052090972661972, -0.041029296815395355, 0.08103808760643005, 0.027048110961914062, 0.09112522751092911, 0.05228126794099808, -0.10749096423387527, 0.008927896618843079, 0.04317760840058327, 0.069518081843853, 0.04817765951156616, -0.03948339819908142, 0.051784805953502655, 0.09180610626935959, 0.006710812449455261, -0.07050370424985886, 0.02077474817633629, 0.03688894212245941, -0.012861669063568115, -0.055173732340335846, 0.02517239935696125, 0.025452859699726105, 0.0033796364441514015, -0.04250675439834595, 0.027048809453845024, -0.09249135106801987, 0.07657182216644287, -0.08775264024734497, 0.09562471508979797, 0.01965705305337906, -0.013842098414897919, 0.024642445147037506, -0.1190740093588829, 0.009205162525177002, -0.11271501332521439, -0.012685459107160568, -0.024295708164572716, -0.1010124534368515, -0.0007271841168403625, 0.06340329349040985, -0.04554129019379616, -0.05672973394393921, -0.05032064765691757, 0.06428664177656174, 0.0828123614192009, -0.19915243983268738, -0.05510276183485985, -0.040244393050670624, -0.15177683532238007, 0.0509573370218277, -0.06715689599514008, -0.004580827429890633, 0.06613370776176453, -0.12047518789768219, 0.09134842455387115, -0.13940048217773438, 0.1400899589061737, -0.018532197922468185, -0.03929834067821503, 0.02319333702325821, 0.023514967411756516, 0.05488548055291176, -0.023454688489437103, 0.013097139075398445, -0.06650730967521667, 0.007017292082309723, 0.103072389960289, -0.018048599362373352, -0.012644326314330101, -0.10638394951820374, -0.005225777626037598, -0.02738284319639206, -0.003070209175348282, 0.08303338289260864, 0.03045949898660183, -0.064573734998703, -0.03225918114185333, 0.05367989465594292, -0.07937102764844894, -0.056550465524196625, 0.1447877585887909, 0.16675019264221191, 0.09430307149887085, 0.03975629061460495, -0.030253566801548004, -0.07459991425275803, -0.054628901183605194, 0.09298702329397202, -0.0706009715795517, 0.013807406648993492, 0.02778780646622181, -0.052573204040527344, -0.015692150220274925, 0.010259329341351986, -0.07557281851768494, -0.11208214610815048, 0.05733991414308548, -0.04402495175600052, 0.0796051174402237, -0.169996976852417, 0.024865034967660904, 0.05078352987766266, -0.057754553854465485, -0.03612839803099632, -0.05225872993469238, 0.04548358544707298, 0.036142755299806595, -0.12497646361589432, -0.017467381432652473, 0.02664864808320999, -0.09150192141532898, -0.12532350420951843, -0.10304909199476242, -0.04076338931918144, 0.08518997579813004, 0.10113401710987091, -0.1415010392665863, -0.006122106686234474, 0.025126751512289047, 0.05628993362188339, 0.039976030588150024, -0.025073513388633728, 0.06095420569181442, -0.04035216569900513, -0.036139436066150665, -0.002779662609100342, 0.06280799955129623, 0.0525883287191391, -0.1131519228219986, 0.0058629754930734634, 0.07663635909557343, -0.048170942813158035, 0.028296779841184616, -0.019353097304701805, -0.046497806906700134, -0.11313435435295105, 0.10732508450746536, -0.04087434709072113, 0.1677653193473816, 0.10217152535915375, 0.11027168482542038, 0.09996121376752853, -0.015513453632593155, -0.010864198207855225, -0.010398861020803452, 0.05698288977146149, 0.086380735039711, -0.024058133363723755, 0.1186407282948494, 0.02901129424571991, -0.1501837968826294, 0.01634936034679413, 0.09289267659187317, 0.07323359698057175, 0.035438165068626404, -0.005529167130589485, -0.14659029245376587, -0.07210252434015274, -0.0768100768327713, -0.01121530495584011, 0.0241347998380661, 0.05171456187963486, -0.05043803155422211, -0.0683932825922966, -0.09904471784830093, -0.08135055750608444, 0.0005637332797050476, -0.008213264867663383, 0.11725230515003204, 0.007123997434973717, 0.05725417658686638, -0.10432035475969315, -0.025610066950321198, 0.1078130453824997, 0.00020604394376277924, -0.051929671317338943, -0.10854603350162506, 0.025325067341327667, 0.062073010951280594, 0.10684023797512054, 0.00041658151894807816, 0.09838312864303589, -0.050710152834653854, 0.019315073266625404, 0.006535828113555908, -0.004879465326666832, -0.05554906651377678, 0.07142654061317444, -0.0689837858080864, 0.030501127243041992, -0.022012097761034966, 0.0006632544100284576, 0.02803938277065754, 0.08870011568069458, -0.09599034488201141, 0.011256866157054901, -0.016620006412267685, 0.0050821490585803986, 0.05340114235877991, -0.03698471933603287, -0.10956460237503052, 0.1531851887702942, -0.04697708040475845, -0.026390330865979195, -0.07073011994361877, -1.5970319509506226e-05, -0.04073313623666763, -0.03723053261637688, 0.11665782332420349, 0.09291990101337433, -0.02757565677165985, -0.0018411986529827118, -0.0977640151977539, -0.11449754983186722, -0.06253351271152496, 0.041145775467157364, 0.026781022548675537, -0.03699464723467827, -0.16188493371009827, -0.1322380006313324, 0.061814650893211365, 0.030086273327469826, 0.04666876420378685, 0.003981020301580429, -0.07986696064472198, -0.17489853501319885, -0.03184719383716583, -0.13828277587890625, -0.11175195127725601, 0.0828256756067276, 0.02992752194404602, -0.062487658113241196, -0.044396840035915375, 0.10126567631959915, 0.06113189831376076, -0.03148623928427696, -0.11219576001167297, -0.010950138792395592, -0.03505072370171547, -0.024867646396160126, -0.08037392050027847, 0.020775696262717247, 0.04908422380685806, 0.03501072898507118, 0.024444356560707092, 0.02340516448020935, -0.024215562269091606, -0.043094418942928314, 0.024360598996281624, 0.08738686144351959, -0.01920733042061329, 0.07054559141397476, 0.07641211152076721, -0.05484321713447571]}, "heads": [{"head": 0, "head_dim": 32, "trace": [{"stage_idx": 0, "stage": "q_after_proj_rope", "q": [0.34057900309562683, 0.7667199969291687, 0.16905899345874786, -0.22600099444389343, -0.11820799857378006, 0.9664570093154907, 0.2884199917316437, -0.09706500172615051, -0.6031169891357422, 0.3487600088119507, -0.5925520062446594, 0.2985819876194, -0.012531000189483166, 0.4555949866771698, 0.5774520039558411, 0.46421700716018677, 0.9329760074615479, 0.5065900087356567, -0.15683500468730927, -1.1383520364761353, 0.16378000378608704, -0.7375040054321289, 0.6609659790992737, -0.3389729857444763, -0.5774580240249634, 0.8411039710044861, 0.602187991142273, -1.3391900062561035, -0.34754300117492676, 0.8691200017929077, 0.5448690056800842, -0.3711110055446625]}, {"stage_idx": 1, "stage": "scores_raw", "scores": [0.25826799869537354, 0.03691700100898743, -0.35118401050567627, 0.19279900193214417, -0.22655899822711945, 0.24471600353717804, 0.05132399871945381, 0.4251520037651062, -0.5306190252304077, 0.5240610241889954, -0.19133900105953217, 0.05853300169110298, -0.27483299374580383, 0.2489060014486313, 0.09500399976968765, -0.16330400109291077, -0.3733940124511719, 0.7560510039329529, 0.4251520037651062, -0.13882499933242798, -0.10435400158166885, -0.35118401050567627, -0.1638520061969757, -0.5136470198631287, 0.03785799816250801, 0.278546005487442, -0.15542300045490265, -0.008290999568998814, -0.3733940124511719, 0.055918000638484955, -0.2736720144748688, -0.4550960063934326, 0.278546005487442, 0.19310499727725983, -0.32629498839378357, 0.30225199460983276, -0.382735013961792, 0.09029000252485275, 0.29227301478385925, -0.17939800024032593, 0.10708700120449066, 0.49985799193382263, 0.11884699761867523, 0.06421100348234177, -0.35118401050567627, 0.26917698979377747, -0.5428550243377686, 0.10708700120449066, -0.06844499707221985, -0.21645699441432953, -0.3973200023174286, -0.19385799765586853, 0.38826099038124084, -0.07375899702310562, -0.08371499925851822, 0.10565099865198135, -0.35118401050567627, -0.27063798904418945, -0.27063798904418945, -0.7579349875450134, 0.1320520043373108, -0.3833659887313843, 0.5776140093803406, 0.3331829905509949, 0.35810598731040955, 0.324864000082016, -0.35118401050567627, 0.022257000207901, 0.35810598731040955, -0.14402300119400024, -0.08371499925851822, 0.10708700120449066, 0.5319539904594421, 0.48026901483535767, 0.17316800355911255, 0.048505999147892, 0.4251520037651062, 0.10708700120449066, -0.22900399565696716, 0.35718101263046265, 0.2343209981918335, 0.4251520037651062, -0.3733940124511719, -0.558883011341095, -0.5274329781532288, 0.11039300262928009, 0.4402639865875244, 0.09683699905872345, -0.35118401050567627, -0.22647899389266968, -0.3833659887313843, 0.278546005487442, -0.14148999750614166, 0.06874600052833557, 0.35810598731040955, -0.20173199474811554, -0.4089980125427246, -0.37668201327323914, -0.608735978603363, 0.18794900178909302, -0.00015999999595806003, -0.09825500100851059, -0.7035120129585266, -0.6275330185890198, 0.45186901092529297, -0.16612200438976288, -0.046557001769542694, -0.07533600181341171, -0.20173199474811554, -0.38636699318885803, 0.7724379897117615, -0.6053569912910461, 0.07308200001716614, 0.22230300307273865, 0.2911039888858795, -0.21067699790000916, 0.022257000207901, 0.278546005487442, -0.3973200023174286, -0.7683659791946411, -0.08371499925851822, 0.10708700120449066, -0.3833659887313843, 0.278546005487442, 0.13313700258731842, -0.3383580148220062, 0.3032369911670685, -0.35118401050567627]}, {"stage_idx": 2, "stage": "scores_masked", "scores": [0.25826799869537354, 0.03691700100898743, -0.35118401050567627, 0.19279900193214417, -0.22655899822711945, 0.24471600353717804, 0.05132399871945381, 0.4251520037651062, -0.5306190252304077, 0.5240610241889954, -0.19133900105953217, 0.05853300169110298, -0.27483299374580383, 0.2489060014486313, 0.09500399976968765, -0.16330400109291077, -0.3733940124511719, 0.7560510039329529, 0.4251520037651062, -0.13882499933242798, -0.10435400158166885, -0.35118401050567627, -0.1638520061969757, -0.5136470198631287, 0.03785799816250801, 0.278546005487442, -0.15542300045490265, -0.008290999568998814, -0.3733940124511719, 0.055918000638484955, -0.2736720144748688, -0.4550960063934326, 0.278546005487442, 0.19310499727725983, -0.32629498839378357, 0.30225199460983276, -0.382735013961792, 0.09029000252485275, 0.29227301478385925, -0.17939800024032593, 0.10708700120449066, 0.49985799193382263, 0.11884699761867523, 0.06421100348234177, -0.35118401050567627, 0.26917698979377747, -0.5428550243377686, 0.10708700120449066, -0.06844499707221985, -0.21645699441432953, -0.3973200023174286, -0.19385799765586853, 0.38826099038124084, -0.07375899702310562, -0.08371499925851822, 0.10565099865198135, -0.35118401050567627, -0.27063798904418945, -0.27063798904418945, -0.7579349875450134, 0.1320520043373108, -0.3833659887313843, 0.5776140093803406, 0.3331829905509949, 0.35810598731040955, 0.324864000082016, -0.35118401050567627, 0.022257000207901, 0.35810598731040955, -0.14402300119400024, -0.08371499925851822, 0.10708700120449066, 0.5319539904594421, 0.48026901483535767, 0.17316800355911255, 0.048505999147892, 0.4251520037651062, 0.10708700120449066, -0.22900399565696716, 0.35718101263046265, 0.2343209981918335, 0.4251520037651062, -0.3733940124511719, -0.558883011341095, -0.5274329781532288, 0.11039300262928009, 0.4402639865875244, 0.09683699905872345, -0.35118401050567627, -0.22647899389266968, -0.3833659887313843, 0.278546005487442, -0.14148999750614166, 0.06874600052833557, 0.35810598731040955, -0.20173199474811554, -0.4089980125427246, -0.37668201327323914, -0.608735978603363, 0.18794900178909302, -0.00015999999595806003, -0.09825500100851059, -0.7035120129585266, -0.6275330185890198, 0.45186901092529297, -0.16612200438976288, -0.046557001769542694, -0.07533600181341171, -0.20173199474811554, -0.38636699318885803, 0.7724379897117615, -0.6053569912910461, 0.07308200001716614, 0.22230300307273865, 0.2911039888858795, -0.21067699790000916, 0.022257000207901, 0.278546005487442, -0.3973200023174286, -0.7683659791946411, -0.08371499925851822, 0.10708700120449066, -0.3833659887313843, 0.278546005487442, 0.13313700258731842, -0.3383580148220062, 0.3032369911670685, -0.35118401050567627]}, {"stage_idx": 3, "stage": "weights_softmax", "weights": [0.00987400021404028, 0.007914000190794468, 0.005367999896407127, 0.009248999878764153, 0.006080999970436096, 0.009740999899804592, 0.008028999902307987, 0.011668000370264053, 0.004486000165343285, 0.012880999594926834, 0.006298999767750502, 0.008086999878287315, 0.005793999880552292, 0.009782000444829464, 0.008387000299990177, 0.006477999966591597, 0.005249999929219484, 0.01624399982392788, 0.011668000370264053, 0.006637999787926674, 0.0068709999322891235, 0.005367999896407127, 0.006473999936133623, 0.004563000053167343, 0.007921000011265278, 0.01007699966430664, 0.006529000122100115, 0.007563999854028225, 0.005249999929219484, 0.008065000176429749, 0.005801000166684389, 0.004838000051677227, 0.01007699966430664, 0.009251000359654427, 0.005503000225871801, 0.010317999869585037, 0.005200999788939953, 0.00834800023585558, 0.010215999558568, 0.006374000106006861, 0.008488999679684639, 0.0125730000436306, 0.008589000441133976, 0.008132999762892723, 0.005367999896407127, 0.009983000345528126, 0.00443200021982193, 0.008488999679684639, 0.007122000213712454, 0.006142000202089548, 0.005125999916344881, 0.006283000111579895, 0.011245000176131725, 0.007085000164806843, 0.007013999857008457, 0.008476999588310719, 0.005367999896407127, 0.005818000063300133, 0.005818000063300133, 0.003573999973013997, 0.008704000152647495, 0.005197999998927116, 0.013589000329375267, 0.010642999783158302, 0.010910999961197376, 0.010553999803960323, 0.005367999896407127, 0.007799000013619661, 0.010910999961197376, 0.006603999994695187, 0.007013999857008457, 0.008488999679684639, 0.01298299990594387, 0.012329000048339367, 0.009069000370800495, 0.008005999960005283, 0.011668000370264053, 0.008488999679684639, 0.006066000089049339, 0.01090100035071373, 0.00964100006967783, 0.011668000370264053, 0.005249999929219484, 0.004360999912023544, 0.0045010000467300415, 0.008516999892890453, 0.011845000088214874, 0.008402000181376934, 0.005367999896407127, 0.006080999970436096, 0.005197999998927116, 0.01007699966430664, 0.00662099989131093, 0.008170000277459621, 0.010910999961197376, 0.0062339999713003635, 0.005067000165581703, 0.005233000032603741, 0.004149000160396099, 0.009204000234603882, 0.007625999860465527, 0.006912999786436558, 0.003774000098928809, 0.004071999806910753, 0.011983999982476234, 0.006459999829530716, 0.007280000019818544, 0.007073000073432922, 0.0062339999713003635, 0.0051830001175403595, 0.01651199907064438, 0.004162999801337719, 0.008205000311136246, 0.00952600035816431, 0.010204000398516655, 0.006178000010550022, 0.007799000013619661, 0.01007699966430664, 0.005125999916344881, 0.003536999924108386, 0.007013999857008457, 0.008488999679684639, 0.005197999998927116, 0.01007699966430664, 0.00871300045400858, 0.005437000188976526, 0.01032899972051382, 0.005367999896407127], "sum": 1.0}, {"stage_idx": 4, "stage": "weights_after_dropout", "weights": [0.00987400021404028, 0.007914000190794468, 0.005367999896407127, 0.009248999878764153, 0.006080999970436096, 0.009740999899804592, 0.008028999902307987, 0.011668000370264053, 0.004486000165343285, 0.012880999594926834, 0.006298999767750502, 0.008086999878287315, 0.005793999880552292, 0.009782000444829464, 0.008387000299990177, 0.006477999966591597, 0.005249999929219484, 0.01624399982392788, 0.011668000370264053, 0.006637999787926674, 0.0068709999322891235, 0.005367999896407127, 0.006473999936133623, 0.004563000053167343, 0.007921000011265278, 0.01007699966430664, 0.006529000122100115, 0.007563999854028225, 0.005249999929219484, 0.008065000176429749, 0.005801000166684389, 0.004838000051677227, 0.01007699966430664, 0.009251000359654427, 0.005503000225871801, 0.010317999869585037, 0.005200999788939953, 0.00834800023585558, 0.010215999558568, 0.006374000106006861, 0.008488999679684639, 0.0125730000436306, 0.008589000441133976, 0.008132999762892723, 0.005367999896407127, 0.009983000345528126, 0.00443200021982193, 0.008488999679684639, 0.007122000213712454, 0.006142000202089548, 0.005125999916344881, 0.006283000111579895, 0.011245000176131725, 0.007085000164806843, 0.007013999857008457, 0.008476999588310719, 0.005367999896407127, 0.005818000063300133, 0.005818000063300133, 0.003573999973013997, 0.008704000152647495, 0.005197999998927116, 0.013589000329375267, 0.010642999783158302, 0.010910999961197376, 0.010553999803960323, 0.005367999896407127, 0.007799000013619661, 0.010910999961197376, 0.006603999994695187, 0.007013999857008457, 0.008488999679684639, 0.01298299990594387, 0.012329000048339367, 0.009069000370800495, 0.008005999960005283, 0.011668000370264053, 0.008488999679684639, 0.006066000089049339, 0.01090100035071373, 0.00964100006967783, 0.011668000370264053, 0.005249999929219484, 0.004360999912023544, 0.0045010000467300415, 0.008516999892890453, 0.011845000088214874, 0.008402000181376934, 0.005367999896407127, 0.006080999970436096, 0.005197999998927116, 0.01007699966430664, 0.00662099989131093, 0.008170000277459621, 0.010910999961197376, 0.0062339999713003635, 0.005067000165581703, 0.005233000032603741, 0.004149000160396099, 0.009204000234603882, 0.007625999860465527, 0.006912999786436558, 0.003774000098928809, 0.004071999806910753, 0.011983999982476234, 0.006459999829530716, 0.007280000019818544, 0.007073000073432922, 0.0062339999713003635, 0.0051830001175403595, 0.01651199907064438, 0.004162999801337719, 0.008205000311136246, 0.00952600035816431, 0.010204000398516655, 0.006178000010550022, 0.007799000013619661, 0.01007699966430664, 0.005125999916344881, 0.003536999924108386, 0.007013999857008457, 0.008488999679684639, 0.005197999998927116, 0.01007699966430664, 0.00871300045400858, 0.005437000188976526, 0.01032899972051382, 0.005367999896407127], "sum": 1.0, "dropout_applied": false}, {"stage_idx": 5, "stage": "topk_after_dropout", "k": 5, "topk": [{"pos": 110, "score_masked": 0.7724384665489197, "weight": 0.016512449830770493, "k": [0.13949500024318695, 0.23274800181388855, -0.17621999979019165, 0.4490959942340851, -1.030174970626831, 1.3278419971466064, 0.2147890031337738, -1.545727014541626, -0.46695399284362793, -0.31834301352500916, -0.42222699522972107, -0.09302499890327454, 0.5245659947395325, 0.5383870005607605, 0.039684001356363297, 0.5758609771728516, -0.27994200587272644, -0.26692599058151245, -0.7470759749412537, -0.901757001876831, 1.2832939624786377, 0.5336549878120422, 1.0990979671478271, -1.0203499794006348, 0.2836500108242035, 0.2494480013847351, 0.3911769986152649, 0.349712997674942, -1.7908879518508911, -0.36485299468040466, 0.0495540015399456, 0.1237339973449707], "v": [-0.25484800338745117, -0.27919599413871765, 0.07163099944591522, 0.18718500435352325, 1.1971620321273804, 0.4833810031414032, -0.3138439953327179, -0.7777159810066223, 0.11331800371408463, 0.17486999928951263, -0.4826759994029999, -0.18704700469970703, 0.15935300290584564, -0.006982999853789806, 0.30841100215911865, -0.007872000336647034, 0.801334023475647, 0.3791249990463257, -0.4039109945297241, -0.4379259943962097, 0.20319800078868866, 0.697426974773407, 0.1616789996623993, -0.7862139940261841, -0.4838460087776184, -0.4912010133266449, -0.49210599064826965, 0.7777130007743835, 0.9063060283660889, -0.4746350049972534, -0.12738600373268127, 0.2233870029449463]}, {"pos": 17, "score_masked": 0.7560513615608215, "weight": 0.016244063153862953, "k": [0.9121189713478088, -0.09465599805116653, -0.7523840069770813, -0.6624959707260132, -0.9565439820289612, 1.0906000137329102, -0.2506900131702423, -0.4952220022678375, -0.6207370162010193, -0.6574140191078186, -0.9861950278282166, 0.8994079828262329, -0.6319360136985779, 0.044766999781131744, -0.28199100494384766, -0.44447100162506104, -0.01145000010728836, -0.28214699029922485, 0.8468629717826843, -0.5173879861831665, 0.33924400806427, -0.2162179946899414, 1.046447992324829, -0.730659008026123, 0.08317799866199493, 0.20892100036144257, 0.19869600236415863, -0.5964679718017578, 0.5375310182571411, 0.21054799854755402, -0.2134779989719391, 0.44901901483535767], "v": [0.8797919750213623, 0.47005099058151245, -1.452936053276062, -0.06498400121927261, -0.09845399856567383, 0.4962190091609955, -0.28341400623321533, 0.050822000950574875, -0.014987999573349953, 0.5171499848365784, -1.3326900005340576, 0.7057369947433472, -0.9349539875984192, 0.10567700117826462, -0.6847919821739197, 0.1437070071697235, 0.31878700852394104, -1.009781002998352, 0.5568699836730957, -0.179640993475914, -0.11258000135421753, -0.9565619826316833, -0.11708799749612808, -0.03860900178551674, 0.674170970916748, -0.37073999643325806, 0.6322550177574158, -0.283145010471344, 0.16709400713443756, -0.23172500729560852, -1.0799239873886108, 0.06210099905729294]}, {"pos": 62, "score_masked": 0.5776139497756958, "weight": 0.013589400798082352, "k": [0.36012399196624756, -0.013372000306844711, 0.5774189829826355, 0.28734201192855835, 0.1550540030002594, 0.5522930026054382, -0.20436400175094604, -0.03393600136041641, 0.464834988117218, -0.304982990026474, -0.2191690057516098, -0.4445669949054718, -0.9332519769668579, 0.18816399574279785, 0.5308640003204346, 0.027884000912308693, -0.631151020526886, -0.22213700413703918, 0.39004001021385193, -0.5568180084228516, -0.23636600375175476, -0.24939300119876862, 0.6380109786987305, -0.6860899925231934, -0.605767011642456, 0.5979470014572144, -0.8924490213394165, -0.5111849904060364, -0.17551499605178833, 0.6173459887504578, 0.3089739978313446, -0.5354340076446533], "v": [0.6504160165786743, -0.3308190107345581, 0.013760999776422977, -0.04738900065422058, -0.4020090103149414, 0.7657099962234497, 0.46158599853515625, -0.5161759853363037, 0.20031699538230896, 0.008456000126898289, -0.39403700828552246, -0.471345990896225, 0.43709298968315125, -0.47997400164604187, -0.4268159866333008, 0.21182000637054443, 0.6953279972076416, -0.11296699941158295, -0.4973739981651306, -1.2326550483703613, -1.1076480150222778, -0.09501700103282928, 1.0111850500106812, -0.25211501121520996, 0.5358759760856628, 0.9286260008811951, -0.9328380227088928, -0.20055699348449707, -0.6452530026435852, 1.5083500146865845, 0.6423019766807556, 0.4782229959964752]}, {"pos": 72, "score_masked": 0.5319536924362183, "weight": 0.012982857413589954, "k": [-0.2721169888973236, 0.31024599075317383, -0.3481850028038025, -0.552253007888794, -0.422450989484787, 0.24779599905014038, 0.452690988779068, 0.45359599590301514, 0.3716779947280884, 0.040860000997781754, 0.4683440029621124, 0.582781970500946, 0.36430299282073975, 0.25468501448631287, 0.7684800028800964, 0.7238820195198059, 1.06387197971344, 1.178948998451233, 0.06445299834012985, -0.6432629823684692, 0.08143000304698944, 0.01563199982047081, -0.38680198788642883, -0.17040599882602692, 0.39083200693130493, 0.6267229914665222, -0.29034700989723206, -0.26631399989128113, 0.8260530233383179, -0.26871201395988464, -0.7547670006752014, -0.47695299983024597], "v": [-0.8707910180091858, 1.6092100143432617, -0.2773759961128235, 0.5525929927825928, 0.22722400724887848, -0.35192999243736267, 0.0750729963183403, 0.2825070023536682, -0.5017690062522888, -0.32524898648262024, -0.11546400189399719, 0.6713680028915405, 0.9691659808158875, 0.4945079982280731, -0.477853000164032, -0.7665579915046692, -0.48322299122810364, 0.0803999975323677, 0.05394500121474266, -0.007668000180274248, -1.0280660390853882, 0.5169389843940735, -0.16192999482154846, 0.19691400229930878, 0.45485201478004456, -0.13521499931812286, 0.2949970066547394, 0.10660099983215332, 0.7134850025177002, -0.3802799880504608, 0.12574100494384766, -0.808821976184845]}, {"pos": 9, "score_masked": 0.5240607261657715, "weight": 0.012880788184702396, "k": [0.6664850115776062, -0.8622699975967407, 0.25447601079940796, 0.16844099760055542, -0.7726640105247498, 0.3653689920902252, -0.9438160061836243, -0.007722000125795603, -0.2859080135822296, -0.4554300010204315, 0.044891998171806335, -0.0760900005698204, -0.6877949833869934, 0.5771059989929199, 0.44070398807525635, -0.30444300174713135, -0.4159280061721802, 0.34571799635887146, 1.0395029783248901, -1.0094820261001587, -0.37305399775505066, -0.3313179910182953, 0.38837799429893494, 0.03963100165128708, -0.27393999695777893, 0.07832100242376328, -0.3453899919986725, -0.7418599724769592, -0.4047999978065491, -0.023821000009775162, 0.0907839983701706, -1.3284649848937988], "v": [1.1187820434570312, -0.9116529822349548, 0.6023529767990112, 0.3704279959201813, -0.3906030058860779, 0.09674199670553207, 0.6124039888381958, 1.1901270151138306, -0.10156600177288055, 0.05547700077295303, -0.6322180032730103, -0.28904101252555847, 0.23458200693130493, 0.3232789933681488, 1.2850550413131714, 0.09133999794721603, 0.13417400419712067, 0.12550899386405945, -0.7933139801025391, -0.9369490146636963, 0.1304900050163269, -0.04966900125145912, -0.12104299664497375, 0.2257460057735443, -0.47801798582077026, 0.033946000039577484, -1.2432260513305664, 0.3336249887943268, -0.5829020142555237, 0.17930500209331512, -0.7228270173072815, 0.14832699298858643]}]}, {"stage_idx": 6, "stage": "context_head", "context": [-0.00031800000579096377, -0.09318800270557404, -0.018827000632882118, -0.08263800293207169, 0.02115200087428093, 0.181426003575325, -0.06113699823617935, -0.022853000089526176, 0.03371899947524071, 0.11226899921894073, -0.22742199897766113, 0.04911300167441368, 0.1663540005683899, 0.16297900676727295, -0.01571200042963028, -0.08135300129652023, 0.16169899702072144, 0.025913000106811523, 0.08251900225877762, -0.15486900508403778, -0.13335199654102325, 0.06020599976181984, -0.04668699949979782, -0.0836080014705658, 0.05463600158691406, -0.26705700159072876, -0.039948999881744385, 0.07212100178003311, -0.031311001628637314, 0.09693600237369537, -0.05567299947142601, -0.1805420070886612]}]}, {"head": 1, "head_dim": 32, "trace": [{"stage_idx": 0, "stage": "q_after_proj_rope", "q": [0.2906630039215088, 0.3447110056877136, -0.04097000136971474, -0.21039099991321564, 0.0026110000908374786, 0.40207499265670776, -0.4443590044975281, -0.09355500340461731, -0.3091050088405609, -0.18598799407482147, -0.08985699713230133, 0.40127798914909363, -0.4652409851551056, 0.24117499589920044, -0.15261000394821167, -0.1481499969959259, -0.262923002243042, 0.12285599857568741, 0.09999799728393555, 0.15142099559307098, -0.31592199206352234, -0.18589499592781067, -0.23017899692058563, 0.04920699819922447, -0.137473002076149, 0.12692299485206604, -0.8557590246200562, 0.18511000275611877, 0.2873550057411194, -0.437406986951828, 1.3121449947357178, -0.1570190042257309]}, {"stage_idx": 1, "stage": "scores_raw", "scores": [-0.14100000262260437, -0.012764000333845615, 0.081557996571064, 0.16710799932479858, 0.15542800724506378, -0.06572800129652023, -0.08599299937486649, -0.22287200391292572, 0.09870599955320358, 0.0021840000990778208, -0.2860420048236847, -0.20889799296855927, 0.10728900134563446, -0.15780700743198395, 0.06023700162768364, 0.3752039968967438, 0.39681899547576904, 0.044047001749277115, -0.22287200391292572, 0.056779999285936356, -0.26004698872566223, 0.081557996571064, -0.31701400876045227, -0.27066099643707275, -0.15225400030612946, 0.4534820020198822, -0.27256399393081665, -0.08367600291967392, 0.39681899547576904, 0.19395199418067932, -0.2020999938249588, -0.020826999098062515, 0.4534820020198822, -0.02164899930357933, -0.5541229844093323, 0.25212201476097107, 0.03902199864387512, -0.016099000349640846, -0.19742000102996826, 0.2848530113697052, 0.17929300665855408, -0.04242299869656563, 0.051541998982429504, -0.20812900364398956, 0.081557996571064, -0.07230299711227417, 0.42685699462890625, 0.17929300665855408, -0.006798999849706888, 0.010509000159800053, 0.021421000361442566, 0.1097560003399849, -0.15215200185775757, -0.2301339954137802, -0.3578700125217438, 0.18762600421905518, 0.081557996571064, -0.5951709747314453, -0.5951709747314453, -0.20665499567985535, -0.05122600123286247, -0.2587130069732666, -0.08819299936294556, 0.043556999415159225, 0.055994000285863876, -0.4312480092048645, 0.081557996571064, -0.25341299176216125, 0.055994000285863876, -0.12735100090503693, -0.3578700125217438, 0.17929300665855408, -0.15178099274635315, -0.09443800151348114, -0.024233000352978706, 0.37875598669052124, -0.22287200391292572, 0.17929300665855408, -0.251803994178772, 0.07551799714565277, -0.22324000298976898, -0.22287200391292572, 0.39681899547576904, -0.14911000430583954, 0.13680900633335114, 0.11464499682188034, 0.5180960297584534, 0.43343400955200195, 0.081557996571064, 0.012501999735832214, -0.2587130069732666, 0.4534820020198822, -0.0645420029759407, 0.19324800372123718, 0.055994000285863876, -0.030274000018835068, -0.14355400204658508, 0.08368899673223495, -0.3222639858722687, -0.22826500236988068, -0.13763099908828735, 0.21514999866485596, 0.17715199291706085, -0.24891400337219238, 0.23851099610328674, 0.03721199929714203, -0.4103519916534424, -0.16169099509716034, -0.030274000018835068, 0.10353700071573257, 0.12804000079631805, -0.2364169955253601, 0.003226999891921878, -0.1486710011959076, 0.14690199494361877, 0.37229999899864197, -0.25341299176216125, 0.4534820020198822, 0.021421000361442566, 0.34283000230789185, -0.3578700125217438, 0.17929300665855408, -0.2587130069732666, 0.4534820020198822, -0.012505000457167625, -0.12298700213432312, 0.14500999450683594, 0.081557996571064]}, {"stage_idx": 2, "stage": "scores_masked", "scores": [-0.14100000262260437, -0.012764000333845615, 0.081557996571064, 0.16710799932479858, 0.15542800724506378, -0.06572800129652023, -0.08599299937486649, -0.22287200391292572, 0.09870599955320358, 0.0021840000990778208, -0.2860420048236847, -0.20889799296855927, 0.10728900134563446, -0.15780700743198395, 0.06023700162768364, 0.3752039968967438, 0.39681899547576904, 0.044047001749277115, -0.22287200391292572, 0.056779999285936356, -0.26004698872566223, 0.081557996571064, -0.31701400876045227, -0.27066099643707275, -0.15225400030612946, 0.4534820020198822, -0.27256399393081665, -0.08367600291967392, 0.39681899547576904, 0.19395199418067932, -0.2020999938249588, -0.020826999098062515, 0.4534820020198822, -0.02164899930357933, -0.5541229844093323, 0.25212201476097107, 0.03902199864387512, -0.016099000349640846, -0.19742000102996826, 0.2848530113697052, 0.17929300665855408, -0.04242299869656563, 0.051541998982429504, -0.20812900364398956, 0.081557996571064, -0.07230299711227417, 0.42685699462890625, 0.17929300665855408, -0.006798999849706888, 0.010509000159800053, 0.021421000361442566, 0.1097560003399849, -0.15215200185775757, -0.2301339954137802, -0.3578700125217438, 0.18762600421905518, 0.081557996571064, -0.5951709747314453, -0.5951709747314453, -0.20665499567985535, -0.05122600123286247, -0.2587130069732666, -0.08819299936294556, 0.043556999415159225, 0.055994000285863876, -0.4312480092048645, 0.081557996571064, -0.25341299176216125, 0.055994000285863876, -0.12735100090503693, -0.3578700125217438, 0.17929300665855408, -0.15178099274635315, -0.09443800151348114, -0.024233000352978706, 0.37875598669052124, -0.22287200391292572, 0.17929300665855408, -0.251803994178772, 0.07551799714565277, -0.22324000298976898, -0.22287200391292572, 0.39681899547576904, -0.14911000430583954, 0.13680900633335114, 0.11464499682188034, 0.5180960297584534, 0.43343400955200195, 0.081557996571064, 0.012501999735832214, -0.2587130069732666, 0.4534820020198822, -0.0645420029759407, 0.19324800372123718, 0.055994000285863876, -0.030274000018835068, -0.14355400204658508, 0.08368899673223495, -0.3222639858722687, -0.22826500236988068, -0.13763099908828735, 0.21514999866485596, 0.17715199291706085, -0.24891400337219238, 0.23851099610328674, 0.03721199929714203, -0.4103519916534424, -0.16169099509716034, -0.030274000018835068, 0.10353700071573257, 0.12804000079631805, -0.2364169955253601, 0.003226999891921878, -0.1486710011959076, 0.14690199494361877, 0.37229999899864197, -0.25341299176216125, 0.4534820020198822, 0.021421000361442566, 0.34283000230789185, -0.3578700125217438, 0.17929300665855408, -0.2587130069732666, 0.4534820020198822, -0.012505000457167625, -0.12298700213432312, 0.14500999450683594, 0.081557996571064]}, {"stage_idx": 3, "stage": "weights_softmax", "weights": [0.006645000074058771, 0.007553999777883291, 0.008301000110805035, 0.00904299970716238, 0.008937999606132507, 0.007164999842643738, 0.007021000143140554, 0.00612299982458353, 0.008445000275969505, 0.007668000180274248, 0.005747999995946884, 0.006209000013768673, 0.00851800013333559, 0.006533999927341938, 0.008125999942421913, 0.011134999804198742, 0.011377999559044838, 0.007996000349521637, 0.00612299982458353, 0.008097999729216099, 0.005898999981582165, 0.008301000110805035, 0.005572999827563763, 0.005836999975144863, 0.006570999976247549, 0.012040999718010426, 0.00582600012421608, 0.007036999799311161, 0.011377999559044838, 0.009289000183343887, 0.006250999867916107, 0.007493999786674976, 0.012040999718010426, 0.007486999966204166, 0.004395999945700169, 0.009844999760389328, 0.007956000044941902, 0.007528999820351601, 0.006279999855905771, 0.010173000395298004, 0.0091540003195405, 0.007333000190556049, 0.008055999875068665, 0.006213999819010496, 0.008301000110805035, 0.00711800018325448, 0.011725000105798244, 0.0091540003195405, 0.007598999887704849, 0.0077320002019405365, 0.007817000150680542, 0.00853899959474802, 0.006570999976247549, 0.00607800018042326, 0.005348999984562397, 0.009229999966919422, 0.008301000110805035, 0.004219000227749348, 0.004219000227749348, 0.00622300012037158, 0.007269000168889761, 0.005907000042498112, 0.0070050000213086605, 0.007992000319063663, 0.008092000149190426, 0.004970999900251627, 0.008301000110805035, 0.0059380000457167625, 0.008092000149190426, 0.006736000068485737, 0.005348999984562397, 0.0091540003195405, 0.006574000231921673, 0.006961999926716089, 0.007468000054359436, 0.01117399986833334, 0.00612299982458353, 0.0091540003195405, 0.005948000121861696, 0.008251000195741653, 0.006120000034570694, 0.00612299982458353, 0.011377999559044838, 0.0065910001285374165, 0.008772999979555607, 0.008581000380218029, 0.012845000252127647, 0.011801999993622303, 0.008301000110805035, 0.007747000083327293, 0.005907000042498112, 0.012040999718010426, 0.007172999903559685, 0.009282000362873077, 0.008092000149190426, 0.007422999944537878, 0.0066280001774430275, 0.008318999782204628, 0.005543000064790249, 0.006089999806135893, 0.006666999775916338, 0.009487999603152275, 0.009134000167250633, 0.00596500001847744, 0.009712000377476215, 0.007941000163555145, 0.0050760000012815, 0.006508999969810247, 0.007422999944537878, 0.008485999889671803, 0.008696000091731548, 0.006039999891072512, 0.007675999775528908, 0.006593999918550253, 0.008861999958753586, 0.011102000251412392, 0.0059380000457167625, 0.012040999718010426, 0.007817000150680542, 0.010780000127851963, 0.005348999984562397, 0.0091540003195405, 0.005907000042498112, 0.012040999718010426, 0.007555999793112278, 0.006765999831259251, 0.008844999596476555, 0.008301000110805035], "sum": 1.0}, {"stage_idx": 4, "stage": "weights_after_dropout", "weights": [0.006645000074058771, 0.007553999777883291, 0.008301000110805035, 0.00904299970716238, 0.008937999606132507, 0.007164999842643738, 0.007021000143140554, 0.00612299982458353, 0.008445000275969505, 0.007668000180274248, 0.005747999995946884, 0.006209000013768673, 0.00851800013333559, 0.006533999927341938, 0.008125999942421913, 0.011134999804198742, 0.011377999559044838, 0.007996000349521637, 0.00612299982458353, 0.008097999729216099, 0.005898999981582165, 0.008301000110805035, 0.005572999827563763, 0.005836999975144863, 0.006570999976247549, 0.012040999718010426, 0.00582600012421608, 0.007036999799311161, 0.011377999559044838, 0.009289000183343887, 0.006250999867916107, 0.007493999786674976, 0.012040999718010426, 0.007486999966204166, 0.004395999945700169, 0.009844999760389328, 0.007956000044941902, 0.007528999820351601, 0.006279999855905771, 0.010173000395298004, 0.0091540003195405, 0.007333000190556049, 0.008055999875068665, 0.006213999819010496, 0.008301000110805035, 0.00711800018325448, 0.011725000105798244, 0.0091540003195405, 0.007598999887704849, 0.0077320002019405365, 0.007817000150680542, 0.00853899959474802, 0.006570999976247549, 0.00607800018042326, 0.005348999984562397, 0.009229999966919422, 0.008301000110805035, 0.004219000227749348, 0.004219000227749348, 0.00622300012037158, 0.007269000168889761, 0.005907000042498112, 0.0070050000213086605, 0.007992000319063663, 0.008092000149190426, 0.004970999900251627, 0.008301000110805035, 0.0059380000457167625, 0.008092000149190426, 0.006736000068485737, 0.005348999984562397, 0.0091540003195405, 0.006574000231921673, 0.006961999926716089, 0.007468000054359436, 0.01117399986833334, 0.00612299982458353, 0.0091540003195405, 0.005948000121861696, 0.008251000195741653, 0.006120000034570694, 0.00612299982458353, 0.011377999559044838, 0.0065910001285374165, 0.008772999979555607, 0.008581000380218029, 0.012845000252127647, 0.011801999993622303, 0.008301000110805035, 0.007747000083327293, 0.005907000042498112, 0.012040999718010426, 0.007172999903559685, 0.009282000362873077, 0.008092000149190426, 0.007422999944537878, 0.0066280001774430275, 0.008318999782204628, 0.005543000064790249, 0.006089999806135893, 0.006666999775916338, 0.009487999603152275, 0.009134000167250633, 0.00596500001847744, 0.009712000377476215, 0.007941000163555145, 0.0050760000012815, 0.006508999969810247, 0.007422999944537878, 0.008485999889671803, 0.008696000091731548, 0.006039999891072512, 0.007675999775528908, 0.006593999918550253, 0.008861999958753586, 0.011102000251412392, 0.0059380000457167625, 0.012040999718010426, 0.007817000150680542, 0.010780000127851963, 0.005348999984562397, 0.0091540003195405, 0.005907000042498112, 0.012040999718010426, 0.007555999793112278, 0.006765999831259251, 0.008844999596476555, 0.008301000110805035], "sum": 1.0, "dropout_applied": false}, {"stage_idx": 5, "stage": "topk_after_dropout", "k": 5, "topk": [{"pos": 86, "score_masked": 0.5180960297584534, "weight": 0.012845122255384922, "k": [-0.31817498803138733, 0.3939250111579895, 0.8259490132331848, -0.17048999667167664, -1.1995209455490112, 0.2530669867992401, -1.0528219938278198, -0.1393270045518875, -0.7319959998130798, -1.418619990348816, 0.4601669907569885, 0.5886989831924438, 0.02907400019466877, 0.6188660264015198, -0.20255400240421295, -0.1404699981212616, 0.1991479992866516, 1.8419480323791504, 0.4478209912776947, -0.3654690086841583, -0.4284040033817291, 0.3242399990558624, 0.141867995262146, -0.14002199470996857, -0.16449999809265137, 0.6262140274047852, 0.6038529872894287, -0.25148001313209534, 0.4893290102481842, 0.1083270013332367, 1.2696360349655151, 0.40337300300598145], "v": [-0.8573979735374451, 0.07947199791669846, -0.22887299954891205, -0.37275001406669617, 0.2697260081768036, -0.06504199653863907, 0.18445700407028198, -0.8320890069007874, -0.9159060120582581, -0.24932099878787994, -0.4857249855995178, -0.311242014169693, 0.06761900335550308, 0.194691002368927, -0.5303980112075806, 0.5161830186843872, 0.15566299855709076, 0.5445039868354797, -0.6740429997444153, -0.22203899919986725, 0.2247759997844696, -0.35219401121139526, 0.05493199825286865, -1.075971007347107, -0.7771729826927185, -0.011584999971091747, -0.6527770161628723, 0.35987499356269836, 0.5242649912834167, 0.4251750111579895, 0.12610399723052979, 0.40421199798583984]}, {"pos": 91, "score_masked": 0.4534819722175598, "weight": 0.012041392736136913, "k": [-0.13763999938964844, 0.3345310091972351, -0.6812379956245422, 0.4925920069217682, -0.6195129752159119, 0.18732799589633942, 0.2545750141143799, -0.9543290138244629, -0.6993860006332397, -0.18729400634765625, -0.2887420058250427, -0.1273220032453537, -0.17146800458431244, -0.9410070180892944, -0.7799130082130432, 0.4271419942378998, -0.1415800005197525, 0.052241001278162, -0.5230249762535095, -0.11695100367069244, -0.8766250014305115, -0.4610399901866913, 0.34439098834991455, -0.6525859832763672, 0.6274579763412476, 0.39751899242401123, -1.073246955871582, 0.04004500061273575, 0.4257330000400543, -1.314012050628662, 0.31023499369621277, -1.0334980487823486], "v": [0.18644699454307556, 0.015134000219404697, -0.03920400142669678, -0.45340999960899353, 0.02168400026857853, -0.24924799799919128, 0.4100019931793213, 0.7528190016746521, -0.040759000927209854, 0.6197530031204224, -0.03133999928832054, 0.5137879848480225, -0.04538499936461449, -0.013876000419259071, 0.8699510097503662, -0.6124839782714844, -0.21581600606441498, 0.22695399820804596, 0.8924970030784607, 0.31166499853134155, -0.027677999809384346, -0.3332349956035614, 0.7460830211639404, -0.06550200283527374, 0.22623799741268158, 0.21834400296211243, 0.14924000203609467, 0.07295700162649155, -0.048496998846530914, -0.35106199979782104, -0.4477570056915283, 0.3870280086994171]}, {"pos": 32, "score_masked": 0.4534819722175598, "weight": 0.012041392736136913, "k": [-0.13763999938964844, 0.3345310091972351, -0.6812379956245422, 0.4925920069217682, -0.6195129752159119, 0.18732799589633942, 0.2545750141143799, -0.9543290138244629, -0.6993860006332397, -0.18729400634765625, -0.2887420058250427, -0.1273220032453537, -0.17146800458431244, -0.9410070180892944, -0.7799130082130432, 0.4271419942378998, -0.1415800005197525, 0.052241001278162, -0.5230249762535095, -0.11695100367069244, -0.8766250014305115, -0.4610399901866913, 0.34439098834991455, -0.6525859832763672, 0.6274579763412476, 0.39751899242401123, -1.073246955871582, 0.04004500061273575, 0.4257330000400543, -1.314012050628662, 0.31023499369621277, -1.0334980487823486], "v": [0.18644699454307556, 0.015134000219404697, -0.03920400142669678, -0.45340999960899353, 0.02168400026857853, -0.24924799799919128, 0.4100019931793213, 0.7528190016746521, -0.040759000927209854, 0.6197530031204224, -0.03133999928832054, 0.5137879848480225, -0.04538499936461449, -0.013876000419259071, 0.8699510097503662, -0.6124839782714844, -0.21581600606441498, 0.22695399820804596, 0.8924970030784607, 0.31166499853134155, -0.027677999809384346, -0.3332349956035614, 0.7460830211639404, -0.06550200283527374, 0.22623799741268158, 0.21834400296211243, 0.14924000203609467, 0.07295700162649155, -0.048496998846530914, -0.35106199979782104, -0.4477570056915283, 0.3870280086994171]}, {"pos": 123, "score_masked": 0.4534819722175598, "weight": 0.012041392736136913, "k": [-0.13763999938964844, 0.3345310091972351, -0.6812379956245422, 0.4925920069217682, -0.6195129752159119, 0.18732799589633942, 0.2545750141143799, -0.9543290138244629, -0.6993860006332397, -0.18729400634765625, -0.2887420058250427, -0.1273220032453537, -0.17146800458431244, -0.9410070180892944, -0.7799130082130432, 0.4271419942378998, -0.1415800005197525, 0.052241001278162, -0.5230249762535095, -0.11695100367069244, -0.8766250014305115, -0.4610399901866913, 0.34439098834991455, -0.6525859832763672, 0.6274579763412476, 0.39751899242401123, -1.073246955871582, 0.04004500061273575, 0.4257330000400543, -1.314012050628662, 0.31023499369621277, -1.0334980487823486], "v": [0.18644699454307556, 0.015134000219404697, -0.03920400142669678, -0.45340999960899353, 0.02168400026857853, -0.24924799799919128, 0.4100019931793213, 0.7528190016746521, -0.040759000927209854, 0.6197530031204224, -0.03133999928832054, 0.5137879848480225, -0.04538499936461449, -0.013876000419259071, 0.8699510097503662, -0.6124839782714844, -0.21581600606441498, 0.22695399820804596, 0.8924970030784607, 0.31166499853134155, -0.027677999809384346, -0.3332349956035614, 0.7460830211639404, -0.06550200283527374, 0.22623799741268158, 0.21834400296211243, 0.14924000203609467, 0.07295700162649155, -0.048496998846530914, -0.35106199979782104, -0.4477570056915283, 0.3870280086994171]}, {"pos": 117, "score_masked": 0.4534819722175598, "weight": 0.012041392736136913, "k": [-0.13763999938964844, 0.3345310091972351, -0.6812379956245422, 0.4925920069217682, -0.6195129752159119, 0.18732799589633942, 0.2545750141143799, -0.9543290138244629, -0.6993860006332397, -0.18729400634765625, -0.2887420058250427, -0.1273220032453537, -0.17146800458431244, -0.9410070180892944, -0.7799130082130432, 0.4271419942378998, -0.1415800005197525, 0.052241001278162, -0.5230249762535095, -0.11695100367069244, -0.8766250014305115, -0.4610399901866913, 0.34439098834991455, -0.6525859832763672, 0.6274579763412476, 0.39751899242401123, -1.073246955871582, 0.04004500061273575, 0.4257330000400543, -1.314012050628662, 0.31023499369621277, -1.0334980487823486], "v": [0.18644699454307556, 0.015134000219404697, -0.03920400142669678, -0.45340999960899353, 0.02168400026857853, -0.24924799799919128, 0.4100019931793213, 0.7528190016746521, -0.040759000927209854, 0.6197530031204224, -0.03133999928832054, 0.5137879848480225, -0.04538499936461449, -0.013876000419259071, 0.8699510097503662, -0.6124839782714844, -0.21581600606441498, 0.22695399820804596, 0.8924970030784607, 0.31166499853134155, -0.027677999809384346, -0.3332349956035614, 0.7460830211639404, -0.06550200283527374, 0.22623799741268158, 0.21834400296211243, 0.14924000203609467, 0.07295700162649155, -0.048496998846530914, -0.35106199979782104, -0.4477570056915283, 0.3870280086994171]}]}, {"stage_idx": 6, "stage": "context_head", "context": [-0.07840999960899353, -0.021694999188184738, 0.028395000845193863, -0.05519700050354004, 0.12353599816560745, -0.03154800087213516, 0.09247799962759018, -0.016676999628543854, -0.11298300325870514, -0.15064600110054016, 0.11655700206756592, -0.10521800071001053, 0.06746000051498413, 0.024519000202417374, 0.09077300131320953, 0.04006600007414818, 0.031599000096321106, 0.21868300437927246, 0.0064500002190470695, -0.018120000138878822, 0.029431000351905823, -0.045942001044750214, 0.1189190000295639, 0.011385999619960785, 0.08304800093173981, 0.11067900061607361, -0.09565000236034393, -0.023625999689102173, 0.013776999898254871, 0.05958700180053711, 0.01604199968278408, 0.0874520018696785]}]}, {"head": 2, "head_dim": 32, "trace": [{"stage_idx": 0, "stage": "q_after_proj_rope", "q": [-0.06871499866247177, -0.48267799615859985, 1.1996690034866333, 0.6287950277328491, 0.13218599557876587, -0.15692000091075897, 0.42269501090049744, -0.12857000529766083, 0.06576099991798401, -0.12013900279998779, 0.03692200034856796, 0.159171000123024, -0.5426120162010193, -0.5219230055809021, 0.383107990026474, -0.5187640190124512, 0.03882100060582161, 0.07742200046777725, -0.8850160241127014, -1.0459589958190918, -0.6481720209121704, -0.6100999712944031, -0.5565699934959412, 0.5124459862709045, -0.015651000663638115, 0.41469600796699524, -0.05312899872660637, -0.5947059988975525, 0.5740929841995239, 0.6780250072479248, -0.8960549831390381, 0.09749100357294083]}, {"stage_idx": 1, "stage": "scores_raw", "scores": [0.5866950154304504, -0.7286400198936462, -0.1949319988489151, 0.27205801010131836, -0.3307420015335083, -0.03980199992656708, -0.2512489855289459, -0.04304499924182892, -0.05578000098466873, 0.026325000450015068, 0.5233539938926697, 0.4779540002346039, 0.4689030051231384, -0.0005939999828115106, -0.015320000238716602, 0.06089799851179123, 0.5218210220336914, 0.2409829944372177, -0.04304499924182892, -0.1277649998664856, 0.011501999571919441, -0.1949319988489151, -0.3702149987220764, -0.3913469910621643, 0.07135000079870224, -0.05993900075554848, -0.13858699798583984, -0.2783539891242981, 0.5218210220336914, -0.16801300644874573, 0.15666399896144867, -0.30978700518608093, -0.05993900075554848, 0.30016300082206726, 0.044913001358509064, 0.7183330059051514, -0.28421100974082947, -0.24605000019073486, -0.03928700089454651, -0.040063001215457916, -0.1757500022649765, 0.18717500567436218, 0.030300000682473183, -0.07261999696493149, -0.1949319988489151, -0.14931300282478333, 0.17682600021362305, -0.1757500022649765, 0.10524299740791321, -0.3991680145263672, -0.12430699914693832, -0.10807699710130692, -0.4155389964580536, -0.36666399240493774, -0.06150199845433235, 0.5979490280151367, -0.1949319988489151, -0.18665799498558044, -0.18665799498558044, 0.041443999856710434, 0.02049100026488304, 0.2966890037059784, 0.3969539999961853, -0.2267169952392578, -0.11552000045776367, 0.46276700496673584, -0.1949319988489151, -0.35158801078796387, -0.11552000045776367, -0.010858000256121159, -0.06150199845433235, -0.1757500022649765, -0.3320769965648651, 0.4280320107936859, 0.5054280161857605, 0.18316300213336945, -0.04304499924182892, -0.1757500022649765, 0.03448599949479103, 0.446258008480072, -0.1941549926996231, -0.04304499924182892, 0.5218210220336914, -0.19549299776554108, 0.370959997177124, 0.4920729994773865, 0.08525300025939941, -0.0033489998895674944, -0.1949319988489151, -0.016766000539064407, 0.2966890037059784, -0.05993900075554848, 0.5406010150909424, 0.7505009770393372, -0.11552000045776367, 0.5525799989700317, 0.2556290030479431, 0.07972700148820877, -0.21630200743675232, 0.2577129900455475, -0.028031000867486, -0.446042001247406, 0.19746200740337372, 0.007536000106483698, 0.09968400001525879, 0.14891399443149567, 0.28028300404548645, -0.31456300616264343, 0.5525799989700317, -0.05818700045347214, -0.4382070004940033, 0.016472000628709793, 0.3204300105571747, -0.00937500037252903, 0.00597799988463521, 0.4498870074748993, -0.35158801078796387, -0.05993900075554848, -0.12430699914693832, -0.20489899814128876, -0.06150199845433235, -0.1757500022649765, 0.2966890037059784, -0.05993900075554848, 0.29529300332069397, -0.14396999776363373, 0.2641040086746216, -0.1949319988489151]}, {"stage_idx": 2, "stage": "scores_masked", "scores": [0.5866950154304504, -0.7286400198936462, -0.1949319988489151, 0.27205801010131836, -0.3307420015335083, -0.03980199992656708, -0.2512489855289459, -0.04304499924182892, -0.05578000098466873, 0.026325000450015068, 0.5233539938926697, 0.4779540002346039, 0.4689030051231384, -0.0005939999828115106, -0.015320000238716602, 0.06089799851179123, 0.5218210220336914, 0.2409829944372177, -0.04304499924182892, -0.1277649998664856, 0.011501999571919441, -0.1949319988489151, -0.3702149987220764, -0.3913469910621643, 0.07135000079870224, -0.05993900075554848, -0.13858699798583984, -0.2783539891242981, 0.5218210220336914, -0.16801300644874573, 0.15666399896144867, -0.30978700518608093, -0.05993900075554848, 0.30016300082206726, 0.044913001358509064, 0.7183330059051514, -0.28421100974082947, -0.24605000019073486, -0.03928700089454651, -0.040063001215457916, -0.1757500022649765, 0.18717500567436218, 0.030300000682473183, -0.07261999696493149, -0.1949319988489151, -0.14931300282478333, 0.17682600021362305, -0.1757500022649765, 0.10524299740791321, -0.3991680145263672, -0.12430699914693832, -0.10807699710130692, -0.4155389964580536, -0.36666399240493774, -0.06150199845433235, 0.5979490280151367, -0.1949319988489151, -0.18665799498558044, -0.18665799498558044, 0.041443999856710434, 0.02049100026488304, 0.2966890037059784, 0.3969539999961853, -0.2267169952392578, -0.11552000045776367, 0.46276700496673584, -0.1949319988489151, -0.35158801078796387, -0.11552000045776367, -0.010858000256121159, -0.06150199845433235, -0.1757500022649765, -0.3320769965648651, 0.4280320107936859, 0.5054280161857605, 0.18316300213336945, -0.04304499924182892, -0.1757500022649765, 0.03448599949479103, 0.446258008480072, -0.1941549926996231, -0.04304499924182892, 0.5218210220336914, -0.19549299776554108, 0.370959997177124, 0.4920729994773865, 0.08525300025939941, -0.0033489998895674944, -0.1949319988489151, -0.016766000539064407, 0.2966890037059784, -0.05993900075554848, 0.5406010150909424, 0.7505009770393372, -0.11552000045776367, 0.5525799989700317, 0.2556290030479431, 0.07972700148820877, -0.21630200743675232, 0.2577129900455475, -0.028031000867486, -0.446042001247406, 0.19746200740337372, 0.007536000106483698, 0.09968400001525879, 0.14891399443149567, 0.28028300404548645, -0.31456300616264343, 0.5525799989700317, -0.05818700045347214, -0.4382070004940033, 0.016472000628709793, 0.3204300105571747, -0.00937500037252903, 0.00597799988463521, 0.4498870074748993, -0.35158801078796387, -0.05993900075554848, -0.12430699914693832, -0.20489899814128876, -0.06150199845433235, -0.1757500022649765, 0.2966890037059784, -0.05993900075554848, 0.29529300332069397, -0.14396999776363373, 0.2641040086746216, -0.1949319988489151]}, {"stage_idx": 3, "stage": "weights_softmax", "weights": [0.013116000220179558, 0.0035200000274926424, 0.006002999842166901, 0.009575000032782555, 0.005239999853074551, 0.007009999826550484, 0.005673999898135662, 0.00698699988424778, 0.006899000145494938, 0.007488999981433153, 0.012311000376939774, 0.01176500041037798, 0.01165900006890297, 0.007290000095963478, 0.0071840002201497555, 0.007753000129014254, 0.012292000465095043, 0.009282000362873077, 0.00698699988424778, 0.0064199999906122684, 0.007379000075161457, 0.006002999842166901, 0.005038000177592039, 0.004931999836117029, 0.007833999581634998, 0.006870000157505274, 0.006351000163704157, 0.005522000137716532, 0.012292000465095043, 0.006165999919176102, 0.00853199977427721, 0.005350999999791384, 0.006870000157505274, 0.009847999550402164, 0.0076299998909235, 0.014960999600589275, 0.005489999894052744, 0.005704000126570463, 0.007013999857008457, 0.007007999811321497, 0.006118999794125557, 0.00879599992185831, 0.007519000209867954, 0.006783999968320131, 0.006002999842166901, 0.006283000111579895, 0.008705999702215195, 0.006118999794125557, 0.008104000240564346, 0.0048940000124275684, 0.006442000158131123, 0.006546999793499708, 0.004813999868929386, 0.005055000074207783, 0.00686000008136034, 0.013264000415802002, 0.006002999842166901, 0.006053000222891569, 0.006053000222891569, 0.007602999918162823, 0.007445999886840582, 0.009813999757170677, 0.010848999954760075, 0.005814999807626009, 0.006498999893665314, 0.011587000451982021, 0.006002999842166901, 0.005131999962031841, 0.006498999893665314, 0.007215999998152256, 0.00686000008136034, 0.006118999794125557, 0.005233000032603741, 0.011191999539732933, 0.012091999873518944, 0.008760999888181686, 0.00698699988424778, 0.006118999794125557, 0.007550999987870455, 0.011397999711334705, 0.006006999872624874, 0.00698699988424778, 0.012292000465095043, 0.005998999811708927, 0.010571000166237354, 0.01193199958652258, 0.007943999953567982, 0.007269999943673611, 0.006002999842166901, 0.007172999903559685, 0.009813999757170677, 0.006870000157505274, 0.012524999678134918, 0.015449999831616879, 0.006498999893665314, 0.012675999663770199, 0.009418999776244164, 0.007899999618530273, 0.005876000039279461, 0.009438999928534031, 0.00709300022572279, 0.004670000169426203, 0.008887000381946564, 0.007350000087171793, 0.008058999665081501, 0.008465999737381935, 0.009654000401496887, 0.005326000042259693, 0.012675999663770199, 0.006881999783217907, 0.004705999977886677, 0.007416000124067068, 0.010049999691545963, 0.007226999849081039, 0.0073379999957978725, 0.011439000256359577, 0.005131999962031841, 0.006870000157505274, 0.006442000158131123, 0.005942999850958586, 0.00686000008136034, 0.006118999794125557, 0.009813999757170677, 0.006870000157505274, 0.009800000116229057, 0.006316999904811382, 0.009499999694526196, 0.006002999842166901], "sum": 1.0000001192092896}, {"stage_idx": 4, "stage": "weights_after_dropout", "weights": [0.013116000220179558, 0.0035200000274926424, 0.006002999842166901, 0.009575000032782555, 0.005239999853074551, 0.007009999826550484, 0.005673999898135662, 0.00698699988424778, 0.006899000145494938, 0.007488999981433153, 0.012311000376939774, 0.01176500041037798, 0.01165900006890297, 0.007290000095963478, 0.0071840002201497555, 0.007753000129014254, 0.012292000465095043, 0.009282000362873077, 0.00698699988424778, 0.0064199999906122684, 0.007379000075161457, 0.006002999842166901, 0.005038000177592039, 0.004931999836117029, 0.007833999581634998, 0.006870000157505274, 0.006351000163704157, 0.005522000137716532, 0.012292000465095043, 0.006165999919176102, 0.00853199977427721, 0.005350999999791384, 0.006870000157505274, 0.009847999550402164, 0.0076299998909235, 0.014960999600589275, 0.005489999894052744, 0.005704000126570463, 0.007013999857008457, 0.007007999811321497, 0.006118999794125557, 0.00879599992185831, 0.007519000209867954, 0.006783999968320131, 0.006002999842166901, 0.006283000111579895, 0.008705999702215195, 0.006118999794125557, 0.008104000240564346, 0.0048940000124275684, 0.006442000158131123, 0.006546999793499708, 0.004813999868929386, 0.005055000074207783, 0.00686000008136034, 0.013264000415802002, 0.006002999842166901, 0.006053000222891569, 0.006053000222891569, 0.007602999918162823, 0.007445999886840582, 0.009813999757170677, 0.010848999954760075, 0.005814999807626009, 0.006498999893665314, 0.011587000451982021, 0.006002999842166901, 0.005131999962031841, 0.006498999893665314, 0.007215999998152256, 0.00686000008136034, 0.006118999794125557, 0.005233000032603741, 0.011191999539732933, 0.012091999873518944, 0.008760999888181686, 0.00698699988424778, 0.006118999794125557, 0.007550999987870455, 0.011397999711334705, 0.006006999872624874, 0.00698699988424778, 0.012292000465095043, 0.005998999811708927, 0.010571000166237354, 0.01193199958652258, 0.007943999953567982, 0.007269999943673611, 0.006002999842166901, 0.007172999903559685, 0.009813999757170677, 0.006870000157505274, 0.012524999678134918, 0.015449999831616879, 0.006498999893665314, 0.012675999663770199, 0.009418999776244164, 0.007899999618530273, 0.005876000039279461, 0.009438999928534031, 0.00709300022572279, 0.004670000169426203, 0.008887000381946564, 0.007350000087171793, 0.008058999665081501, 0.008465999737381935, 0.009654000401496887, 0.005326000042259693, 0.012675999663770199, 0.006881999783217907, 0.004705999977886677, 0.007416000124067068, 0.010049999691545963, 0.007226999849081039, 0.0073379999957978725, 0.011439000256359577, 0.005131999962031841, 0.006870000157505274, 0.006442000158131123, 0.005942999850958586, 0.00686000008136034, 0.006118999794125557, 0.009813999757170677, 0.006870000157505274, 0.009800000116229057, 0.006316999904811382, 0.009499999694526196, 0.006002999842166901], "sum": 1.0000001192092896, "dropout_applied": false}, {"stage_idx": 5, "stage": "topk_after_dropout", "k": 5, "topk": [{"pos": 93, "score_masked": 0.7505007386207581, "weight": 0.015450469218194485, "k": [0.8053150177001953, -1.070322036743164, 0.9973350167274475, -1.0335190296173096, 0.5462369918823242, -0.5160809755325317, -0.5262519717216492, 0.8166130185127258, 1.0385459661483765, -0.35109201073646545, 0.09271299839019775, 0.49245500564575195, -0.6174020171165466, -0.6433659791946411, -0.06342300027608871, -0.45227599143981934, 0.5190629959106445, 1.2052650451660156, 0.37212300300598145, -0.5622419714927673, 0.26067501306533813, -1.2976739406585693, -1.132254958152771, 0.19619999825954437, 0.4518609941005707, -0.09156599640846252, -0.6398540139198303, -1.2824870347976685, 0.7716630101203918, -0.42934900522232056, 0.2795400023460388, -0.41356000304222107], "v": [-0.2874870002269745, -0.22109700739383698, 0.27605900168418884, -0.7136589884757996, -0.001151000033132732, 0.03282099962234497, -0.7640860080718994, 0.24257799983024597, -0.6382160186767578, -0.2955319881439209, -0.1777230054140091, 0.4865350127220154, 0.37842699885368347, 1.0841480493545532, -0.6732410192489624, 0.7059249877929688, -0.07373999804258347, -0.21643300354480743, -0.7653260231018066, 0.9272580146789551, -1.0052369832992554, -0.0330360010266304, 0.5206130146980286, -0.4325389862060547, 0.535897970199585, 0.8682090044021606, 0.011284000240266323, 0.4991590082645416, 0.049272000789642334, 0.4232180118560791, -0.027296999469399452, -0.4452959895133972]}, {"pos": 35, "score_masked": 0.7183331847190857, "weight": 0.01496137399226427, "k": [0.7489079833030701, 0.029848000034689903, 0.40012800693511963, -0.48696601390838623, 0.7054290175437927, -0.16659900546073914, -0.024667000398039818, -0.34610500931739807, -0.5977110266685486, -1.0106699466705322, 0.6004859805107117, 0.3125869929790497, -0.3393790125846863, 0.04870700091123581, 1.4043699502944946, -0.7134010195732117, -0.9489359855651855, -0.7096250057220459, -0.49697598814964294, -0.12433599680662155, -0.9701669812202454, -0.9836959838867188, -0.4234539866447449, 0.766506016254425, 0.0643950030207634, -0.4817970097064972, 0.10305999964475632, 0.4686470031738281, 0.7554410099983215, 0.2410140037536621, -0.242467999458313, -0.858925998210907], "v": [0.6365349888801575, -0.6961780190467834, -0.15228499472141266, -0.26365500688552856, 0.10169199854135513, -0.15729400515556335, 0.18904300034046173, -0.061980001628398895, -0.6372960209846497, 0.5325109958648682, 1.074902057647705, 0.9686149954795837, 0.4905419945716858, -0.6474729776382446, -0.2679780125617981, 0.10816299915313721, -0.4245699942111969, 0.4169040024280548, 0.21085700392723083, -1.8230160474777222, 0.05334300175309181, 0.4672679901123047, 0.04199500009417534, 0.8200939893722534, 0.642320990562439, 0.40680500864982605, 0.21366100013256073, -0.2712100148200989, 0.39359599351882935, 0.7002630233764648, -0.04149499908089638, 0.6529930233955383]}, {"pos": 55, "score_masked": 0.5979485511779785, "weight": 0.013264445587992668, "k": [-0.04797599837183952, 0.01382100023329258, 0.08593200147151947, -0.25890499353408813, -0.25200599431991577, -0.10670299828052521, 0.06358300149440765, 0.2870689928531647, 0.07553300261497498, 0.8349189758300781, 0.8920260071754456, -0.2994000017642975, -0.10290499776601791, -0.2237509936094284, 0.5586519837379456, 0.4033200144767761, 0.2589370012283325, -0.6332399845123291, 0.3147220015525818, -0.7305600047111511, -1.485625982284546, -1.1766929626464844, 0.08086200058460236, -0.29639899730682373, -0.7991510033607483, 1.1349760293960571, -0.26846998929977417, 0.5772510170936584, 0.9745410084724426, 0.043175000697374344, -0.716588020324707, 0.9155769944190979], "v": [0.33196499943733215, 0.5034880042076111, -0.26753801107406616, -0.5190219879150391, -0.08285699784755707, -0.08639000356197357, -0.2481829971075058, 0.49423399567604065, 0.17667900025844574, 0.04977500066161156, 0.47196298837661743, 0.29951998591423035, -0.3982889950275421, 0.26357200741767883, 0.1807429939508438, -0.7622290253639221, -1.3627779483795166, 0.03409799933433533, -0.06055400148034096, -0.3058759868144989, 1.5502079725265503, -0.6152809858322144, 0.4574680030345917, -0.6812059879302979, -0.9677839875221252, 0.09185399860143661, 0.2142380028963089, -0.6332539916038513, 0.26801401376724243, 0.5884090065956116, 0.7933279871940613, -0.11041399836540222]}, {"pos": 0, "score_masked": 0.5866945385932922, "weight": 0.013116003945469856, "k": [-0.2597070038318634, -0.6192579865455627, 0.8880370259284973, 0.21650800108909607, 0.9337829947471619, 0.360942006111145, 0.23483499884605408, 0.6496809720993042, 1.0422099828720093, 0.5786550045013428, -0.7003780007362366, -0.02868100069463253, 0.19173899292945862, 0.07012899965047836, -0.4123449921607971, 0.2724829912185669, -0.07170899957418442, 0.5130959749221802, 0.8738570213317871, -1.2728790044784546, 0.5007960200309753, -0.6752610206604004, -1.399677038192749, 0.47781500220298767, 0.1677740067243576, 0.5234050154685974, -1.7426559925079346, -0.3175300061702728, -0.0407710000872612, 0.5400109887123108, 0.4365670084953308, 0.367918998003006], "v": [-0.14179299771785736, -0.35686400532722473, 0.8517529964447021, 1.0236599445343018, 0.3535580039024353, 0.4916360080242157, -0.2727360129356384, 0.012128000147640705, -0.47705501317977905, 0.7223659753799438, 0.3302080035209656, 0.3736630082130432, 0.6841830015182495, 0.3100610077381134, 0.23642000555992126, 0.6937199831008911, 0.3750689923763275, -0.10225600004196167, -0.23468099534511566, 0.4307900071144104, 0.2492379993200302, -0.42843300104141235, 0.5852519869804382, 1.0730799436569214, -0.09009999781847, 0.5971850156784058, 0.11553700268268585, 1.3089300394058228, -0.9885249733924866, 0.3830080032348633, -0.44567400217056274, 0.3465160131454468]}, {"pos": 108, "score_masked": 0.5525803565979004, "weight": 0.012676108628511429, "k": [-0.17390699684619904, 1.5659810304641724, 0.41596001386642456, 0.32406699657440186, 0.07805000245571136, 0.34377598762512207, -0.36510801315307617, 0.31423598527908325, -0.09485200047492981, -0.9075850248336792, 0.4517729878425598, -0.362635999917984, -0.3278590142726898, -0.6202899813652039, 0.05172000080347061, 0.24590200185775757, 0.35757800936698914, 0.18828700482845306, -0.5866069793701172, -0.39535099267959595, -0.2273239940404892, -0.20215700566768646, 0.45683300495147705, 0.6338279843330383, -0.9068040251731873, 1.0589220523834229, 0.20508599281311035, -0.13822400569915771, 0.6952139735221863, 0.979013979434967, -0.03971400111913681, 0.24834799766540527], "v": [-0.31091099977493286, -0.21512499451637268, 0.7833110094070435, -0.2320519983768463, 0.13129200041294098, 0.20914100110530853, 0.18139199912548065, 0.08842899650335312, 0.9809839725494385, -0.13447299599647522, 0.4686029851436615, -0.0814799964427948, -0.5121819972991943, -1.081915020942688, -0.7464079856872559, 1.0369739532470703, -0.056432999670505524, -0.022221000865101814, -0.45684000849723816, 0.5449830293655396, -0.4488529860973358, -0.2846370041370392, 0.700829029083252, 0.4911920130252838, -1.209954023361206, -0.31334298849105835, -0.7232249975204468, -0.34878799319267273, 0.21031099557876587, -0.16833600401878357, 0.45346200466156006, -0.44333401322364807]}]}, {"stage_idx": 6, "stage": "context_head", "context": [0.004600000102072954, 0.04236000031232834, 0.13964900374412537, 0.005160000175237656, -0.023155000060796738, 0.07149100303649902, 0.10284499824047089, 0.1469690054655075, -0.12656399607658386, 0.17320600152015686, 0.03312600031495094, 0.05883700028061867, 0.14406099915504456, 0.07329799979925156, -0.1543239951133728, 0.13057099282741547, 0.001867000013589859, -0.004040999803692102, -0.1404220014810562, -0.10115499794483185, -0.0587100014090538, -0.04182099923491478, 0.011965000070631504, 0.041972000151872635, -0.19177499413490295, -0.04469100013375282, -0.1297989934682846, -0.042031001299619675, 0.0019680000841617584, -0.007453000172972679, 0.07944100350141525, -0.09702499955892563]}]}, {"head": 3, "head_dim": 32, "trace": [{"stage_idx": 0, "stage": "q_after_proj_rope", "q": [0.9718480110168457, 0.3701249957084656, 0.06019200012087822, -0.774724006652832, 0.3367590010166168, -0.017707999795675278, -0.4880169928073883, 0.752515971660614, -0.1959729939699173, -0.3236500024795532, 0.12022600322961807, -0.664650022983551, -0.4633530080318451, -0.02717299945652485, -0.1389780044555664, 0.650081992149353, 0.23956699669361115, -0.6671720147132874, 0.17149299383163452, -0.12851999700069427, 0.2672039866447449, 0.5635460019111633, 0.0538330003619194, 0.0003819999983534217, 0.33251500129699707, 0.7445639967918396, 0.27571600675582886, 0.6610389947891235, 0.9407140016555786, 0.0017300000181421638, -0.7594040036201477, 0.7906699776649475]}, {"stage_idx": 1, "stage": "scores_raw", "scores": [-0.5094349980354309, -0.6982309818267822, -0.3019289970397949, -0.43268799781799316, -0.2472819983959198, -0.2147350013256073, 0.507561981678009, 0.5029720067977905, -0.2584399878978729, 0.2962909936904907, 0.002455000067129731, 0.024941999465227127, -0.3592199981212616, 0.08234400302171707, -0.1268949955701828, 0.23543399572372437, -0.00092299998505041, 0.20947100222110748, 0.5029720067977905, -0.1345299929380417, 0.3116280138492584, -0.3019289970397949, 0.5976120233535767, -0.5997179746627808, 0.03046499937772751, -0.4928860068321228, 0.025967000052332878, 0.7030060291290283, -0.00092299998505041, 0.11263500154018402, -0.1738010048866272, -0.00878399983048439, -0.4928860068321228, 0.12897300720214844, -0.8258789777755737, -0.38187700510025024, -0.6851249933242798, 0.4984239935874939, 0.26177701354026794, -0.21202799677848816, -0.09414900094270706, 0.6370030045509338, 0.11522100120782852, -0.1278270035982132, -0.3019289970397949, -0.35633599758148193, 0.6195390224456787, -0.09414900094270706, -0.14054499566555023, 0.048611998558044434, -0.7382280230522156, -0.5576180219650269, 0.2096640020608902, 0.1310490071773529, 0.455018013715744, 0.22183899581432343, -0.3019289970397949, -0.16301999986171722, -0.16301999986171722, -0.5180259943008423, -0.1117120012640953, 0.2288690060377121, -0.19293999671936035, -0.14090000092983246, 0.3731200098991394, -0.45401298999786377, -0.3019289970397949, -0.2694140076637268, 0.3731200098991394, 0.5354959964752197, 0.455018013715744, -0.09414900094270706, -0.37707701325416565, -0.10172200202941895, 0.19008499383926392, -0.05771699920296669, 0.5029720067977905, -0.09414900094270706, -0.0892850011587143, 0.030105000361800194, 0.16151000559329987, 0.5029720067977905, -0.00092299998505041, 0.24650700390338898, -0.02607100084424019, -0.3626289963722229, 0.2545129954814911, -0.3168799877166748, -0.3019289970397949, 0.3250249922275543, 0.2288690060377121, -0.4928860068321228, -0.26336899399757385, 0.4352779984474182, 0.3731200098991394, -0.23721300065517426, 0.116116002202034, -0.06487900018692017, 0.09554199874401093, 0.35190001130104065, 0.27497899532318115, -0.010967000387609005, -0.5752909779548645, -0.4244309961795807, -0.3236730098724365, -0.37030598521232605, -0.29391199350357056, 0.07005099952220917, -0.23721300065517426, -0.5323479771614075, 0.29222699999809265, -0.20943500101566315, -0.08354499936103821, 0.05713000148534775, 0.04151799902319908, -0.5218020081520081, -0.2694140076637268, -0.4928860068321228, -0.7382280230522156, -0.10665199905633926, 0.455018013715744, -0.09414900094270706, 0.2288690060377121, -0.4928860068321228, 0.0182109996676445, 0.169841006398201, -0.10093600302934647, -0.3019289970397949]}, {"stage_idx": 2, "stage": "scores_masked", "scores": [-0.5094349980354309, -0.6982309818267822, -0.3019289970397949, -0.43268799781799316, -0.2472819983959198, -0.2147350013256073, 0.507561981678009, 0.5029720067977905, -0.2584399878978729, 0.2962909936904907, 0.002455000067129731, 0.024941999465227127, -0.3592199981212616, 0.08234400302171707, -0.1268949955701828, 0.23543399572372437, -0.00092299998505041, 0.20947100222110748, 0.5029720067977905, -0.1345299929380417, 0.3116280138492584, -0.3019289970397949, 0.5976120233535767, -0.5997179746627808, 0.03046499937772751, -0.4928860068321228, 0.025967000052332878, 0.7030060291290283, -0.00092299998505041, 0.11263500154018402, -0.1738010048866272, -0.00878399983048439, -0.4928860068321228, 0.12897300720214844, -0.8258789777755737, -0.38187700510025024, -0.6851249933242798, 0.4984239935874939, 0.26177701354026794, -0.21202799677848816, -0.09414900094270706, 0.6370030045509338, 0.11522100120782852, -0.1278270035982132, -0.3019289970397949, -0.35633599758148193, 0.6195390224456787, -0.09414900094270706, -0.14054499566555023, 0.048611998558044434, -0.7382280230522156, -0.5576180219650269, 0.2096640020608902, 0.1310490071773529, 0.455018013715744, 0.22183899581432343, -0.3019289970397949, -0.16301999986171722, -0.16301999986171722, -0.5180259943008423, -0.1117120012640953, 0.2288690060377121, -0.19293999671936035, -0.14090000092983246, 0.3731200098991394, -0.45401298999786377, -0.3019289970397949, -0.2694140076637268, 0.3731200098991394, 0.5354959964752197, 0.455018013715744, -0.09414900094270706, -0.37707701325416565, -0.10172200202941895, 0.19008499383926392, -0.05771699920296669, 0.5029720067977905, -0.09414900094270706, -0.0892850011587143, 0.030105000361800194, 0.16151000559329987, 0.5029720067977905, -0.00092299998505041, 0.24650700390338898, -0.02607100084424019, -0.3626289963722229, 0.2545129954814911, -0.3168799877166748, -0.3019289970397949, 0.3250249922275543, 0.2288690060377121, -0.4928860068321228, -0.26336899399757385, 0.4352779984474182, 0.3731200098991394, -0.23721300065517426, 0.116116002202034, -0.06487900018692017, 0.09554199874401093, 0.35190001130104065, 0.27497899532318115, -0.010967000387609005, -0.5752909779548645, -0.4244309961795807, -0.3236730098724365, -0.37030598521232605, -0.29391199350357056, 0.07005099952220917, -0.23721300065517426, -0.5323479771614075, 0.29222699999809265, -0.20943500101566315, -0.08354499936103821, 0.05713000148534775, 0.04151799902319908, -0.5218020081520081, -0.2694140076637268, -0.4928860068321228, -0.7382280230522156, -0.10665199905633926, 0.455018013715744, -0.09414900094270706, 0.2288690060377121, -0.4928860068321228, 0.0182109996676445, 0.169841006398201, -0.10093600302934647, -0.3019289970397949]}, {"stage_idx": 3, "stage": "weights_softmax", "weights": [0.004666000138968229, 0.003863000078126788, 0.005741999950259924, 0.005038000177592039, 0.0060640000738203526, 0.006264999974519014, 0.012900000438094139, 0.012841000221669674, 0.00599699979647994, 0.010443000122904778, 0.0077840001322329044, 0.007961000315845013, 0.005421999841928482, 0.008431999944150448, 0.006839999929070473, 0.009827000088989735, 0.007757999934256077, 0.009575000032782555, 0.012841000221669674, 0.006787999998778105, 0.010604999959468842, 0.005741999950259924, 0.014115000143647194, 0.004263000097125769, 0.008004999719560146, 0.004743000026792288, 0.007969999685883522, 0.01568399928510189, 0.007757999934256077, 0.008690999820828438, 0.006525999866425991, 0.007697000168263912, 0.004743000026792288, 0.008833999745547771, 0.0034000000450760126, 0.0052999998442828655, 0.003914000000804663, 0.012783000245690346, 0.010088999755680561, 0.006281999871134758, 0.007067999802529812, 0.014682999812066555, 0.008713999763131142, 0.006833000108599663, 0.005741999950259924, 0.005437999963760376, 0.014427999965846539, 0.007067999802529812, 0.00674699991941452, 0.008151999674737453, 0.003711000084877014, 0.00444599986076355, 0.009576999582350254, 0.008852999657392502, 0.012240000069141388, 0.009693999774754047, 0.005741999950259924, 0.006597000174224377, 0.006597000174224377, 0.0046259998343884945, 0.006943999789655209, 0.009762000292539597, 0.006403000093996525, 0.0067449999041855335, 0.011277000419795513, 0.0049310000613331795, 0.005741999950259924, 0.005931000225245953, 0.011277000419795513, 0.013264999724924564, 0.012240000069141388, 0.007067999802529812, 0.005326000042259693, 0.007013999857008457, 0.00939099956303835, 0.007329999934881926, 0.012841000221669674, 0.007067999802529812, 0.0071020000614225864, 0.008003000169992447, 0.009126000106334686, 0.012841000221669674, 0.007757999934256077, 0.009936000220477581, 0.007565000094473362, 0.005402999930083752, 0.010015999898314476, 0.005656000226736069, 0.005741999950259924, 0.010747999884188175, 0.009762000292539597, 0.004743000026792288, 0.005967000033706427, 0.012000000104308128, 0.011277000419795513, 0.006124999839812517, 0.008720999583601952, 0.007277000229805708, 0.00854399986565113, 0.01104000024497509, 0.010223000310361385, 0.007681000046432018, 0.0043680001981556416, 0.005080000031739473, 0.005617999937385321, 0.005361999850720167, 0.005787999834865332, 0.008329000324010849, 0.006124999839812517, 0.004559999797493219, 0.010401000268757343, 0.006297999992966652, 0.007143000140786171, 0.008221999742090702, 0.008093999698758125, 0.004608000162988901, 0.005931000225245953, 0.004743000026792288, 0.003711000084877014, 0.00698000006377697, 0.012240000069141388, 0.007067999802529812, 0.009762000292539597, 0.004743000026792288, 0.00790799967944622, 0.009202999994158745, 0.007019999902695417, 0.005741999950259924], "sum": 0.9999998211860657}, {"stage_idx": 4, "stage": "weights_after_dropout", "weights": [0.004666000138968229, 0.003863000078126788, 0.005741999950259924, 0.005038000177592039, 0.0060640000738203526, 0.006264999974519014, 0.012900000438094139, 0.012841000221669674, 0.00599699979647994, 0.010443000122904778, 0.0077840001322329044, 0.007961000315845013, 0.005421999841928482, 0.008431999944150448, 0.006839999929070473, 0.009827000088989735, 0.007757999934256077, 0.009575000032782555, 0.012841000221669674, 0.006787999998778105, 0.010604999959468842, 0.005741999950259924, 0.014115000143647194, 0.004263000097125769, 0.008004999719560146, 0.004743000026792288, 0.007969999685883522, 0.01568399928510189, 0.007757999934256077, 0.008690999820828438, 0.006525999866425991, 0.007697000168263912, 0.004743000026792288, 0.008833999745547771, 0.0034000000450760126, 0.0052999998442828655, 0.003914000000804663, 0.012783000245690346, 0.010088999755680561, 0.006281999871134758, 0.007067999802529812, 0.014682999812066555, 0.008713999763131142, 0.006833000108599663, 0.005741999950259924, 0.005437999963760376, 0.014427999965846539, 0.007067999802529812, 0.00674699991941452, 0.008151999674737453, 0.003711000084877014, 0.00444599986076355, 0.009576999582350254, 0.008852999657392502, 0.012240000069141388, 0.009693999774754047, 0.005741999950259924, 0.006597000174224377, 0.006597000174224377, 0.0046259998343884945, 0.006943999789655209, 0.009762000292539597, 0.006403000093996525, 0.0067449999041855335, 0.011277000419795513, 0.0049310000613331795, 0.005741999950259924, 0.005931000225245953, 0.011277000419795513, 0.013264999724924564, 0.012240000069141388, 0.007067999802529812, 0.005326000042259693, 0.007013999857008457, 0.00939099956303835, 0.007329999934881926, 0.012841000221669674, 0.007067999802529812, 0.0071020000614225864, 0.008003000169992447, 0.009126000106334686, 0.012841000221669674, 0.007757999934256077, 0.009936000220477581, 0.007565000094473362, 0.005402999930083752, 0.010015999898314476, 0.005656000226736069, 0.005741999950259924, 0.010747999884188175, 0.009762000292539597, 0.004743000026792288, 0.005967000033706427, 0.012000000104308128, 0.011277000419795513, 0.006124999839812517, 0.008720999583601952, 0.007277000229805708, 0.00854399986565113, 0.01104000024497509, 0.010223000310361385, 0.007681000046432018, 0.0043680001981556416, 0.005080000031739473, 0.005617999937385321, 0.005361999850720167, 0.005787999834865332, 0.008329000324010849, 0.006124999839812517, 0.004559999797493219, 0.010401000268757343, 0.006297999992966652, 0.007143000140786171, 0.008221999742090702, 0.008093999698758125, 0.004608000162988901, 0.005931000225245953, 0.004743000026792288, 0.003711000084877014, 0.00698000006377697, 0.012240000069141388, 0.007067999802529812, 0.009762000292539597, 0.004743000026792288, 0.00790799967944622, 0.009202999994158745, 0.007019999902695417, 0.005741999950259924], "sum": 0.9999998211860657, "dropout_applied": false}, {"stage_idx": 5, "stage": "topk_after_dropout", "k": 5, "topk": [{"pos": 27, "score_masked": 0.7030056118965149, "weight": 0.01568431779742241, "k": [0.9647330045700073, 0.056731000542640686, 1.0551609992980957, -0.5104690194129944, 0.3448379933834076, -0.25782498717308044, 0.26527801156044006, 0.1670829951763153, -1.297773003578186, 0.5824710130691528, 0.0874210000038147, -0.4882349967956543, 0.34042200446128845, -0.6057680249214172, 0.37909001111984253, 0.3930799961090088, 1.50770902633667, 0.8188920021057129, 0.1406259983778, 0.03205399960279465, -0.3831000030040741, 0.03993399813771248, -0.6782140135765076, -0.4499090015888214, -0.12801200151443481, 0.5192440152168274, 0.15276400744915009, 0.5901650190353394, 1.1802599430084229, -0.6496109962463379, 0.7394919991493225, 1.185945987701416], "v": [0.7773799896240234, 0.7739359736442566, -0.8786889910697937, 0.5658439993858337, 0.2220200002193451, 0.3589310050010681, 1.1565419435501099, -0.6928229928016663, 0.02944600023329258, -0.45468300580978394, -0.5174430012702942, 1.2468080520629883, -0.4392780065536499, -0.2390259951353073, 0.1999170035123825, 0.22892600297927856, -1.153262972831726, 0.02336999960243702, 0.43430501222610474, -0.08370199799537659, -0.7649040222167969, -0.4724879860877991, 0.10501600056886673, 0.6449660062789917, -0.7079300284385681, 0.12222599983215332, -0.37617000937461853, 0.37160900235176086, -0.12539200484752655, 1.1425520181655884, 0.16311900317668915, 0.9505509734153748]}, {"pos": 41, "score_masked": 0.6370028853416443, "weight": 0.014682534150779247, "k": [1.0710140466690063, -0.5998749732971191, 1.509753942489624, -0.20573900640010834, 0.03210199996829033, -0.05689999833703041, -0.5976259708404541, 0.673874020576477, -0.7007390260696411, 0.4625059962272644, 1.1863750219345093, -0.5028970241546631, -0.5834360122680664, 0.006004000082612038, 1.3260730504989624, 0.01982700079679489, -0.07818800210952759, 0.022905999794602394, -0.4713900089263916, 0.9195230007171631, -0.5340099930763245, 0.8505839705467224, 1.6229419708251953, 1.1546579599380493, 0.47557100653648376, 0.0039160000160336494, -0.6285319924354553, -0.5315099954605103, 1.242414951324463, -0.4586780071258545, -0.21818900108337402, -0.001290000043809414], "v": [1.640944004058838, 0.07730799913406372, 0.04566299915313721, 0.00826799962669611, 0.5216869711875916, -0.17702999711036682, 0.20690800249576569, -0.5761610269546509, -0.4961020052433014, 0.2965239882469177, -0.5884050130844116, 0.1656309962272644, 0.4564020037651062, -0.7395179867744446, -1.0131640434265137, -0.11698900163173676, 1.1477880477905273, 0.7600409984588623, 0.791566014289856, 0.2941190004348755, -0.7689840197563171, 0.7162560224533081, 0.978905975818634, 0.9834139943122864, -1.0343929529190063, -0.3428249955177307, 0.2393530011177063, -0.48185500502586365, -0.11182300001382828, -0.21261200308799744, 0.40586400032043457, 0.3901920020580292]}, {"pos": 46, "score_masked": 0.6195393204689026, "weight": 0.014428351074457169, "k": [-0.3882020115852356, 0.7253289818763733, -0.30493301153182983, -0.22735099494457245, 0.6450139880180359, -0.32209300994873047, 0.17885500192642212, 0.5113419890403748, -1.3294730186462402, 0.36231499910354614, 1.0105119943618774, 0.9425920248031616, -0.13602299988269806, 0.4775089919567108, -0.5738099813461304, 0.296205997467041, 0.8763759732246399, -0.051993001252412796, 0.9384989738464355, -0.269665002822876, 0.7828580141067505, 0.5598779916763306, -0.14018699526786804, -0.3741219937801361, 0.6593220233917236, 0.2554500102996826, 0.05133099853992462, -0.22652000188827515, 0.6805099844932556, 0.4967130124568939, 0.17636899650096893, 1.5637739896774292], "v": [0.42154499888420105, 0.28769901394844055, -1.0646079778671265, 1.048164963722229, 0.3063099980354309, 0.257889986038208, 0.16671599447727203, -0.23790700733661652, 0.4733540117740631, 0.6845809817314148, 0.21616600453853607, 1.4951039552688599, -0.043196000158786774, 0.040410999208688736, -0.5436199903488159, 0.8286179900169373, -0.9152969717979431, 0.36090001463890076, -0.0032240001019090414, -0.27415400743484497, 0.05820599943399429, -0.052244000136852264, -0.38567298650741577, -0.5153260231018066, 0.15008200705051422, 0.24945099651813507, 0.08160500228404999, -0.5588979721069336, -1.202144980430603, -0.3472149968147278, 0.4547640085220337, -0.14479400217533112]}, {"pos": 22, "score_masked": 0.5976120233535767, "weight": 0.014115419238805771, "k": [0.46393001079559326, 0.6479039788246155, -0.6577939987182617, 0.17946000397205353, -0.07740899920463562, -0.01040900032967329, 0.36231300234794617, -0.07060299813747406, -0.08224499970674515, -1.4193060398101807, -0.42305999994277954, 0.5740029811859131, 0.14830200374126434, 0.16384099423885345, -0.07402899861335754, 1.419374942779541, -0.5533109903335571, -0.7612299919128418, 0.36340200901031494, 0.5369430184364319, 0.04776199907064438, -0.36138099431991577, -0.9576870203018188, -0.4769499897956848, 0.1960189938545227, -0.06861100345849991, -0.8416799902915955, 0.5434489846229553, 1.0151339769363403, -1.1977479457855225, -0.6829109787940979, 0.6104919910430908], "v": [0.19964399933815002, 0.5671610236167908, -1.1078319549560547, -1.3972270488739014, 0.6698769927024841, 0.2741380035877228, -0.5873839855194092, -0.10956600308418274, 0.02505199983716011, -0.3400470018386841, -0.024896999821066856, 0.11303800344467163, 0.5613070130348206, 0.44128501415252686, -0.3075230121612549, 0.8256750106811523, -0.2570039927959442, 0.14504000544548035, 0.3849540054798126, -1.142604947090149, 0.36758100986480713, -0.6815789937973022, -0.5407019853591919, -0.37988099455833435, -0.4957770109176636, 0.10203000158071518, 0.06917300075292587, -0.5495060086250305, 0.28277701139450073, -0.12675799429416656, 0.5916579961776733, 0.6027719974517822]}, {"pos": 69, "score_masked": 0.5354964733123779, "weight": 0.013265307992696762, "k": [0.43376100063323975, -0.12744499742984772, 0.6311860084533691, -0.8829579949378967, -0.38710498809814453, -0.17781700193881989, -0.3094640076160431, 1.554455041885376, 0.10593900084495544, 1.0730680227279663, -0.18964600563049316, 0.1868630051612854, -0.05380399897694588, -0.40718701481819153, 0.7131170034408569, -0.5282229781150818, 0.8837180137634277, -0.33775898814201355, 0.0023429999127984047, 0.12010300159454346, 0.2209240049123764, -0.4912939965724945, -0.27161499857902527, -0.5198389887809753, -0.1359419971704483, 0.46858999133110046, -0.4791789948940277, -0.47488099336624146, 0.8744170069694519, -0.7412620186805725, 0.3035860061645508, 1.2938719987869263], "v": [-0.2953999936580658, 0.48436298966407776, 0.21733200550079346, 0.5905399918556213, 0.2330089956521988, 0.40022701025009155, 0.23802900314331055, -1.1850719451904297, 0.12630900740623474, -0.35562101006507874, -0.2801569998264313, 1.7611180543899536, -0.25999799370765686, -0.445019006729126, 0.37961599230766296, 0.14120900630950928, -0.6095719933509827, -0.11686400324106216, 0.21601000428199768, 0.20007599890232086, -0.2857469916343689, -0.8383790254592896, -0.16873900592327118, -0.14299899339675903, 0.017719000577926636, -0.34134501218795776, -0.17751500010490417, -0.5476610064506531, 0.16357000172138214, 0.08641500025987625, 0.5089349746704102, 0.39946499466896057]}]}, {"stage_idx": 6, "stage": "context_head", "context": [0.24099799990653992, 0.03775300085544586, -0.04277300089597702, -0.02221900038421154, 0.03067599982023239, -0.019077999517321587, 0.08657900243997574, -0.13517899811267853, 0.050501998513936996, -0.08633700013160706, -0.15541799366474152, 0.3506290018558502, -0.055497001856565475, -0.017026999965310097, -0.0965460017323494, -0.013771000318229198, -0.1444389969110489, -0.12113700062036514, -0.04353399947285652, 0.1278810054063797, -0.11095400154590607, 0.018849000334739685, 0.043129999190568924, 0.0782570019364357, -0.061344001442193985, 0.17236100137233734, 0.07916899770498276, 0.06247600167989731, -0.06655599921941757, 0.052264999598264694, 0.02826800011098385, -0.078916996717453]}]}, {"head": 4, "head_dim": 32, "trace": [{"stage_idx": 0, "stage": "q_after_proj_rope", "q": [0.3552350103855133, 0.4728600084781647, 0.33474200963974, -0.07601399719715118, 0.5448169708251953, 0.5658079981803894, 0.42983001470565796, -0.023017000406980515, 0.8773030042648315, -1.017730951309204, -0.982155978679657, -0.4755460023880005, -0.4786359965801239, 1.2985520362854004, -0.1989309936761856, -1.3309489488601685, -0.8096839785575867, -0.9772760272026062, 1.331570029258728, -0.20590899884700775, 0.5249289870262146, -0.3555290102958679, 0.5234619975090027, 0.682420015335083, -0.2913829982280731, 0.46560901403427124, 0.12898199260234833, -0.3318459987640381, -0.16947400569915771, -0.10741499811410904, 0.2457820028066635, 0.805974006652832]}, {"stage_idx": 1, "stage": "scores_raw", "scores": [0.0915440022945404, -0.10478000342845917, -0.4733079969882965, 0.3698979914188385, 0.8272370100021362, 0.25479501485824585, 0.09917400032281876, 0.09875500202178955, -0.032575998455286026, -0.47334200143814087, -0.07797399908304214, -0.0636650025844574, 0.08530499786138535, -0.6642720103263855, -0.43690699338912964, 0.06004999950528145, -0.30690500140190125, -0.5704590082168579, 0.09875500202178955, -0.613768994808197, -0.12750999629497528, -0.4733079969882965, 0.023087000474333763, -0.4748629927635193, 0.43145400285720825, -0.1912360042333603, 0.4172019958496094, 0.23532399535179138, -0.30690500140190125, 0.08831699937582016, 0.3846200108528137, 0.23945200443267822, -0.1912360042333603, -0.3445580005645752, -0.080874003469944, 0.8421769738197327, -0.39857399463653564, 0.089478999376297, 0.08425299823284149, 0.3416439890861511, 0.11191300302743912, -0.11711099743843079, -0.27820199728012085, 0.18190599977970123, -0.4733079969882965, 0.370606005191803, 0.01659799925982952, 0.11191300302743912, 0.26170799136161804, 0.4093799889087677, -0.3380660116672516, 0.24765299260616302, 0.012651000171899796, -0.08581200242042542, 0.17585499584674835, 0.5333139896392822, -0.4733079969882965, 0.1437229961156845, 0.1437229961156845, 0.256646990776062, 0.07692400366067886, -0.5583750009536743, -0.11188100278377533, -0.10119500011205673, 0.8779860138893127, -0.08709300309419632, -0.4733079969882965, 0.2364729940891266, 0.8779860138893127, -0.29895099997520447, 0.17585499584674835, 0.11191300302743912, -0.12993000447750092, 0.09129799902439117, -0.3340120017528534, 0.07591299712657928, 0.09875500202178955, 0.11191300302743912, 0.35405999422073364, -0.03879399970173836, 0.9262700080871582, 0.09875500202178955, -0.30690500140190125, -0.5057790279388428, -0.26762300729751587, 0.14886899292469025, -0.17008399963378906, -0.5049620270729065, -0.4733079969882965, 0.2634960114955902, -0.5583750009536743, -0.1912360042333603, 0.42734000086784363, 0.1488180011510849, 0.8779860138893127, -0.0783350020647049, -0.4202669858932495, -0.6188499927520752, -0.1986600011587143, 0.456028014421463, 0.010873000137507915, 0.349465012550354, 0.45917901396751404, 0.0047240001149475574, 0.4444560110569, 0.2754400074481964, 0.2457219958305359, 0.12861700356006622, -0.0783350020647049, 0.20340099930763245, 0.41720399260520935, -0.1492689996957779, -0.36467498540878296, -0.09843599796295166, 0.045795001089572906, 0.36969199776649475, 0.2364729940891266, -0.1912360042333603, -0.3380660116672516, 0.0914440006017685, 0.17585499584674835, 0.11191300302743912, -0.5583750009536743, -0.1912360042333603, 0.4999629855155945, -0.2947950065135956, 0.16967099905014038, -0.4733079969882965]}, {"stage_idx": 2, "stage": "scores_masked", "scores": [0.0915440022945404, -0.10478000342845917, -0.4733079969882965, 0.3698979914188385, 0.8272370100021362, 0.25479501485824585, 0.09917400032281876, 0.09875500202178955, -0.032575998455286026, -0.47334200143814087, -0.07797399908304214, -0.0636650025844574, 0.08530499786138535, -0.6642720103263855, -0.43690699338912964, 0.06004999950528145, -0.30690500140190125, -0.5704590082168579, 0.09875500202178955, -0.613768994808197, -0.12750999629497528, -0.4733079969882965, 0.023087000474333763, -0.4748629927635193, 0.43145400285720825, -0.1912360042333603, 0.4172019958496094, 0.23532399535179138, -0.30690500140190125, 0.08831699937582016, 0.3846200108528137, 0.23945200443267822, -0.1912360042333603, -0.3445580005645752, -0.080874003469944, 0.8421769738197327, -0.39857399463653564, 0.089478999376297, 0.08425299823284149, 0.3416439890861511, 0.11191300302743912, -0.11711099743843079, -0.27820199728012085, 0.18190599977970123, -0.4733079969882965, 0.370606005191803, 0.01659799925982952, 0.11191300302743912, 0.26170799136161804, 0.4093799889087677, -0.3380660116672516, 0.24765299260616302, 0.012651000171899796, -0.08581200242042542, 0.17585499584674835, 0.5333139896392822, -0.4733079969882965, 0.1437229961156845, 0.1437229961156845, 0.256646990776062, 0.07692400366067886, -0.5583750009536743, -0.11188100278377533, -0.10119500011205673, 0.8779860138893127, -0.08709300309419632, -0.4733079969882965, 0.2364729940891266, 0.8779860138893127, -0.29895099997520447, 0.17585499584674835, 0.11191300302743912, -0.12993000447750092, 0.09129799902439117, -0.3340120017528534, 0.07591299712657928, 0.09875500202178955, 0.11191300302743912, 0.35405999422073364, -0.03879399970173836, 0.9262700080871582, 0.09875500202178955, -0.30690500140190125, -0.5057790279388428, -0.26762300729751587, 0.14886899292469025, -0.17008399963378906, -0.5049620270729065, -0.4733079969882965, 0.2634960114955902, -0.5583750009536743, -0.1912360042333603, 0.42734000086784363, 0.1488180011510849, 0.8779860138893127, -0.0783350020647049, -0.4202669858932495, -0.6188499927520752, -0.1986600011587143, 0.456028014421463, 0.010873000137507915, 0.349465012550354, 0.45917901396751404, 0.0047240001149475574, 0.4444560110569, 0.2754400074481964, 0.2457219958305359, 0.12861700356006622, -0.0783350020647049, 0.20340099930763245, 0.41720399260520935, -0.1492689996957779, -0.36467498540878296, -0.09843599796295166, 0.045795001089572906, 0.36969199776649475, 0.2364729940891266, -0.1912360042333603, -0.3380660116672516, 0.0914440006017685, 0.17585499584674835, 0.11191300302743912, -0.5583750009536743, -0.1912360042333603, 0.4999629855155945, -0.2947950065135956, 0.16967099905014038, -0.4733079969882965]}, {"stage_idx": 3, "stage": "weights_softmax", "weights": [0.007939999923110008, 0.006525000091642141, 0.004513999912887812, 0.010489000007510185, 0.01657100021839142, 0.009348000399768353, 0.008000999689102173, 0.007997999899089336, 0.0070130000822246075, 0.004513000138103962, 0.006701999809592962, 0.006798999849706888, 0.007891000248491764, 0.003728999989107251, 0.004681000020354986, 0.0076939999125897884, 0.005330999847501516, 0.004095999989658594, 0.007997999899089336, 0.00392200006172061, 0.006378000136464834, 0.004513999912887812, 0.007414999883621931, 0.004507000092417002, 0.01115499995648861, 0.00598399993032217, 0.010997000150382519, 0.00916799996048212, 0.005330999847501516, 0.007915000431239605, 0.01064400002360344, 0.009205999784171581, 0.00598399993032217, 0.005133999977260828, 0.006682999897748232, 0.016820000484585762, 0.004863999783992767, 0.007923999801278114, 0.007883000187575817, 0.01019699964672327, 0.008104000240564346, 0.006444999948143959, 0.00548599986359477, 0.008690999820828438, 0.004513999912887812, 0.010495999827980995, 0.007366999983787537, 0.008104000240564346, 0.00941300019621849, 0.010910999961197376, 0.005166999995708466, 0.009282000362873077, 0.0073379999957978725, 0.006649999879300594, 0.008639000356197357, 0.012350999750196934, 0.004513999912887812, 0.008365999907255173, 0.008365999907255173, 0.009366000071167946, 0.007825000211596489, 0.004145999904721975, 0.006479000207036734, 0.006548000033944845, 0.01743300072848797, 0.006641000043600798, 0.004513999912887812, 0.009178999811410904, 0.01743300072848797, 0.005373000167310238, 0.008639000356197357, 0.008104000240564346, 0.00636299978941679, 0.007938000373542309, 0.005187999922782183, 0.007817000150680542, 0.007997999899089336, 0.008104000240564346, 0.010324000380933285, 0.006969999987632036, 0.018295999616384506, 0.007997999899089336, 0.005330999847501516, 0.004368999972939491, 