{"layer_index": 1, "sample_index": 0, "token_index": 0, "num_heads": 8, "head_dim": 32, "rope": true, "rope_note": "Q,K are AFTER RoPE if enabled", "formula": ["Q = LN(x)·WQ, K = LN(x)·WK, V = LN(x)·WV", "scores_raw = (QK^T)/√d", "scores_masked = scores_raw + masks", "weights_softmax = softmax(scores_masked)", "weights_after_dropout = dropout(weights_softmax)", "context_h(t) = Σ_j weights_after_dropout[j] · V[j]", "Concat = [context_h]_h ; AttnOut = Concat · W_O^T"], "merge": {"concat_vector": [0.013379553332924843, 0.0843818187713623, -0.027546940371394157, 0.051733024418354034, -0.06646139174699783, 0.14204861223697662, -0.07573778182268143, 0.10894112288951874, -0.0587773434817791, 0.04716727137565613, -0.008048096671700478, 0.041345205157995224, -0.08348458260297775, -0.13362877070903778, 0.18508504331111908, 0.044603295624256134, -0.07226255536079407, -0.02226715162396431, 0.07234812527894974, 0.0629834234714508, 0.10024911910295486, -0.05551774799823761, 0.08790986984968185, -0.17416614294052124, 0.15984761714935303, -0.022976893931627274, 0.15204551815986633, 0.08000823855400085, -0.009308921173214912, -0.10158725827932358, -0.06052881106734276, -0.06265882402658463, -0.02704067900776863, 0.05450503155589104, 0.05924453213810921, 0.05812137573957443, 0.058080047369003296, -0.02001144550740719, -0.08477817475795746, -0.08947920054197311, 0.10844516009092331, -0.022851869463920593, -0.034897513687610626, -0.00013567505811806768, 0.00019972842710558325, 0.05681992694735527, 0.13787688314914703, 0.029930075630545616, -0.015244588255882263, -0.028152763843536377, 0.14264695346355438, 0.0299985371530056, 0.07418056577444077, -0.08187320083379745, 0.05037343502044678, -0.04970303177833557, 0.06038939952850342, -0.03120921552181244, -0.06579554080963135, 0.07182904332876205, 0.19876636564731598, -0.12396801263093948, -0.09199253469705582, -0.013554258272051811, 0.028337812051177025, 0.14654803276062012, 0.006543560419231653, -0.01336724404245615, 0.12399962544441223, 0.060509636998176575, -0.09917557239532471, 0.14146365225315094, 0.08260214328765869, 0.0820278450846672, 0.03381076455116272, -0.16876406967639923, 0.19375720620155334, -0.09087575972080231, 0.00245803059078753, 0.06833488494157791, -0.015334103256464005, -0.024994224309921265, -0.048628274351358414, -0.08997932821512222, -0.033981598913669586, 0.16731832921504974, -0.09687349200248718, -0.0007747966446913779, -0.07827724516391754, 0.12120305001735687, -0.03284713998436928, 0.06627547740936279, -0.0842207744717598, 0.13625678420066833, 0.0494905561208725, -0.04680854454636574, -0.08005300164222717, 0.03546232730150223, -0.09473438560962677, -0.03608136624097824, -0.026709815487265587, 0.07781235873699188, -0.07552787661552429, -0.011856121011078358, 0.12107564508914948, -0.17512354254722595, -0.004788712598383427, -0.19157162308692932, 0.07379690557718277, -0.06349261850118637, -0.07538387179374695, 0.0010788162471726537, 0.15629534423351288, 0.03455574810504913, -0.10336784273386002, 0.0002652044640854001, -0.11180854588747025, 0.01324885617941618, -0.11078203469514847, 0.07364105433225632, 0.02924705483019352, 0.05566796287894249, 0.04733177274465561, 0.06202835962176323, -0.006462081801146269, -0.1596881002187729, -0.08428885787725449, 0.02937505394220352, -0.16716696321964264, -0.02256563864648342, -0.047361548990011215, 0.01984473131597042, -0.09862018376588821, -0.019334550946950912, 0.0771513432264328, -0.08714365214109421, 0.009022828191518784, 0.06402172148227692, -0.18457059562206268, -0.2810003459453583, -0.07891061902046204, -0.13458536565303802, 0.09804733097553253, -0.09342391043901443, 0.023984303697943687, -0.07204355299472809, 0.15068653225898743, 0.05499774590134621, 0.05209096893668175, 0.03499072790145874, -0.03385351225733757, -0.05082213878631592, 0.039768729358911514, 0.011788444593548775, -0.14701175689697266, -0.06596564501523972, -0.03879821300506592, 0.13514822721481323, 0.11489164084196091, 0.1916230022907257, -0.05471456050872803, -0.06180715560913086, -0.01679365150630474, -0.03806290775537491, 0.034741856157779694, 0.13545843958854675, -0.025433244183659554, -0.0029976502992212772, 0.15008705854415894, -0.03016403689980507, 0.1708395630121231, -0.07606087625026703, -0.07785598933696747, 0.041672710329294205, 0.08366493135690689, -0.027870822697877884, -0.004702070262283087, 0.09617247432470322, -0.018095487728714943, 0.12031839787960052, 0.06484320759773254, -0.007672248408198357, 0.09087616950273514, -0.09471622854471207, -0.034685585647821426, 0.09824279695749283, -0.17584902048110962, 0.0815160945057869, -0.058988526463508606, 0.12380891293287277, -0.05207224190235138, -0.13956567645072937, -0.05182491987943649, -6.37177872704342e-05, -0.025003543123602867, 0.10536295920610428, -0.1184014305472374, 0.07504289597272873, -0.06891874969005585, -0.014359868131577969, 0.0360029973089695, -0.0011160349240526557, 0.027464356273412704, 0.13345074653625488, 0.06175622716546059, 0.104234479367733, -0.046733010560274124, 0.09075857698917389, 0.03459443524479866, -0.025375744327902794, 0.07856405526399612, 0.05638885125517845, -0.10814166814088821, 0.03236839175224304, 0.02620948664844036, 0.04455847293138504, 0.12163569033145905, -0.17552417516708374, -0.012590517289936543, 0.06727956235408783, 0.034181274473667145, -0.04751158505678177, 0.159901961684227, 0.007366121280938387, 0.04567581042647362, -0.01886104978621006, 0.09331773966550827, 0.05257108435034752, 0.03771258890628815, -0.17837032675743103, 0.01235633622854948, -0.04024993255734444, 0.002698377938941121, 0.05578209087252617, -0.09211726486682892, -0.08082316070795059, 0.02010551281273365, -0.06259753555059433, 0.029683351516723633, -0.022004224359989166, 0.08191333711147308, -0.08919168263673782, -0.12859107553958893, -0.11175134778022766, 0.0018749606097117066, 0.24447853863239288, -0.011134777218103409, -0.1005328968167305, -0.13156649470329285, 0.0463261678814888, 0.07943052053451538, 0.09092377126216888, -0.0954495444893837, 0.0021737422794103622, 0.0707520842552185, 0.07350830733776093], "wo_output": [-0.0656810775399208, -0.037811651825904846, 0.08927983045578003, 0.0160779170691967, 0.10500606149435043, 0.03937455266714096, 0.03342648595571518, 0.03171234577894211, -0.07451096177101135, 0.0049779703840613365, 0.07854897528886795, -0.0738147646188736, -0.004139384254813194, -0.03983103856444359, -0.017776431515812874, 0.07740485668182373, -0.02392580173909664, -0.043637484312057495, 0.040077269077301025, -0.010099333710968494, 0.07136263698339462, -0.07135437428951263, 0.09483728557825089, -0.08426746726036072, -0.04947242885828018, 0.002107899636030197, -0.025385823100805283, -0.05502932518720627, -0.12584486603736877, 0.0251464881002903, 0.06740888953208923, -0.048374392092227936, -0.09480713307857513, 0.05940200388431549, -0.038260385394096375, 0.11278776824474335, -0.06299741566181183, 0.033520881086587906, 0.08132074773311615, 0.015754949301481247, -0.1514783501625061, -0.09103962779045105, 0.09101709723472595, -0.007144259288907051, 0.024104252457618713, -0.0011559799313545227, 0.037801675498485565, 0.042331889271736145, 0.09628848731517792, -0.031984664499759674, 0.03967926651239395, 0.0990040972828865, 0.08435302972793579, 0.0039735957980155945, 0.019330978393554688, -0.046397410333156586, -0.05649435147643089, -0.08124303072690964, 0.022444553673267365, 0.08523683995008469, 0.051800958812236786, 0.07181289047002792, -0.0739913135766983, 0.052081044763326645, -0.10728507488965988, 0.05048143118619919, 0.047950468957424164, 0.08274807035923004, -0.05459192395210266, -0.06832154840230942, 0.022013425827026367, -0.03323177248239517, -0.07191935181617737, -0.07496377825737, 0.04591067135334015, -0.09240680932998657, 0.02585584670305252, -0.05064886063337326, 0.024966761469841003, 0.04038602486252785, -0.002067573368549347, -0.06438801437616348, -0.023733720183372498, -0.05168788135051727, -0.060554388910532, -0.08433841168880463, -0.0074045080691576, 0.0008617071434855461, -0.020457342267036438, -0.034390322864055634, -0.03523500636219978, -0.0596773661673069, 0.005793491378426552, -0.06368903815746307, -0.02208411693572998, 0.0702313631772995, -0.10987132042646408, -0.059074319899082184, -0.07670493423938751, -0.05184093862771988, 0.008406590670347214, 0.014055473729968071, 0.07803204655647278, 0.14673934876918793, 0.09075967222452164, -0.12633231282234192, -0.05178734287619591, -0.07271164655685425, 0.09186706691980362, 0.021848799660801888, -0.04487716779112816, 0.08237361907958984, -0.02520616725087166, 0.01547622587531805, 0.031182602047920227, -0.07561440765857697, -0.08358010649681091, 0.06564278900623322, -0.058722831308841705, 0.006935976445674896, 0.02643420547246933, -0.0106431245803833, -0.04438427835702896, 0.04739418998360634, -0.03730059042572975, 0.019858554005622864, 0.036842264235019684, -0.05509038269519806, 0.06597699224948883, 0.07118062674999237, 0.05549818277359009, 0.009929480962455273, -0.04454713687300682, -0.05005493760108948, -0.0045072403736412525, 0.11317913979291916, 0.001942899078130722, 0.10101763159036636, -0.047464631497859955, 0.009016616269946098, -0.010747980326414108, -0.04698893427848816, -0.0302934180945158, -0.0018372414633631706, 0.07546704262495041, 0.07660629600286484, -0.03200232982635498, -0.026273785158991814, -0.00951249897480011, -0.001432575285434723, -0.004973912611603737, -0.0689472183585167, -0.098853200674057, -0.02714386023581028, -0.035422880202531815, -0.038331277668476105, -0.05821644142270088, -0.07577933371067047, -0.1550717055797577, 0.01565047726035118, -0.029188837856054306, 0.05317958444356918, 0.027865223586559296, -0.06432723999023438, 0.001791585236787796, -0.09287077933549881, 0.01022271066904068, -0.020839042961597443, -0.025695469230413437, 0.08512614667415619, 0.012390561401844025, -0.02896149456501007, -0.10210077464580536, 0.09177151322364807, -0.04741312563419342, 0.057053644210100174, 0.07855334877967834, 0.013404269702732563, 0.07036659866571426, -0.006284646689891815, -0.04512111097574234, 0.03178004175424576, -0.08001953363418579, 0.07299990952014923, 0.06919621676206589, -0.08773921430110931, -0.10758065432310104, -0.056996166706085205, 0.03186621144413948, -0.00878164079040289, -0.03912721201777458, 0.021830808371305466, 0.07369798421859741, -0.051556605845689774, 0.10012970864772797, -0.06787639111280441, 0.03486528620123863, -0.021521324291825294, 0.05010359734296799, 0.08117936551570892, 0.005575849674642086, -0.035219527781009674, -0.02956623211503029, 0.02314789779484272, 0.02088763751089573, -0.018328387290239334, -0.09331910312175751, 0.0637436956167221, -0.0965074822306633, 0.1446794867515564, 0.020655659958720207, 0.0003791237249970436, 0.09622963517904282, -0.03197001665830612, 0.07909540832042694, -0.011940471827983856, -0.009993045590817928, -0.012316502630710602, -0.04960028827190399, 0.03536555916070938, 0.010387372225522995, -0.037221480160951614, 0.027042673900723457, 0.022091278806328773, -0.05912494659423828, 0.039466626942157745, -0.07616063207387924, -0.04634740948677063, -0.03073645755648613, -0.06962713599205017, 0.054009728133678436, 0.0941215455532074, 0.0870099812746048, -0.1199725866317749, -0.07118384540081024, 0.015965700149536133, 0.02866119146347046, -0.11247369647026062, 0.01414388045668602, -0.07538240402936935, -0.029886147007346153, -0.017043394967913628, 0.09667456895112991, -0.024702735245227814, 0.019525624811649323, -0.06195284053683281, -0.05542239546775818, 0.02312767505645752, -0.1076527088880539, -0.0787772685289383, -0.1253654956817627, 0.10404130816459656, 0.018094917759299278, 0.028527719900012016, -0.02942974865436554, -0.07980911433696747]}, "heads": [{"head": 0, "head_dim": 32, "trace": [{"stage_idx": 0, "stage": "q_after_proj_rope", "q": [0.13500499725341797, -0.13899999856948853, 0.693884015083313, 0.5191789865493774, -0.14104999601840973, -0.14552199840545654, 0.20455299317836761, -0.28694599866867065, 0.9161859750747681, -0.12875699996948242, 0.49901801347732544, -0.9372119903564453, -0.43631699681282043, 0.02923700027167797, -0.866828978061676, 0.15646499395370483, -0.1432110071182251, 0.45234501361846924, 0.6341559886932373, -0.30870699882507324, -0.9413120150566101, -0.40099799633026123, -0.6163650155067444, -0.2633439898490906, -0.025231000036001205, -0.6449499726295471, -0.006637999787926674, 0.3884980082511902, 0.9740080237388611, 0.20100100338459015, 0.7019919753074646, 0.1036200001835823]}, {"stage_idx": 1, "stage": "scores_raw", "scores": [-0.624330997467041, -0.08807200193405151, -0.16422399878501892, 0.018216999247670174, 0.16671200096607208, 0.3964320123195648, -0.017263999208807945, 0.3550570011138916, 0.019099000841379166, 0.23693199455738068, -0.19877299666404724, -0.18753600120544434, 0.2879279851913452, -0.372314989566803, 0.1607699990272522, -0.30076101422309875, 0.3334580063819885, -0.36921000480651855, 0.3550570011138916, 0.5661349892616272, 0.09490100294351578, -0.16422399878501892, 0.0270370002835989, 0.3280850052833557, -0.5014010071754456, -0.15906600654125214, 0.3215390145778656, 0.1557130068540573, 0.3334580063819885, -0.1160229966044426, 0.20035700500011444, -0.140406996011734, -0.15906600654125214, 0.10722199827432632, -0.15287700295448303, -0.01828799955546856, -0.15650099515914917, 0.3007200062274933, 0.027721000835299492, -0.16897200047969818, -0.6713870167732239, -0.03426999971270561, -0.15612199902534485, 0.02428700029850006, -0.16422399878501892, 0.1380929946899414, 0.2506589889526367, -0.6713870167732239, 0.057822998613119125, 0.005520999897271395, 0.15048600733280182, 0.1568939983844757, -0.09971299767494202, 0.1974399983882904, 0.15992200374603271, -0.09879299998283386, -0.16422399878501892, -0.1776379942893982, -0.1776379942893982, 0.16597799956798553, -0.31279000639915466, -0.12561599910259247, -0.3773530125617981, -0.4438430070877075, -0.21502499282360077, 0.07311999797821045, -0.16422399878501892, 0.24827800691127777, -0.21502499282360077, 0.3403190076351166, 0.15992200374603271, -0.6713870167732239, 0.25335898995399475, 0.49648499488830566, 0.35615500807762146, -0.03520200029015541, 0.3550570011138916, -0.6713870167732239, 0.024941999465227127, 0.1295119971036911, 0.2353450059890747, 0.3550570011138916, 0.3334580063819885, 0.40981000661849976, -0.1128230020403862, 0.11969999969005585, -0.313852995634079, 0.022314000874757767, -0.16422399878501892, 0.2832239866256714, -0.12561599910259247, -0.15906600654125214, -0.05677200108766556, -0.3489280045032501, -0.21502499282360077, -0.030218999832868576, -0.15717199444770813, 0.3108989894390106, 0.010867999866604805, 0.046813998371362686, 0.02642199955880642, -0.31216299533843994, -0.17907199263572693, -0.21336300671100616, 0.04874299839138985, 0.10995499789714813, -0.020728999748826027, 0.021904999390244484, -0.030218999832868576, 0.42227500677108765, -0.15642599761486053, 0.19184699654579163, 0.5144280195236206, -0.5351619720458984, -0.3516170084476471, 0.13259099423885345, 0.24827800691127777, -0.15906600654125214, 0.15048600733280182, -0.29589399695396423, 0.15992200374603271, -0.6713870167732239, -0.12561599910259247, -0.15906600654125214, 0.41927099227905273, -0.350600004196167, -0.25779101252555847, -0.16422399878501892]}, {"stage_idx": 2, "stage": "scores_masked", "scores": [-0.624330997467041, -0.08807200193405151, -0.16422399878501892, 0.018216999247670174, 0.16671200096607208, 0.3964320123195648, -0.017263999208807945, 0.3550570011138916, 0.019099000841379166, 0.23693199455738068, -0.19877299666404724, -0.18753600120544434, 0.2879279851913452, -0.372314989566803, 0.1607699990272522, -0.30076101422309875, 0.3334580063819885, -0.36921000480651855, 0.3550570011138916, 0.5661349892616272, 0.09490100294351578, -0.16422399878501892, 0.0270370002835989, 0.3280850052833557, -0.5014010071754456, -0.15906600654125214, 0.3215390145778656, 0.1557130068540573, 0.3334580063819885, -0.1160229966044426, 0.20035700500011444, -0.140406996011734, -0.15906600654125214, 0.10722199827432632, -0.15287700295448303, -0.01828799955546856, -0.15650099515914917, 0.3007200062274933, 0.027721000835299492, -0.16897200047969818, -0.6713870167732239, -0.03426999971270561, -0.15612199902534485, 0.02428700029850006, -0.16422399878501892, 0.1380929946899414, 0.2506589889526367, -0.6713870167732239, 0.057822998613119125, 0.005520999897271395, 0.15048600733280182, 0.1568939983844757, -0.09971299767494202, 0.1974399983882904, 0.15992200374603271, -0.09879299998283386, -0.16422399878501892, -0.1776379942893982, -0.1776379942893982, 0.16597799956798553, -0.31279000639915466, -0.12561599910259247, -0.3773530125617981, -0.4438430070877075, -0.21502499282360077, 0.07311999797821045, -0.16422399878501892, 0.24827800691127777, -0.21502499282360077, 0.3403190076351166, 0.15992200374603271, -0.6713870167732239, 0.25335898995399475, 0.49648499488830566, 0.35615500807762146, -0.03520200029015541, 0.3550570011138916, -0.6713870167732239, 0.024941999465227127, 0.1295119971036911, 0.2353450059890747, 0.3550570011138916, 0.3334580063819885, 0.40981000661849976, -0.1128230020403862, 0.11969999969005585, -0.313852995634079, 0.022314000874757767, -0.16422399878501892, 0.2832239866256714, -0.12561599910259247, -0.15906600654125214, -0.05677200108766556, -0.3489280045032501, -0.21502499282360077, -0.030218999832868576, -0.15717199444770813, 0.3108989894390106, 0.010867999866604805, 0.046813998371362686, 0.02642199955880642, -0.31216299533843994, -0.17907199263572693, -0.21336300671100616, 0.04874299839138985, 0.10995499789714813, -0.020728999748826027, 0.021904999390244484, -0.030218999832868576, 0.42227500677108765, -0.15642599761486053, 0.19184699654579163, 0.5144280195236206, -0.5351619720458984, -0.3516170084476471, 0.13259099423885345, 0.24827800691127777, -0.15906600654125214, 0.15048600733280182, -0.29589399695396423, 0.15992200374603271, -0.6713870167732239, -0.12561599910259247, -0.15906600654125214, 0.41927099227905273, -0.350600004196167, -0.25779101252555847, -0.16422399878501892]}, {"stage_idx": 3, "stage": "weights_softmax", "weights": [0.0041069998405873775, 0.007021000143140554, 0.006506000179797411, 0.007807999849319458, 0.009057999588549137, 0.011397000402212143, 0.007536000106483698, 0.010935000143945217, 0.007814999669790268, 0.009716999717056751, 0.006285000126808882, 0.00635599996894598, 0.010224999859929085, 0.005284000188112259, 0.009003999643027782, 0.005675000138580799, 0.01070099975913763, 0.0052999998442828655, 0.010935000143945217, 0.013504999689757824, 0.008430000394582748, 0.006506000179797411, 0.00787699967622757, 0.01064400002360344, 0.004643999971449375, 0.0065390001982450485, 0.010575000196695328, 0.008958999998867512, 0.01070099975913763, 0.0068270000629127026, 0.009367999620735645, 0.006663000211119652, 0.0065390001982450485, 0.008534999564290047, 0.006579999811947346, 0.007528000045567751, 0.006556000094860792, 0.010356999933719635, 0.00788199994713068, 0.00647500017657876, 0.003918000031262636, 0.007408999837934971, 0.006558999884873629, 0.007854999974370003, 0.006506000179797411, 0.008802000433206558, 0.009851000271737576, 0.003918000031262636, 0.008123000152409077, 0.007708999793976545, 0.008911999873816967, 0.008968999609351158, 0.006938999984413385, 0.009340000338852406, 0.008996999822556973, 0.006945999804884195, 0.006506000179797411, 0.006419000215828419, 0.006419000215828419, 0.009050999768078327, 0.005607999861240387, 0.006761999800801277, 0.005257000215351582, 0.004918999969959259, 0.006184000056236982, 0.00824899971485138, 0.006506000179797411, 0.009828000329434872, 0.006184000056236982, 0.010774999856948853, 0.008996999822556973, 0.003918000031262636, 0.009878000244498253, 0.012595999985933304, 0.010947000235319138, 0.007402000017464161, 0.010935000143945217, 0.003918000031262636, 0.007860999554395676, 0.008727000094950199, 0.009700999595224857, 0.010935000143945217, 0.01070099975913763, 0.011549999937415123, 0.006849000230431557, 0.008642000146210194, 0.005601999815553427, 0.007840000092983246, 0.006506000179797411, 0.010177000425755978, 0.006761999800801277, 0.0065390001982450485, 0.00724400021135807, 0.005408999975770712, 0.006184000056236982, 0.007439000066369772, 0.006552000064402819, 0.010463000275194645, 0.007751000113785267, 0.008034000173211098, 0.007872000336647034, 0.005611000116914511, 0.006409999914467335, 0.006194000132381916, 0.008050000295042992, 0.008558000437915325, 0.00750999990850687, 0.00783700030297041, 0.007439000066369772, 0.01169500034302473, 0.006556999869644642, 0.00928799994289875, 0.012823999859392643, 0.004490000195801258, 0.005394000094383955, 0.008754000067710876, 0.009828000329434872, 0.0065390001982450485, 0.008911999873816967, 0.005702999886125326, 0.008996999822556973, 0.003918000031262636, 0.006761999800801277, 0.0065390001982450485, 0.011660000309348106, 0.005400000140070915, 0.005925000179558992, 0.006506000179797411], "sum": 0.9999999403953552}, {"stage_idx": 4, "stage": "weights_after_dropout", "weights": [0.0041069998405873775, 0.007021000143140554, 0.006506000179797411, 0.007807999849319458, 0.009057999588549137, 0.011397000402212143, 0.007536000106483698, 0.010935000143945217, 0.007814999669790268, 0.009716999717056751, 0.006285000126808882, 0.00635599996894598, 0.010224999859929085, 0.005284000188112259, 0.009003999643027782, 0.005675000138580799, 0.01070099975913763, 0.0052999998442828655, 0.010935000143945217, 0.013504999689757824, 0.008430000394582748, 0.006506000179797411, 0.00787699967622757, 0.01064400002360344, 0.004643999971449375, 0.0065390001982450485, 0.010575000196695328, 0.008958999998867512, 0.01070099975913763, 0.0068270000629127026, 0.009367999620735645, 0.006663000211119652, 0.0065390001982450485, 0.008534999564290047, 0.006579999811947346, 0.007528000045567751, 0.006556000094860792, 0.010356999933719635, 0.00788199994713068, 0.00647500017657876, 0.003918000031262636, 0.007408999837934971, 0.006558999884873629, 0.007854999974370003, 0.006506000179797411, 0.008802000433206558, 0.009851000271737576, 0.003918000031262636, 0.008123000152409077, 0.007708999793976545, 0.008911999873816967, 0.008968999609351158, 0.006938999984413385, 0.009340000338852406, 0.008996999822556973, 0.006945999804884195, 0.006506000179797411, 0.006419000215828419, 0.006419000215828419, 0.009050999768078327, 0.005607999861240387, 0.006761999800801277, 0.005257000215351582, 0.004918999969959259, 0.006184000056236982, 0.00824899971485138, 0.006506000179797411, 0.009828000329434872, 0.006184000056236982, 0.010774999856948853, 0.008996999822556973, 0.003918000031262636, 0.009878000244498253, 0.012595999985933304, 0.010947000235319138, 0.007402000017464161, 0.010935000143945217, 0.003918000031262636, 0.007860999554395676, 0.008727000094950199, 0.009700999595224857, 0.010935000143945217, 0.01070099975913763, 0.011549999937415123, 0.006849000230431557, 0.008642000146210194, 0.005601999815553427, 0.007840000092983246, 0.006506000179797411, 0.010177000425755978, 0.006761999800801277, 0.0065390001982450485, 0.00724400021135807, 0.005408999975770712, 0.006184000056236982, 0.007439000066369772, 0.006552000064402819, 0.010463000275194645, 0.007751000113785267, 0.008034000173211098, 0.007872000336647034, 0.005611000116914511, 0.006409999914467335, 0.006194000132381916, 0.008050000295042992, 0.008558000437915325, 0.00750999990850687, 0.00783700030297041, 0.007439000066369772, 0.01169500034302473, 0.006556999869644642, 0.00928799994289875, 0.012823999859392643, 0.004490000195801258, 0.005394000094383955, 0.008754000067710876, 0.009828000329434872, 0.0065390001982450485, 0.008911999873816967, 0.005702999886125326, 0.008996999822556973, 0.003918000031262636, 0.006761999800801277, 0.0065390001982450485, 0.011660000309348106, 0.005400000140070915, 0.005925000179558992, 0.006506000179797411], "sum": 0.9999999403953552, "dropout_applied": false}, {"stage_idx": 5, "stage": "topk_after_dropout", "k": 5, "topk": [{"pos": 19, "score_masked": 0.5661352276802063, "weight": 0.013504908420145512, "k": [-0.22846899926662445, -0.03907100111246109, 0.42013099789619446, 0.5062170028686523, 0.71868497133255, -0.45844900608062744, 0.8541160225868225, -0.22453199326992035, 0.16551899909973145, -0.8486170172691345, 0.7303500175476074, -1.0108530521392822, -0.6950809955596924, 0.05826200172305107, -1.5411180257797241, 0.24368900060653687, -0.6112980246543884, -0.5435760021209717, -0.17880800366401672, 0.42641499638557434, -0.20372700691223145, -0.031170999631285667, 0.4026719927787781, -0.6941239833831787, -0.7622479796409607, 0.09325399994850159, 0.0934239998459816, -0.21012799441814423, 0.1146010011434555, 0.23501600325107574, -0.6913779973983765, -0.6607630252838135], "v": [0.629951000213623, -0.17676299810409546, 0.013527999632060528, 0.2104099988937378, -0.9822819828987122, 0.06937000155448914, -0.4762269854545593, 0.8757100105285645, -0.2862260043621063, 0.15977899730205536, -0.21381500363349915, 0.16740599274635315, 0.7154819965362549, 0.21858200430870056, 0.1123109981417656, -0.3228360116481781, -0.19008800387382507, -0.5293329954147339, 0.013349000364542007, -0.6534630060195923, 0.5269830226898193, 0.32195401191711426, 0.19923900067806244, 0.8890420198440552, -0.2344450056552887, 0.33956998586654663, -0.07359100133180618, 0.03984899818897247, 0.5962679982185364, -0.6946439743041992, 0.3858250081539154, -0.2819730043411255]}, {"pos": 112, "score_masked": 0.5144280195236206, "weight": 0.012824353761970997, "k": [0.27989500761032104, -0.3829450011253357, -0.6837530136108398, 0.0038789999671280384, -0.2912830114364624, 0.31060999631881714, -0.26491400599479675, -0.4472160041332245, 0.48934799432754517, -0.7262560129165649, -0.3488120138645172, -0.5762550234794617, -0.6685510277748108, -0.08786600083112717, 0.15265999734401703, 0.9292730093002319, 0.6658909916877747, 0.1856430023908615, 1.0178829431533813, 0.5166659951210022, -1.4224120378494263, -0.07778500020503998, -0.29086899757385254, 0.11644099652767181, 0.10572600364685059, -0.049869000911712646, 0.43834900856018066, 0.015186999924480915, -0.23972800374031067, 0.6113690137863159, 0.009526999667286873, 0.8634260296821594], "v": [0.9405350089073181, -0.3221229910850525, 0.15524299442768097, 0.5313959717750549, 0.5168870091438293, -0.6202110052108765, -0.4427900016307831, 0.5732390284538269, -0.09892600029706955, -0.2363390028476715, 0.5384610295295715, -0.6118260025978088, -0.37126100063323975, -0.31930801272392273, -0.4291220009326935, -0.9151849746704102, 0.35155001282691956, 0.2531000077724457, 0.5345219969749451, -0.16343200206756592, 0.5822939872741699, -0.24059000611305237, 0.005249000154435635, 0.3899349868297577, -0.15115800499916077, 0.0697610005736351, 1.1874760389328003, 0.4533120095729828, -1.5068039894104004, -0.5380920171737671, -0.9127950072288513, 0.49968498945236206]}, {"pos": 73, "score_masked": 0.49648478627204895, "weight": 0.012596296146512032, "k": [0.7365900278091431, -0.5680800080299377, 0.395253986120224, 0.4536440074443817, 0.474606990814209, 0.10405699908733368, -0.7451279759407043, 0.9289100170135498, 0.547340989112854, -0.011132000014185905, -0.25510498881340027, 0.7677109837532043, 0.3022100031375885, -0.4483039975166321, -0.10785499960184097, -0.7534999847412109, 0.3550719916820526, 1.074120044708252, 0.4586080014705658, -1.0553380250930786, -1.270990014076233, -0.1617559939622879, -0.20952199399471283, -0.6280040144920349, -0.2496339976787567, 0.6274759769439697, 0.7289980053901672, -0.8033699989318848, 0.8880029916763306, -0.1833599954843521, 0.6172620058059692, -0.18124499917030334], "v": [0.9418439865112305, -0.7040730118751526, 0.49556100368499756, 0.4874359965324402, 0.51705402135849, -0.029975000768899918, -0.20443999767303467, 0.058807000517845154, -0.20909400284290314, -0.1876779943704605, -0.4179700016975403, -0.27677398920059204, -0.13901300728321075, -1.2760839462280273, 0.7504050135612488, -0.5223770141601562, 0.15992599725723267, -0.5756959915161133, 0.3176420032978058, 0.006543000228703022, -0.7450289726257324, 0.5486549735069275, 1.253931999206543, 0.07021500170230865, -0.061997998505830765, -0.2819859981536865, -0.03558000177145004, -0.4268530011177063, 0.557968020439148, -0.3281559944152832, 0.813169002532959, -0.7856280207633972]}, {"pos": 109, "score_masked": 0.4222754240036011, "weight": 0.011695373803377151, "k": [0.9871699810028076, 0.003215000033378601, 0.4001699984073639, -0.26808300614356995, -1.0428169965744019, -0.7013980150222778, -0.3057059943675995, -0.15612000226974487, -0.04152800142765045, 0.7325599789619446, -0.4611769914627075, 0.09630800038576126, 0.10544800013303757, 0.629397988319397, -0.1310269981622696, -0.22473900020122528, -0.08280699700117111, 0.6434069871902466, 1.1540559530258179, -0.44322699308395386, 0.3983460068702698, -0.06315100193023682, -0.20533999800682068, 0.6079109907150269, -0.054464999586343765, 0.47746700048446655, -0.5267680287361145, 1.6328719854354858, 0.6979150176048279, 0.11168500036001205, 0.6641560196876526, -0.0018479999853298068], "v": [-0.042684998363256454, -0.12115699797868729, -0.4188610017299652, 0.10660400241613388, -0.9189069867134094, 0.17892299592494965, -0.3639799952507019, -1.410776972770691, 0.5491219758987427, 0.6570450067520142, 0.031098999083042145, -0.35485100746154785, 0.31307798624038696, -0.02301100082695484, -0.03252499923110008, 0.33396899700164795, -1.2227909564971924, -0.1485159993171692, -0.3248459994792938, 0.9109669923782349, 0.8282139897346497, -0.005111000034958124, 0.14520399272441864, -0.2251559942960739, 0.2240079939365387, 0.18172599375247955, -0.09142100065946579, 0.07502099871635437, 0.7469599843025208, -0.2868100106716156, 0.39483100175857544, -0.3475410044193268]}, {"pos": 124, "score_masked": 0.4192705750465393, "weight": 0.011660284362733364, "k": [0.6472579836845398, -0.40913400053977966, 0.3569270074367523, 0.22550199925899506, 0.06367699801921844, -0.05094100162386894, 0.47401198744773865, -0.26968398690223694, -0.3721959888935089, -0.08373799920082092, -0.12987400591373444, -1.117926001548767, -0.19497500360012054, 0.1856130063533783, 0.5352290272712708, -0.1486539989709854, -0.4229789972305298, -0.327455997467041, 0.8631190061569214, 0.5249500274658203, -0.5032640099525452, 0.28527700901031494, -0.4310469925403595, 0.04563000053167343, 0.15891799330711365, 0.47060099244117737, -0.5036929845809937, 0.6335139870643616, 0.24148599803447723, 0.06056300178170204, 0.42859598994255066, 0.3189370036125183], "v": [-0.7507410049438477, 0.7804620265960693, -0.4146620035171509, 0.05575200170278549, 0.5183979868888855, -0.01911200024187565, -0.5683169960975647, -0.04980099946260452, -0.8461520075798035, -0.05586700141429901, -0.20619100332260132, 0.46876800060272217, -0.7831810116767883, -1.001734972000122, -0.0013470000121742487, 0.7732160091400146, -0.5499340295791626, 1.217257022857666, 0.118538998067379, 0.16890400648117065, -0.3071649968624115, -0.8638110160827637, -0.05721399933099747, -0.7735540270805359, 0.9836500287055969, 0.7533450126647949, -0.06510400027036667, -0.1820639967918396, 0.6111350059509277, 0.03986499831080437, 0.23714500665664673, -0.874189019203186]}]}, {"stage_idx": 6, "stage": "context_head", "context": [0.013380000367760658, 0.08438199758529663, -0.027546999976038933, 0.051732998341321945, -0.0664609968662262, 0.14204899966716766, -0.07573799788951874, 0.10894100368022919, -0.05877700075507164, 0.04716699942946434, -0.008047999814152718, 0.04134500026702881, -0.08348499983549118, -0.1336289942264557, 0.1850849986076355, 0.044603001326322556, -0.07226300239562988, -0.022267000749707222, 0.07234799861907959, 0.06298299878835678, 0.10024899989366531, -0.055518001317977905, 0.087909996509552, -0.1741659939289093, 0.15984800457954407, -0.02297700010240078, 0.15204599499702454, 0.08000800013542175, -0.009309000335633755, -0.10158699750900269, -0.06052900105714798, -0.06265900284051895]}]}, {"head": 1, "head_dim": 32, "trace": [{"stage_idx": 0, "stage": "q_after_proj_rope", "q": [0.029461000114679337, -0.0012649999698624015, -0.2814059853553772, -0.6030189990997314, 1.148872971534729, -0.242590993642807, -0.006525000091642141, -0.7674909830093384, -0.28778401017189026, -0.23064899444580078, -0.11995899677276611, 0.40554100275039673, -0.33329299092292786, -0.49522700905799866, -0.8715109825134277, -0.6683850288391113, -0.40481698513031006, 0.23226700723171234, 0.03208800032734871, -0.9047039747238159, 0.462581992149353, -0.3688330054283142, 0.09835100173950195, 0.3427110016345978, 0.2013690024614334, -0.8008700013160706, 0.11527899652719498, 0.35439199209213257, 0.11586800217628479, 0.2116370052099228, -0.8256809711456299, 0.12140499800443649]}, {"stage_idx": 1, "stage": "scores_raw", "scores": [0.41954800486564636, 0.4938940107822418, -0.037466999143362045, 0.6375709772109985, 0.08736299723386765, 0.4746739864349365, -0.09351299703121185, 0.35473498702049255, 0.07274000346660614, -0.7335309982299805, -0.17277200520038605, 0.07623100280761719, -0.08175499737262726, -0.06328900158405304, -0.001290000043809414, -0.18497499823570251, 0.18822699785232544, -0.2930710017681122, 0.35473498702049255, 0.26915299892425537, 0.11617200076580048, -0.037466999143362045, -0.451867014169693, -0.1386750042438507, -0.04107299819588661, 0.2549610137939453, 0.09728000313043594, 0.09417299926280975, 0.18822699785232544, -0.01548600010573864, 0.2629689872264862, -0.10907600075006485, 0.2549610137939453, -0.017118999734520912, 0.5476179718971252, -0.2659800052642822, 0.030472999438643456, -0.20780199766159058, -0.040734998881816864, 0.5571200251579285, -0.04467799887061119, -0.16988399624824524, 0.02575399912893772, 0.39696699380874634, -0.037466999143362045, 0.4451490044593811, -0.30128198862075806, -0.04467799887061119, -0.02500000037252903, 0.4197149872779846, 0.14580200612545013, 0.3761509954929352, 0.10217399895191193, 0.3905380070209503, -0.17385199666023254, 0.052896998822689056, -0.037466999143362045, 0.17876100540161133, 0.17876100540161133, 0.14734099805355072, 0.19060100615024567, -0.46603700518608093, -0.016210999339818954, -0.5616269707679749, -0.5573740005493164, 0.3258129954338074, -0.037466999143362045, 0.40288999676704407, -0.5573740005493164, 0.13032299280166626, -0.17385199666023254, -0.04467799887061119, 0.2643190026283264, -0.003536999924108386, -0.578245997428894, 0.2088180035352707, 0.35473498702049255, -0.04467799887061119, -0.15455499291419983, -0.10036399960517883, -0.27707499265670776, 0.35473498702049255, 0.18822699785232544, -0.2640419900417328, -0.17919600009918213, -0.08341500163078308, -0.05279200151562691, 0.6621540188789368, -0.037466999143362045, -0.2347330003976822, -0.46603700518608093, 0.2549610137939453, -0.3634760081768036, 0.005375999957323074, -0.5573740005493164, 0.01128700003027916, -0.011270999908447266, -0.037043001502752304, 0.12103600054979324, 0.11783599853515625, 0.10521499812602997, -0.03353700041770935, 0.19942399859428406, 0.38531699776649475, 0.40603700280189514, 0.5924429893493652, 0.020875999704003334, 0.04472599923610687, 0.01128700003027916, -0.00042799999937415123, 0.12594899535179138, 0.3615719974040985, 0.09366200119256973, 0.183555006980896, 0.22623200714588165, -0.10052099823951721, 0.40288999676704407, 0.2549610137939453, 0.14580200612545013, -0.11367800086736679, -0.17385199666023254, -0.04467799887061119, -0.46603700518608093, 0.2549610137939453, 0.04622099921107292, -0.06964900344610214, -0.2628540098667145, -0.037466999143362045]}, {"stage_idx": 2, "stage": "scores_masked", "scores": [0.41954800486564636, 0.4938940107822418, -0.037466999143362045, 0.6375709772109985, 0.08736299723386765, 0.4746739864349365, -0.09351299703121185, 0.35473498702049255, 0.07274000346660614, -0.7335309982299805, -0.17277200520038605, 0.07623100280761719, -0.08175499737262726, -0.06328900158405304, -0.001290000043809414, -0.18497499823570251, 0.18822699785232544, -0.2930710017681122, 0.35473498702049255, 0.26915299892425537, 0.11617200076580048, -0.037466999143362045, -0.451867014169693, -0.1386750042438507, -0.04107299819588661, 0.2549610137939453, 0.09728000313043594, 0.09417299926280975, 0.18822699785232544, -0.01548600010573864, 0.2629689872264862, -0.10907600075006485, 0.2549610137939453, -0.017118999734520912, 0.5476179718971252, -0.2659800052642822, 0.030472999438643456, -0.20780199766159058, -0.040734998881816864, 0.5571200251579285, -0.04467799887061119, -0.16988399624824524, 0.02575399912893772, 0.39696699380874634, -0.037466999143362045, 0.4451490044593811, -0.30128198862075806, -0.04467799887061119, -0.02500000037252903, 0.4197149872779846, 0.14580200612545013, 0.3761509954929352, 0.10217399895191193, 0.3905380070209503, -0.17385199666023254, 0.052896998822689056, -0.037466999143362045, 0.17876100540161133, 0.17876100540161133, 0.14734099805355072, 0.19060100615024567, -0.46603700518608093, -0.016210999339818954, -0.5616269707679749, -0.5573740005493164, 0.3258129954338074, -0.037466999143362045, 0.40288999676704407, -0.5573740005493164, 0.13032299280166626, -0.17385199666023254, -0.04467799887061119, 0.2643190026283264, -0.003536999924108386, -0.578245997428894, 0.2088180035352707, 0.35473498702049255, -0.04467799887061119, -0.15455499291419983, -0.10036399960517883, -0.27707499265670776, 0.35473498702049255, 0.18822699785232544, -0.2640419900417328, -0.17919600009918213, -0.08341500163078308, -0.05279200151562691, 0.6621540188789368, -0.037466999143362045, -0.2347330003976822, -0.46603700518608093, 0.2549610137939453, -0.3634760081768036, 0.005375999957323074, -0.5573740005493164, 0.01128700003027916, -0.011270999908447266, -0.037043001502752304, 0.12103600054979324, 0.11783599853515625, 0.10521499812602997, -0.03353700041770935, 0.19942399859428406, 0.38531699776649475, 0.40603700280189514, 0.5924429893493652, 0.020875999704003334, 0.04472599923610687, 0.01128700003027916, -0.00042799999937415123, 0.12594899535179138, 0.3615719974040985, 0.09366200119256973, 0.183555006980896, 0.22623200714588165, -0.10052099823951721, 0.40288999676704407, 0.2549610137939453, 0.14580200612545013, -0.11367800086736679, -0.17385199666023254, -0.04467799887061119, -0.46603700518608093, 0.2549610137939453, 0.04622099921107292, -0.06964900344610214, -0.2628540098667145, -0.037466999143362045]}, {"stage_idx": 3, "stage": "weights_softmax", "weights": [0.011002999730408192, 0.011851999908685684, 0.0069670001976192, 0.013683999888598919, 0.007892999798059464, 0.011626999825239182, 0.006587000098079443, 0.010312999598681927, 0.007778999861329794, 0.0034729999024420977, 0.00608500000089407, 0.007805999834090471, 0.0066650002263486385, 0.0067889997735619545, 0.007224000059068203, 0.006010999903082848, 0.008731000125408173, 0.005394999869167805, 0.010312999598681927, 0.009467000141739845, 0.008124000392854214, 0.0069670001976192, 0.004602999892085791, 0.006295999977737665, 0.006941999774426222, 0.009332999587059021, 0.007972000166773796, 0.007946999743580818, 0.008731000125408173, 0.007122000213712454, 0.00940799992531538, 0.0064849997870624065, 0.009332999587059021, 0.007110000122338533, 0.012507000006735325, 0.005543999839574099, 0.007457000203430653, 0.005876000039279461, 0.006943999789655209, 0.012625999748706818, 0.006916999816894531, 0.00610300013795495, 0.007422000169754028, 0.01075700018554926, 0.0069670001976192, 0.011288000270724297, 0.005350999999791384, 0.006916999816894531, 0.007054000161588192, 0.011005000211298466, 0.008368000388145447, 0.01053600013256073, 0.008011000230908394, 0.01068899966776371, 0.0060789999552071095, 0.007625999860465527, 0.0069670001976192, 0.008648999966681004, 0.008648999966681004, 0.00838099978864193, 0.008751999586820602, 0.004538999870419502, 0.007116999942809343, 0.004124999977648258, 0.004141999874264002, 0.010018999688327312, 0.0069670001976192, 0.01082099974155426, 0.004141999874264002, 0.00824000034481287, 0.0060789999552071095, 0.006916999816894531, 0.009421000257134438, 0.007207000162452459, 0.004056999925523996, 0.008911999873816967, 0.010312999598681927, 0.006916999816894531, 0.0061969999223947525, 0.006541999988257885, 0.005481999833136797, 0.010312999598681927, 0.008731000125408173, 0.005553999915719032, 0.006045999936759472, 0.006653999909758568, 0.00686099985614419, 0.014023999683558941, 0.0069670001976192, 0.00571999978274107, 0.004538999870419502, 0.009332999587059021, 0.005028999876230955, 0.007271999958902597, 0.004141999874264002, 0.007315000053495169, 0.007151999976485968, 0.006969999987632036, 0.008163000456988811, 0.008136999793350697, 0.008035000413656235, 0.006994000170379877, 0.008829000405967236, 0.010633000172674656, 0.010854999534785748, 0.013079999946057796, 0.007385000120848417, 0.007563999854028225, 0.007315000053495169, 0.007230000104755163, 0.008204000070691109, 0.010382999666035175, 0.007942999713122845, 0.0086899995803833, 0.009069000370800495, 0.006541000213474035, 0.01082099974155426, 0.009332999587059021, 0.008368000388145447, 0.0064559997990727425, 0.0060789999552071095, 0.006916999816894531, 0.004538999870419502, 0.009332999587059021, 0.007575000170618296, 0.0067460001446306705, 0.0055610002018511295, 0.0069670001976192], "sum": 1.0}, {"stage_idx": 4, "stage": "weights_after_dropout", "weights": [0.011002999730408192, 0.011851999908685684, 0.0069670001976192, 0.013683999888598919, 0.007892999798059464, 0.011626999825239182, 0.006587000098079443, 0.010312999598681927, 0.007778999861329794, 0.0034729999024420977, 0.00608500000089407, 0.007805999834090471, 0.0066650002263486385, 0.0067889997735619545, 0.007224000059068203, 0.006010999903082848, 0.008731000125408173, 0.005394999869167805, 0.010312999598681927, 0.009467000141739845, 0.008124000392854214, 0.0069670001976192, 0.004602999892085791, 0.006295999977737665, 0.006941999774426222, 0.009332999587059021, 0.007972000166773796, 0.007946999743580818, 0.008731000125408173, 0.007122000213712454, 0.00940799992531538, 0.0064849997870624065, 0.009332999587059021, 0.007110000122338533, 0.012507000006735325, 0.005543999839574099, 0.007457000203430653, 0.005876000039279461, 0.006943999789655209, 0.012625999748706818, 0.006916999816894531, 0.00610300013795495, 0.007422000169754028, 0.01075700018554926, 0.0069670001976192, 0.011288000270724297, 0.005350999999791384, 0.006916999816894531, 0.007054000161588192, 0.011005000211298466, 0.008368000388145447, 0.01053600013256073, 0.008011000230908394, 0.01068899966776371, 0.0060789999552071095, 0.007625999860465527, 0.0069670001976192, 0.008648999966681004, 0.008648999966681004, 0.00838099978864193, 0.008751999586820602, 0.004538999870419502, 0.007116999942809343, 0.004124999977648258, 0.004141999874264002, 0.010018999688327312, 0.0069670001976192, 0.01082099974155426, 0.004141999874264002, 0.00824000034481287, 0.0060789999552071095, 0.006916999816894531, 0.009421000257134438, 0.007207000162452459, 0.004056999925523996, 0.008911999873816967, 0.010312999598681927, 0.006916999816894531, 0.0061969999223947525, 0.006541999988257885, 0.005481999833136797, 0.010312999598681927, 0.008731000125408173, 0.005553999915719032, 0.006045999936759472, 0.006653999909758568, 0.00686099985614419, 0.014023999683558941, 0.0069670001976192, 0.00571999978274107, 0.004538999870419502, 0.009332999587059021, 0.005028999876230955, 0.007271999958902597, 0.004141999874264002, 0.007315000053495169, 0.007151999976485968, 0.006969999987632036, 0.008163000456988811, 0.008136999793350697, 0.008035000413656235, 0.006994000170379877, 0.008829000405967236, 0.010633000172674656, 0.010854999534785748, 0.013079999946057796, 0.007385000120848417, 0.007563999854028225, 0.007315000053495169, 0.007230000104755163, 0.008204000070691109, 0.010382999666035175, 0.007942999713122845, 0.0086899995803833, 0.009069000370800495, 0.006541000213474035, 0.01082099974155426, 0.009332999587059021, 0.008368000388145447, 0.0064559997990727425, 0.0060789999552071095, 0.006916999816894531, 0.004538999870419502, 0.009332999587059021, 0.007575000170618296, 0.0067460001446306705, 0.0055610002018511295, 0.0069670001976192], "sum": 1.0, "dropout_applied": false}, {"stage_idx": 5, "stage": "topk_after_dropout", "k": 5, "topk": [{"pos": 87, "score_masked": 0.6621538400650024, "weight": 0.01402424369007349, "k": [0.2719300091266632, -0.33435800671577454, -0.645799994468689, -0.36510899662971497, 0.88509601354599, -0.6558759808540344, 0.21893799304962158, -0.5668100118637085, -0.32117098569869995, -0.1299089938402176, -0.6138010025024414, -0.6028900146484375, 0.9162420034408569, -0.6795799732208252, -0.22264200448989868, 0.07956600189208984, 0.35088199377059937, 0.7344989776611328, 0.1746630072593689, -0.04162000119686127, 0.20532900094985962, 0.6269630193710327, 0.28490400314331055, 0.493151992559433, 0.6191909909248352, -1.4518250226974487, -0.9087049961090088, 0.5150269865989685, 0.5284860134124756, -0.6204659938812256, -0.2515240013599396, -0.2725920081138611], "v": [0.3193899989128113, 0.13275599479675293, 0.9729179739952087, -0.7216169834136963, 0.6406149864196777, -0.600587010383606, -0.7656769752502441, -0.8946580290794373, 1.0206650495529175, 0.26682499051094055, 0.15632300078868866, -0.15080100297927856, -0.5760989785194397, 1.1366209983825684, -1.0287450551986694, 0.5097519755363464, 0.0407320000231266, -0.5605840086936951, 0.3447909951210022, -0.009128999896347523, 0.3607890009880066, -0.036903999745845795, 0.5660809874534607, -0.10305500030517578, 0.1962449997663498, -0.09004200249910355, 0.7892199754714966, 0.2516140043735504, 1.3593829870224, -0.20714199542999268, 0.08012600243091583, 0.8740059733390808]}, {"pos": 3, "score_masked": 0.6375712156295776, "weight": 0.01368369348347187, "k": [-0.2796170115470886, 0.11486600339412689, 0.5601310133934021, 0.15742099285125732, 0.900305986404419, -1.4596610069274902, -0.09062699973583221, -1.0888609886169434, -1.0664860010147095, -0.20716600120067596, -0.14359299838542938, 0.8091880083084106, 1.063513994216919, 0.3969520032405853, -0.047846999019384384, 0.25283199548721313, 0.829226016998291, -0.09212999790906906, 0.8068720102310181, 0.043202001601457596, 0.7639999985694885, 0.054363999515771866, 0.38860899209976196, -0.032481998205184937, 0.27259498834609985, -1.2793749570846558, -0.12655800580978394, -1.0833200216293335, 0.20930799841880798, -0.7528240084648132, -1.3288459777832031, -0.10036800056695938], "v": [0.9401729702949524, 0.8857660293579102, 0.533424973487854, -0.763480007648468, 0.7283899784088135, 0.31769299507141113, 0.8504499793052673, -1.0226860046386719, -0.17388500273227692, 0.7367979884147644, -0.10595300048589706, 0.06287799775600433, 0.6370729804039001, 0.28091999888420105, 0.3034699857234955, 0.3341970145702362, 0.15915299952030182, -0.4860079884529114, 0.03196299821138382, 0.11249200254678726, -0.2391110062599182, 0.20446500182151794, -0.4421460032463074, 0.7644829750061035, -0.21214799582958221, -0.5650550127029419, 0.01018999982625246, 0.16689300537109375, -0.8328620195388794, -0.2493949979543686, 1.0510859489440918, 0.06991100311279297]}, {"pos": 105, "score_masked": 0.5924426317214966, "weight": 0.01307989563792944, "k": [-0.9456179738044739, 0.5454509854316711, -0.2653160095214844, -0.9336779713630676, 0.7631760239601135, 0.12418399751186371, -0.6483740210533142, -0.971231997013092, 0.3805310130119324, -0.4125629961490631, -0.5330650210380554, -0.7395979762077332, 0.36383798718452454, 0.06901700049638748, -0.9608849883079529, -0.04087800160050392, -0.6495010256767273, -0.8117449879646301, 0.3975909948348999, -0.05640599876642227, 0.008179999887943268, 0.7562999725341797, 0.6769310235977173, 0.8072699904441833, -0.08173500001430511, -0.7093650102615356, 0.43478700518608093, -1.2055740356445312, 0.03134499862790108, -0.12713800370693207, -0.5432400107383728, -0.9808769822120667], "v": [0.22895100712776184, 1.2385350465774536, 0.8495470285415649, -0.49007299542427063, -0.11402799934148788, 0.646809995174408, 0.021467000246047974, -0.8974959850311279, 1.361541986465454, -0.38499701023101807, 0.07381299883127213, 0.3387390077114105, -0.13240699470043182, 0.48639100790023804, -0.33539101481437683, -0.4875290095806122, -0.006756000220775604, -0.16900399327278137, 0.4650700092315674, -0.4318520128726959, 0.4972110092639923, 0.04918599873781204, 0.19210200011730194, 0.45253700017929077, 0.054575998336076736, 0.005568999797105789, 0.3257009983062744, -0.306196004152298, -0.29916200041770935, -0.3350220024585724, 0.9839180111885071, 0.37611299753189087]}, {"pos": 39, "score_masked": 0.557120144367218, "weight": 0.012625944800674915, "k": [-0.3556239902973175, 1.0249370336532593, -0.04487999901175499, 0.0816269963979721, 0.7963979840278625, -0.6189450025558472, 0.6468700170516968, -0.65482097864151, 0.3093070089817047, -0.4236240088939667, -1.7875310182571411, 0.15792900323867798, -0.05464800074696541, -0.5002530217170715, -0.6938369870185852, 0.2880859971046448, -0.3946489989757538, 0.6959789991378784, 0.10317300260066986, -0.010277999565005302, 0.21228300034999847, -0.05687699839472771, 0.01846799999475479, 0.7075430154800415, -0.5908049941062927, -0.433881014585495, 0.6439239978790283, 0.026771999895572662, -0.17506900429725647, 0.27469998598098755, 0.32701200246810913, -0.8762109875679016], "v": [0.2610589861869812, -0.7667520046234131, 0.5803629755973816, 0.3322739899158478, -0.2712790071964264, 0.08290299773216248, -0.12460800260305405, -0.45535099506378174, 0.8071889877319336, -0.8331670165061951, 0.6350809931755066, -0.11494199931621552, -0.04448699951171875, -1.4481840133666992, -0.5007929801940918, -0.06588199734687805, -0.08091700077056885, 0.43425700068473816, 0.5441280007362366, 0.19121399521827698, 0.4094280004501343, -0.9243760108947754, 0.062244001775979996, 0.42922601103782654, -0.29298099875450134, 0.45890700817108154, 0.06469199806451797, -0.6917769908905029, 0.9460139870643616, -0.06502299755811691, -0.4819819927215576, 0.35966700315475464]}, {"pos": 34, "score_masked": 0.5476180911064148, "weight": 0.01250654086470604, "k": [-0.48761799931526184, 0.5654309988021851, -0.6061729788780212, -1.482503056526184, -0.6466019749641418, -0.05307700112462044, 0.16534900665283203, -0.521511971950531, -0.9455289840698242, 0.6001870036125183, 0.30023398995399475, 0.20587100088596344, 0.0518219992518425, 0.20041899383068085, -1.9799150228500366, 0.1353909969329834, 0.4170129895210266, -0.350273996591568, -0.45715099573135376, -0.2559170126914978, -0.0862480029463768, -0.553862988948822, -1.232867956161499, -0.30501601099967957, 0.6318609714508057, -0.43049800395965576, 0.046897999942302704, -0.06294000148773193, -0.3558880090713501, 0.18914499878883362, -0.32172301411628723, 0.45009300112724304], "v": [1.0576529502868652, -0.23618599772453308, -0.6768760085105896, -1.0430359840393066, 0.03572399914264679, 0.2888669967651367, 0.7437459826469421, -0.7169610261917114, 0.43786999583244324, 0.19714899361133575, -0.11916299909353256, -0.5064889788627625, 0.5412160158157349, 0.013144999742507935, 0.42422398924827576, -0.2187190055847168, 1.2436350584030151, 0.3532159924507141, 0.2920899987220764, -0.09999100118875504, 0.044231999665498734, -0.7367519736289978, 0.2958109974861145, 0.449413001537323, 0.12363900244235992, -0.7169100046157837, -0.00012700000661425292, 0.47303301095962524, 1.0641570091247559, 0.020183999091386795, 0.35673901438713074, -0.4308750033378601]}]}, {"stage_idx": 6, "stage": "context_head", "context": [-0.0270409993827343, 0.05450500175356865, 0.05924500152468681, 0.05812099948525429, 0.058079998940229416, -0.020011000335216522, -0.08477800339460373, -0.089478999376297, 0.10844500362873077, -0.02285199984908104, -0.034898001700639725, -0.00013600000238511711, 0.00019999999494757503, 0.05682000145316124, 0.13787700235843658, 0.029929999262094498, -0.015244999900460243, -0.02815300039947033, 0.14264699816703796, 0.02999899908900261, 0.07418099790811539, -0.08187299966812134, 0.05037299916148186, -0.049702998250722885, 0.06038900092244148, -0.031208999454975128, -0.06579600274562836, 0.07182899862527847, 0.19876599311828613, -0.12396799772977829, -0.09199299663305283, -0.013554000295698643]}]}, {"head": 2, "head_dim": 32, "trace": [{"stage_idx": 0, "stage": "q_after_proj_rope", "q": [-0.40213900804519653, -1.814316987991333, -0.3304249942302704, -0.16135500371456146, 0.29673299193382263, 0.9450299739837646, 0.4482499957084656, 0.34234899282455444, -0.20779499411582947, -0.38220900297164917, 1.131458044052124, -0.4004330039024353, -0.42307499051094055, -0.041161999106407166, -0.11924199759960175, -0.5781630277633667, 0.7022759914398193, 0.28879600763320923, -0.5616260170936584, -0.046567000448703766, 0.01839499920606613, -0.25891798734664917, 0.36597999930381775, 0.21701699495315552, -0.9461389780044556, -0.5622490048408508, -0.29235100746154785, -0.3809559941291809, -0.27274399995803833, 0.1780800074338913, 0.5394819974899292, -0.8786560297012329]}, {"stage_idx": 1, "stage": "scores_raw", "scores": [-0.28125, 0.9342479705810547, -0.5465589761734009, -0.32871198654174805, 0.11394400149583817, 0.637706995010376, -0.41448599100112915, -0.3415519893169403, 0.6311900019645691, 0.5021719932556152, 0.3169260025024414, -0.25723499059677124, -0.24219299852848053, 0.2796210050582886, -0.6578879952430725, 0.20225100219249725, -0.29974299669265747, 0.3490520119667053, -0.3415519893169403, -0.235834002494812, -0.7552729845046997, -0.5465589761734009, 0.009500999934971333, 0.30276599526405334, -0.3147839903831482, 0.6473039984703064, 0.35848701000213623, -0.041809000074863434, -0.29974299669265747, -0.1276099979877472, 0.029784999787807465, 0.2877269983291626, 0.6473039984703064, 0.545058012008667, -0.27602699398994446, -0.15331099927425385, 0.5374460220336914, 0.15641599893569946, -0.35353198647499084, 0.3810440003871918, -0.30256399512290955, -0.35248199105262756, -0.00698699988424778, 0.6813539862632751, -0.5465589761734009, 0.16002300381660461, 0.16275900602340698, -0.30256399512290955, -0.02240999974310398, 0.32232800126075745, 0.12519299983978271, -0.12519800662994385, -0.2138800024986267, 0.5491030216217041, 0.15727399289608002, 0.40751099586486816, -0.5465589761734009, 0.26112601161003113, 0.26112601161003113, -0.10033000260591507, 0.21182699501514435, 0.07493200153112411, 0.29928600788116455, 0.28084298968315125, -0.5037990212440491, 0.6489419937133789, -0.5465589761734009, 0.02935199998319149, -0.5037990212440491, 0.22884899377822876, 0.15727399289608002, -0.30256399512290955, 0.6930779814720154, 0.5681210160255432, -0.280117005109787, 0.7260000109672546, -0.3415519893169403, -0.30256399512290955, 0.08868400007486343, -0.06672800332307816, 0.4119119942188263, -0.3415519893169403, -0.29974299669265747, 0.21320800483226776, -1.145387053489685, 0.6376240253448486, -0.11138900369405746, 0.12995700538158417, -0.5465589761734009, -0.10531199723482132, 0.07493200153112411, 0.6473039984703064, 0.5969160199165344, -0.0070329997688531876, -0.5037990212440491, 0.29562199115753174, 0.34033599495887756, 0.3616650104522705, -0.10432600229978561, -0.5249459743499756, 0.7557420134544373, 0.08665399998426437, -0.3586899936199188, -0.6265559792518616, 0.279666006565094, 0.1280830055475235, -0.15486200153827667, 0.6698129773139954, 0.29562199115753174, -0.09587600082159042, 0.5335500240325928, 0.46914198994636536, 0.019804999232292175, 1.0168880224227905, 0.23699000477790833, -0.21662400662899017, 0.02935199998319149, 0.6473039984703064, 0.12519299983978271, -0.1726589947938919, 0.15727399289608002, -0.30256399512290955, 0.07493200153112411, 0.6473039984703064, 0.4975929856300354, 0.6435909867286682, -0.38295799493789673, -0.5465589761734009]}, {"stage_idx": 2, "stage": "scores_masked", "scores": [-0.28125, 0.9342479705810547, -0.5465589761734009, -0.32871198654174805, 0.11394400149583817, 0.637706995010376, -0.41448599100112915, -0.3415519893169403, 0.6311900019645691, 0.5021719932556152, 0.3169260025024414, -0.25723499059677124, -0.24219299852848053, 0.2796210050582886, -0.6578879952430725, 0.20225100219249725, -0.29974299669265747, 0.3490520119667053, -0.3415519893169403, -0.235834002494812, -0.7552729845046997, -0.5465589761734009, 0.009500999934971333, 0.30276599526405334, -0.3147839903831482, 0.6473039984703064, 0.35848701000213623, -0.041809000074863434, -0.29974299669265747, -0.1276099979877472, 0.029784999787807465, 0.2877269983291626, 0.6473039984703064, 0.545058012008667, -0.27602699398994446, -0.15331099927425385, 0.5374460220336914, 0.15641599893569946, -0.35353198647499084, 0.3810440003871918, -0.30256399512290955, -0.35248199105262756, -0.00698699988424778, 0.6813539862632751, -0.5465589761734009, 0.16002300381660461, 0.16275900602340698, -0.30256399512290955, -0.02240999974310398, 0.32232800126075745, 0.12519299983978271, -0.12519800662994385, -0.2138800024986267, 0.5491030216217041, 0.15727399289608002, 0.40751099586486816, -0.5465589761734009, 0.26112601161003113, 0.26112601161003113, -0.10033000260591507, 0.21182699501514435, 0.07493200153112411, 0.29928600788116455, 0.28084298968315125, -0.5037990212440491, 0.6489419937133789, -0.5465589761734009, 0.02935199998319149, -0.5037990212440491, 0.22884899377822876, 0.15727399289608002, -0.30256399512290955, 0.6930779814720154, 0.5681210160255432, -0.280117005109787, 0.7260000109672546, -0.3415519893169403, -0.30256399512290955, 0.08868400007486343, -0.06672800332307816, 0.4119119942188263, -0.3415519893169403, -0.29974299669265747, 0.21320800483226776, -1.145387053489685, 0.6376240253448486, -0.11138900369405746, 0.12995700538158417, -0.5465589761734009, -0.10531199723482132, 0.07493200153112411, 0.6473039984703064, 0.5969160199165344, -0.0070329997688531876, -0.5037990212440491, 0.29562199115753174, 0.34033599495887756, 0.3616650104522705, -0.10432600229978561, -0.5249459743499756, 0.7557420134544373, 0.08665399998426437, -0.3586899936199188, -0.6265559792518616, 0.279666006565094, 0.1280830055475235, -0.15486200153827667, 0.6698129773139954, 0.29562199115753174, -0.09587600082159042, 0.5335500240325928, 0.46914198994636536, 0.019804999232292175, 1.0168880224227905, 0.23699000477790833, -0.21662400662899017, 0.02935199998319149, 0.6473039984703064, 0.12519299983978271, -0.1726589947938919, 0.15727399289608002, -0.30256399512290955, 0.07493200153112411, 0.6473039984703064, 0.4975929856300354, 0.6435909867286682, -0.38295799493789673, -0.5465589761734009]}, {"stage_idx": 3, "stage": "weights_softmax", "weights": [0.005123000126332045, 0.017273999750614166, 0.00392899988219142, 0.004885000176727772, 0.0076060001738369465, 0.012841000221669674, 0.004484000150114298, 0.00482300017029047, 0.012757999822497368, 0.011212999932467937, 0.009317000396549702, 0.005247000139206648, 0.005326999817043543, 0.008976000361144543, 0.0035149999894201756, 0.008307999931275845, 0.005028999876230955, 0.009620999917387962, 0.00482300017029047, 0.0053610000759363174, 0.003189000068232417, 0.00392899988219142, 0.006850999779999256, 0.009185999631881714, 0.004954000003635883, 0.012965000234544277, 0.009712999686598778, 0.006508999969810247, 0.005028999876230955, 0.0059739998541772366, 0.00699200015515089, 0.009049000218510628, 0.012965000234544277, 0.011704999953508377, 0.005150000099092722, 0.005822000093758106, 0.011615999974310398, 0.007935999892652035, 0.004765999969094992, 0.009933999739587307, 0.005014999769628048, 0.004770999774336815, 0.006738999858498573, 0.013414000160992146, 0.00392899988219142, 0.007964000105857849, 0.007985999807715416, 0.005014999769628048, 0.006635999772697687, 0.009367999620735645, 0.007691999897360802, 0.005987999960780144, 0.00547999981790781, 0.011752000078558922, 0.007942000404000282, 0.010200999677181244, 0.00392899988219142, 0.008812000043690205, 0.008812000043690205, 0.006138999946415424, 0.00838799960911274, 0.007315000053495169, 0.0091540003195405, 0.008987000212073326, 0.004100999794900417, 0.012985999695956707, 0.00392899988219142, 0.006988999899476767, 0.004100999794900417, 0.00853199977427721, 0.007942000404000282, 0.005014999769628048, 0.013571999967098236, 0.011978000402450562, 0.005129000172019005, 0.014026000164449215, 0.00482300017029047, 0.005014999769628048, 0.007416000124067068, 0.00634900014847517, 0.01024600025266409, 0.00482300017029047, 0.005028999876230955, 0.008399000391364098, 0.0021589999087154865, 0.012839999981224537, 0.0060709998942911625, 0.007728000171482563, 0.00392899988219142, 0.0061079999431967735, 0.007315000053495169, 0.012965000234544277, 0.01232799980789423, 0.006738999858498573, 0.004100999794900417, 0.009120999835431576, 0.009538000449538231, 0.009743999689817429, 0.006113999988883734, 0.004015000071376562, 0.014449999667704105, 0.007400999777019024, 0.004741000011563301, 0.0036269999109208584, 0.008976999670267105, 0.007714000064879656, 0.005812999792397022, 0.013260000385344028, 0.009120999835431576, 0.006165999919176102, 0.011571000330150127, 0.010848999954760075, 0.006922000087797642, 0.018761999905109406, 0.008600999601185322, 0.005464999936521053, 0.006988999899476767, 0.012965000234544277, 0.007691999897360802, 0.005710000172257423, 0.007942000404000282, 0.005014999769628048, 0.007315000053495169, 0.012965000234544277, 0.01116199977695942, 0.012916999869048595, 0.0046270000748336315, 0.00392899988219142], "sum": 1.0}, {"stage_idx": 4, "stage": "weights_after_dropout", "weights": [0.005123000126332045, 0.017273999750614166, 0.00392899988219142, 0.004885000176727772, 0.0076060001738369465, 0.012841000221669674, 0.004484000150114298, 0.00482300017029047, 0.012757999822497368, 0.011212999932467937, 0.009317000396549702, 0.005247000139206648, 0.005326999817043543, 0.008976000361144543, 0.0035149999894201756, 0.008307999931275845, 0.005028999876230955, 0.009620999917387962, 0.00482300017029047, 0.0053610000759363174, 0.003189000068232417, 0.00392899988219142, 0.006850999779999256, 0.009185999631881714, 0.004954000003635883, 0.012965000234544277, 0.009712999686598778, 0.006508999969810247, 0.005028999876230955, 0.0059739998541772366, 0.00699200015515089, 0.009049000218510628, 0.012965000234544277, 0.011704999953508377, 0.005150000099092722, 0.005822000093758106, 0.011615999974310398, 0.007935999892652035, 0.004765999969094992, 0.009933999739587307, 0.005014999769628048, 0.004770999774336815, 0.006738999858498573, 0.013414000160992146, 0.00392899988219142, 0.007964000105857849, 0.007985999807715416, 0.005014999769628048, 0.006635999772697687, 0.009367999620735645, 0.007691999897360802, 0.005987999960780144, 0.00547999981790781, 0.011752000078558922, 0.007942000404000282, 0.010200999677181244, 0.00392899988219142, 0.008812000043690205, 0.008812000043690205, 0.006138999946415424, 0.00838799960911274, 0.007315000053495169, 0.0091540003195405, 0.008987000212073326, 0.004100999794900417, 0.012985999695956707, 0.00392899988219142, 0.006988999899476767, 0.004100999794900417, 0.00853199977427721, 0.007942000404000282, 0.005014999769628048, 0.013571999967098236, 0.011978000402450562, 0.005129000172019005, 0.014026000164449215, 0.00482300017029047, 0.005014999769628048, 0.007416000124067068, 0.00634900014847517, 0.01024600025266409, 0.00482300017029047, 0.005028999876230955, 0.008399000391364098, 0.0021589999087154865, 0.012839999981224537, 0.0060709998942911625, 0.007728000171482563, 0.00392899988219142, 0.0061079999431967735, 0.007315000053495169, 0.012965000234544277, 0.01232799980789423, 0.006738999858498573, 0.004100999794900417, 0.009120999835431576, 0.009538000449538231, 0.009743999689817429, 0.006113999988883734, 0.004015000071376562, 0.014449999667704105, 0.007400999777019024, 0.004741000011563301, 0.0036269999109208584, 0.008976999670267105, 0.007714000064879656, 0.005812999792397022, 0.013260000385344028, 0.009120999835431576, 0.006165999919176102, 0.011571000330150127, 0.010848999954760075, 0.006922000087797642, 0.018761999905109406, 0.008600999601185322, 0.005464999936521053, 0.006988999899476767, 0.012965000234544277, 0.007691999897360802, 0.005710000172257423, 0.007942000404000282, 0.005014999769628048, 0.007315000053495169, 0.012965000234544277, 0.01116199977695942, 0.012916999869048595, 0.0046270000748336315, 0.00392899988219142], "sum": 1.0, "dropout_applied": false}, {"stage_idx": 5, "stage": "topk_after_dropout", "k": 5, "topk": [{"pos": 113, "score_masked": 1.0168877840042114, "weight": 0.01876201294362545, "k": [-0.29315999150276184, -0.9130749702453613, -0.019437000155448914, 1.1616400480270386, 0.1858620047569275, 0.6320549845695496, 1.6897779703140259, -0.7275040149688721, -0.6546260118484497, -0.7361800074577332, 0.10642500221729279, 0.06654500216245651, 0.3907009959220886, -0.1167759969830513, -0.41510799527168274, -0.6939700245857239, -0.08823099732398987, 0.18209800124168396, -0.6931310296058655, -0.7710809707641602, 0.1852090060710907, 0.053300999104976654, 0.3669629991054535, 0.7618460059165955, -0.7967910170555115, 0.15056100487709045, -0.18840700387954712, 0.2619599997997284, 0.6933389902114868, 1.051813006401062, 1.2867759466171265, -0.19881600141525269], "v": [0.3779259920120239, 0.6759340167045593, -0.16922999918460846, -0.14226099848747253, 0.1638299971818924, -1.3092930316925049, -1.049973964691162, -0.6065210103988647, 0.35719799995422363, 0.42336100339889526, -1.3077950477600098, -1.1469759941101074, 0.10373300313949585, -1.075194001197815, 1.148453950881958, 0.11967500299215317, -0.24489299952983856, -0.7063149809837341, -0.8766459822654724, -1.1072700023651123, 0.3194569945335388, -0.8476359844207764, 0.22125999629497528, -0.5926380157470703, -0.8133180141448975, 0.678367018699646, 0.1302569955587387, 0.709646999835968, -1.2470530271530151, -0.10551399737596512, -0.0610320009291172, -1.0194380283355713]}, {"pos": 1, "score_masked": 0.934248149394989, "weight": 0.017273863777518272, "k": [0.47523900866508484, -0.5968829989433289, -0.3860650062561035, 1.4166940450668335, -0.6969010233879089, 0.4820840060710907, 0.5644819736480713, 0.7218999862670898, -0.46372801065444946, 0.6275699734687805, 0.327921986579895, 0.08910100162029266, 0.7630969882011414, -0.2401300072669983, -1.1570080518722534, -1.7740800380706787, 0.3383210003376007, -0.1001100018620491, 0.030448000878095627, 0.310463011264801, -0.741096019744873, -0.24226899445056915, 0.3784419894218445, -0.17126500606536865, -0.08101200312376022, 0.7590060234069824, -0.8893420100212097, 0.34240901470184326, -0.17445600032806396, 0.3696489930152893, 1.3502709865570068, -1.995913028717041], "v": [0.15940800309181213, -0.06054700165987015, -0.6823130249977112, -0.9300379753112793, 0.5796639919281006, -0.07379200309515, -0.677577018737793, 0.5714799761772156, 0.3072029948234558, -0.5664920210838318, 0.017423000186681747, -0.4015989899635315, 0.5820140242576599, -1.1498349905014038, 0.10979600250720978, -0.6941999793052673, -0.11318200081586838, -0.1954279989004135, -0.08311700075864792, -0.546379029750824, -0.5878270268440247, 0.8395439982414246, 0.007168999873101711, 0.6132500171661377, -0.4581950008869171, 0.7870280146598816, 0.7954999804496765, 0.2592180073261261, 0.23416900634765625, -0.3988189995288849, 0.18674300611019135, 0.7358899712562561]}, {"pos": 100, "score_masked": 0.7557418942451477, "weight": 0.014449912123382092, "k": [-0.26589301228523254, -0.6482279896736145, 0.9481779932975769, -1.113651990890503, -0.6848220229148865, 0.3363949954509735, 0.4577780067920685, 0.23129600286483765, -0.7641280293464661, -0.34147000312805176, 1.0582799911499023, -0.8476449847221375, -0.04947900027036667, -0.6031929850578308, -1.1924140453338623, -0.317671000957489, 0.49155598878860474, -0.2094230055809021, -0.49618399143218994, -0.003667999990284443, -0.14071500301361084, 0.8021860122680664, 0.8035240173339844, 0.04177499935030937, -0.10319499671459198, -0.44588398933410645, -0.18693700432777405, -0.6050620079040527, 0.2735480070114136, -0.6624299883842468, -0.15706300735473633, 0.5504930019378662], "v": [-0.4351939857006073, 0.5174180269241333, -0.90898597240448, -0.73928302526474, -0.5670099854469299, -0.44748398661613464, 0.5854719877243042, 0.4699549973011017, 0.5241039991378784, -0.21067799627780914, 0.4975540041923523, -0.8654559850692749, -0.05819199979305267, 0.19908499717712402, -0.14151600003242493, 0.27733299136161804, 0.5120710134506226, -0.3316490054130554, -0.03434700146317482, 0.542248010635376, 0.5405579805374146, 0.47788700461387634, -0.43955400586128235, 0.467507004737854, 0.08831100165843964, -0.08963900059461594, 0.24883000552654266, 1.0577579736709595, -0.7157530188560486, 0.0333079993724823, 0.33731600642204285, -0.023555999621748924]}, {"pos": 75, "score_masked": 0.725999653339386, "weight": 0.014026467688381672, "k": [-0.33958899974823, -0.1025879979133606, 0.19853700697422028, 1.9804699420928955, 0.024317000061273575, 0.41241899132728577, -0.026218000799417496, 0.24120500683784485, -0.5635190010070801, -0.32200101017951965, 0.4818210005760193, -0.30293500423431396, -0.29743701219558716, -0.7027400135993958, 0.616566002368927, -1.1276639699935913, 0.5107939839363098, 1.3351629972457886, 0.1493079960346222, -0.07749400287866592, 0.33078300952911377, -1.5185140371322632, 0.08123599737882614, 0.056612998247146606, -0.005890999920666218, 0.1687619984149933, 0.40554699301719666, 0.12092699855566025, -0.07411199808120728, -0.04188099876046181, 1.3124970197677612, -0.5570909976959229], "v": [-0.22781899571418762, -0.18345199525356293, 0.13318799436092377, 1.4360849857330322, -1.1027220487594604, 1.2905629873275757, -0.318587988615036, 0.16680000722408295, 0.5344430208206177, -0.8457580208778381, -0.0614980012178421, -0.6867740154266357, -0.6173049807548523, -0.2302040010690689, -0.10590499639511108, 0.7477059960365295, -0.07008799910545349, 0.10963600128889084, -0.06156099960207939, -0.9175459742546082, 0.12297800183296204, 0.7026500105857849, -0.4789389967918396, 0.5909770131111145, -0.23316200077533722, -0.6527230143547058, -0.3590629994869232, -0.3799319863319397, -0.3828839957714081, 0.820464015007019, -0.1544100046157837, 0.1287810057401657]}, {"pos": 72, "score_masked": 0.6930777430534363, "weight": 0.01357220858335495, "k": [0.5205619931221008, -1.1124650239944458, 0.8986409902572632, 0.08436299860477448, -0.035002999007701874, -0.26190900802612305, 0.9497320055961609, 0.7016100287437439, -0.5559809803962708, -0.5037540197372437, 0.12901799380779266, -0.9717550277709961, -0.9090700149536133, 0.4496360123157501, -0.2876800000667572, 0.10836099833250046, 0.17563900351524353, 0.2860549986362457, -0.42711299657821655, -0.36376699805259705, -0.6619570255279541, -0.2810699939727783, -0.18211600184440613, -1.0232000350952148, -0.19188399612903595, 0.19371099770069122, -0.7912520170211792, -0.17535600066184998, -0.052769001573324203, -1.0924910306930542, -0.5494589805603027, -0.8016489744186401], "v": [-0.25377801060676575, -0.15378199517726898, 0.06038599833846092, -0.20014500617980957, 0.49779900908470154, 0.2083120048046112, 0.275750994682312, 0.8674539923667908, -0.033094000071287155, 0.5024480223655701, 0.012407000176608562, -0.8634300231933594, -0.403564989566803, 0.5828210115432739, 0.9345600008964539, 0.3645159900188446, -0.09754899889230728, -0.775538980960846, -0.17809399962425232, 0.4634360074996948, -0.24181300401687622, -0.17670799791812897, -1.1309419870376587, 0.9267590045928955, -1.167883038520813, 0.2082660049200058, -0.15820099413394928, 0.3670459985733032, 1.1430189609527588, 0.032513998448848724, 0.4805150032043457, -0.008856000378727913]}]}, {"stage_idx": 6, "stage": "context_head", "context": [0.028338000178337097, 0.14654800295829773, 0.006544000003486872, -0.0133670000359416, 0.12399999797344208, 0.060509998351335526, -0.09917599707841873, 0.1414639949798584, 0.08260200172662735, 0.08202800154685974, 0.03381099924445152, -0.16876399517059326, 0.19375699758529663, -0.09087599813938141, 0.0024580000899732113, 0.06833499670028687, -0.015333999879658222, -0.024994000792503357, -0.04862799867987633, -0.08997900038957596, -0.03398200124502182, 0.16731800138950348, -0.09687300026416779, -0.0007750000222586095, -0.07827699929475784, 0.1212029978632927, -0.032846998423337936, 0.06627500057220459, -0.0842209979891777, 0.13625699281692505, 0.049490999430418015, -0.04680899903178215]}]}, {"head": 3, "head_dim": 32, "trace": [{"stage_idx": 0, "stage": "q_after_proj_rope", "q": [-0.32767099142074585, 0.26890799403190613, -1.189303994178772, -0.13608400523662567, 0.43599599599838257, -0.8631410002708435, 0.3321700096130371, -0.6251220107078552, 0.3027690052986145, 0.24476400017738342, -0.6928579807281494, -0.9759089946746826, 0.738103985786438, -0.050755999982357025, 0.08921000361442566, -1.1491819620132446, -0.6894659996032715, -0.984512984752655, -0.7032970190048218, 0.5064290165901184, -0.3536570072174072, 0.08883699774742126, -0.11198800057172775, -0.15973900258541107, -0.22009700536727905, -0.4571860134601593, -0.44920599460601807, -0.09802000224590302, 0.5148209929466248, 0.651075005531311, -0.10202699899673462, -0.6447839736938477]}, {"stage_idx": 1, "stage": "scores_raw", "scores": [-0.10038699954748154, -0.003389999968931079, -0.15934999287128448, 0.48438501358032227, -0.14125700294971466, 0.12200500071048737, -0.16759000718593597, 0.24178600311279297, 0.10328599810600281, -0.7403820157051086, -0.3528290092945099, 0.4463219940662384, 0.2061930000782013, 0.07566200196743011, 0.03609500080347061, 0.015382000245153904, 0.3042159974575043, 0.6383280158042908, 0.24178600311279297, 0.6759520173072815, 0.42439600825309753, -0.15934999287128448, -0.21877799928188324, 0.0970269963145256, 0.14264999330043793, -0.15397100150585175, 0.4605349898338318, 0.14609800279140472, 0.3042159974575043, 0.06396099925041199, -0.0020840000361204147, 0.2794939875602722, -0.15397100150585175, 0.30219700932502747, 0.5832509994506836, -0.08224000036716461, -0.0067460001446306705, 0.16254599392414093, 0.21775400638580322, 0.5196210145950317, -0.7034819722175598, 0.20596100389957428, 0.1665319949388504, -0.025036999955773354, -0.15934999287128448, 0.663536012172699, 0.02533699944615364, -0.7034819722175598, 0.4213320016860962, -0.30939000844955444, -0.019317999482154846, 0.005663999821990728, 0.699429988861084, 0.07718999683856964, -0.115215003490448, 0.22542700171470642, -0.15934999287128448, 0.05073999986052513, 0.05073999986052513, 0.3800230026245117, 0.6711490154266357, 0.41847801208496094, 0.1599539965391159, 0.009530000388622284, -0.45670801401138306, 0.2667529881000519, -0.15934999287128448, 0.2546739876270294, -0.45670801401138306, 0.12422399967908859, -0.115215003490448, -0.7034819722175598, 0.26996898651123047, 0.39831098914146423, 0.424699991941452, 0.06436599791049957, 0.24178600311279297, -0.7034819722175598, -0.4931749999523163, 0.2820880115032196, -0.22104200720787048, 0.24178600311279297, 0.3042159974575043, -0.08627700060606003, 0.21645599603652954, 0.29746299982070923, 0.7956939935684204, 0.15690399706363678, -0.15934999287128448, -0.08238299936056137, 0.41847801208496094, -0.15397100150585175, 0.1759749948978424, 0.43748098611831665, -0.45670801401138306, 0.1871509999036789, 0.4016070067882538, 0.43834900856018066, -0.12636800110340118, -0.5377960205078125, -0.4128269851207733, -0.09073899686336517, 0.09268199652433395, -0.045444000512361526, -0.09516400098800659, -0.13606099784374237, 0.13755300641059875, -0.358146995306015, 0.1871509999036789, 0.10263899713754654, 0.31646499037742615, 0.2796199917793274, 0.11095300316810608, 0.47971999645233154, 0.446492999792099, 0.6723899841308594, 0.2546739876270294, -0.15397100150585175, -0.019317999482154846, 0.007903000339865685, -0.115215003490448, -0.7034819722175598, 0.41847801208496094, -0.15397100150585175, -0.18405599892139435, 0.31604599952697754, 0.01830900087952614, -0.15934999287128448]}, {"stage_idx": 2, "stage": "scores_masked", "scores": [-0.10038699954748154, -0.003389999968931079, -0.15934999287128448, 0.48438501358032227, -0.14125700294971466, 0.12200500071048737, -0.16759000718593597, 0.24178600311279297, 0.10328599810600281, -0.7403820157051086, -0.3528290092945099, 0.4463219940662384, 0.2061930000782013, 0.07566200196743011, 0.03609500080347061, 0.015382000245153904, 0.3042159974575043, 0.6383280158042908, 0.24178600311279297, 0.6759520173072815, 0.42439600825309753, -0.15934999287128448, -0.21877799928188324, 0.0970269963145256, 0.14264999330043793, -0.15397100150585175, 0.4605349898338318, 0.14609800279140472, 0.3042159974575043, 0.06396099925041199, -0.0020840000361204147, 0.2794939875602722, -0.15397100150585175, 0.30219700932502747, 0.5832509994506836, -0.08224000036716461, -0.0067460001446306705, 0.16254599392414093, 0.21775400638580322, 0.5196210145950317, -0.7034819722175598, 0.20596100389957428, 0.1665319949388504, -0.025036999955773354, -0.15934999287128448, 0.663536012172699, 0.02533699944615364, -0.7034819722175598, 0.4213320016860962, -0.30939000844955444, -0.019317999482154846, 0.005663999821990728, 0.699429988861084, 0.07718999683856964, -0.115215003490448, 0.22542700171470642, -0.15934999287128448, 0.05073999986052513, 0.05073999986052513, 0.3800230026245117, 0.6711490154266357, 0.41847801208496094, 0.1599539965391159, 0.009530000388622284, -0.45670801401138306, 0.2667529881000519, -0.15934999287128448, 0.2546739876270294, -0.45670801401138306, 0.12422399967908859, -0.115215003490448, -0.7034819722175598, 0.26996898651123047, 0.39831098914146423, 0.424699991941452, 0.06436599791049957, 0.24178600311279297, -0.7034819722175598, -0.4931749999523163, 0.2820880115032196, -0.22104200720787048, 0.24178600311279297, 0.3042159974575043, -0.08627700060606003, 0.21645599603652954, 0.29746299982070923, 0.7956939935684204, 0.15690399706363678, -0.15934999287128448, -0.08238299936056137, 0.41847801208496094, -0.15397100150585175, 0.1759749948978424, 0.43748098611831665, -0.45670801401138306, 0.1871509999036789, 0.4016070067882538, 0.43834900856018066, -0.12636800110340118, -0.5377960205078125, -0.4128269851207733, -0.09073899686336517, 0.09268199652433395, -0.045444000512361526, -0.09516400098800659, -0.13606099784374237, 0.13755300641059875, -0.358146995306015, 0.1871509999036789, 0.10263899713754654, 0.31646499037742615, 0.2796199917793274, 0.11095300316810608, 0.47971999645233154, 0.446492999792099, 0.6723899841308594, 0.2546739876270294, -0.15397100150585175, -0.019317999482154846, 0.007903000339865685, -0.115215003490448, -0.7034819722175598, 0.41847801208496094, -0.15397100150585175, -0.18405599892139435, 0.31604599952697754, 0.01830900087952614, -0.15934999287128448]}, {"stage_idx": 3, "stage": "weights_softmax", "weights": [0.006231999956071377, 0.00686699990183115, 0.005874999798834324, 0.01118400041013956, 0.0059819999150931835, 0.0077840001322329044, 0.005826999898999929, 0.008775000460445881, 0.007639999967068434, 0.003286000108346343, 0.0048420000821352005, 0.010765999555587769, 0.00846800021827221, 0.007431999780237675, 0.007143000140786171, 0.0069969999603927135, 0.009340000338852406, 0.013044999912381172, 0.008775000460445881, 0.013544999994337559, 0.010533000342547894, 0.005874999798834324, 0.005535999778658152, 0.007592000067234039, 0.007946000434458256, 0.005907000042498112, 0.01092000026255846, 0.007973999716341496, 0.009340000338852406, 0.0073449998162686825, 0.006876000203192234, 0.009112000465393066, 0.005907000042498112, 0.009321000427007675, 0.012346000410616398, 0.006345999892801046, 0.006843999959528446, 0.008105999790132046, 0.008565999567508698, 0.011584999971091747, 0.0034099998883903027, 0.008465999737381935, 0.00813900027424097, 0.006719999946653843, 0.005874999798834324, 0.013377999886870384, 0.007067000027745962, 0.0034099998883903027, 0.010499999858438969, 0.0050570000894367695, 0.006757999770343304, 0.006928999908268452, 0.013867000117897987, 0.0074430000968277454, 0.006140000186860561, 0.008631999604403973, 0.005874999798834324, 0.007249000016599894, 0.007249000016599894, 0.010075000114738941, 0.01348000019788742, 0.010470000095665455, 0.008085000328719616, 0.006955999881029129, 0.004364000167697668, 0.008995999582111835, 0.005874999798834324, 0.008887999691069126, 0.004364000167697668, 0.007801000028848648, 0.006140000186860561, 0.0034099998883903027, 0.009025000035762787, 0.010261000134050846, 0.01053600013256073, 0.007348000071942806, 0.008775000460445881, 0.0034099998883903027, 0.004207999911159277, 0.009135999716818333, 0.0055240001529455185, 0.008775000460445881, 0.009340000338852406, 0.006320999935269356, 0.008554999716579914, 0.009277000091969967, 0.015267999842762947, 0.008061000145971775, 0.005874999798834324, 0.006345000118017197, 0.010470000095665455, 0.005907000042498112, 0.00821600016206503, 0.010670999996364117, 0.004364000167697668, 0.008307999931275845, 0.010294999927282333, 0.010680999606847763, 0.0060720001347362995, 0.004023999907076359, 0.004559999797493219, 0.006291999947279692, 0.007559000048786402, 0.006583999842405319, 0.006264999974519014, 0.006014000158756971, 0.007906000129878521, 0.004815999884158373, 0.008307999931275845, 0.0076350001618266106, 0.009455000050365925, 0.009112999774515629, 0.007699000183492899, 0.011132000014185905, 0.010768000036478043, 0.013496999628841877, 0.008887999691069126, 0.005907000042498112, 0.006757999770343304, 0.006945000030100346, 0.006140000186860561, 0.0034099998883903027, 0.010470000095665455, 0.005907000042498112, 0.00573199987411499, 0.009451000019907951, 0.007017000112682581, 0.005874999798834324], "sum": 1.0}, {"stage_idx": 4, "stage": "weights_after_dropout", "weights": [0.006231999956071377, 0.00686699990183115, 0.005874999798834324, 0.01118400041013956, 0.0059819999150931835, 0.0077840001322329044, 0.005826999898999929, 0.008775000460445881, 0.007639999967068434, 0.003286000108346343, 0.0048420000821352005, 0.010765999555587769, 0.00846800021827221, 0.007431999780237675, 0.007143000140786171, 0.0069969999603927135, 0.009340000338852406, 0.013044999912381172, 0.008775000460445881, 0.013544999994337559, 0.010533000342547894, 0.005874999798834324, 0.005535999778658152, 0.007592000067234039, 0.007946000434458256, 0.005907000042498112, 0.01092000026255846, 0.007973999716341496, 0.009340000338852406, 0.0073449998162686825, 0.006876000203192234, 0.009112000465393066, 0.005907000042498112, 0.009321000427007675, 0.012346000410616398, 0.006345999892801046, 0.006843999959528446, 0.008105999790132046, 0.008565999567508698, 0.011584999971091747, 0.0034099998883903027, 0.008465999737381935, 0.00813900027424097, 0.006719999946653843, 0.005874999798834324, 0.013377999886870384, 0.007067000027745962, 0.0034099998883903027, 0.010499999858438969, 0.0050570000894367695, 0.006757999770343304, 0.006928999908268452, 0.013867000117897987, 0.0074430000968277454, 0.006140000186860561, 0.008631999604403973, 0.005874999798834324, 0.007249000016599894, 0.007249000016599894, 0.010075000114738941, 0.01348000019788742, 0.010470000095665455, 0.008085000328719616, 0.006955999881029129, 0.004364000167697668, 0.008995999582111835, 0.005874999798834324, 0.008887999691069126, 0.004364000167697668, 0.007801000028848648, 0.006140000186860561, 0.0034099998883903027, 0.009025000035762787, 0.010261000134050846, 0.01053600013256073, 0.007348000071942806, 0.008775000460445881, 0.0034099998883903027, 0.004207999911159277, 0.009135999716818333, 0.0055240001529455185, 0.008775000460445881, 0.009340000338852406, 0.006320999935269356, 0.008554999716579914, 0.009277000091969967, 0.015267999842762947, 0.008061000145971775, 0.005874999798834324, 0.006345000118017197, 0.010470000095665455, 0.005907000042498112, 0.00821600016206503, 0.010670999996364117, 0.004364000167697668, 0.008307999931275845, 0.010294999927282333, 0.010680999606847763, 0.0060720001347362995, 0.004023999907076359, 0.004559999797493219, 0.006291999947279692, 0.007559000048786402, 0.006583999842405319, 0.006264999974519014, 0.006014000158756971, 0.007906000129878521, 0.004815999884158373, 0.008307999931275845, 0.0076350001618266106, 0.009455000050365925, 0.009112999774515629, 0.007699000183492899, 0.011132000014185905, 0.010768000036478043, 0.013496999628841877, 0.008887999691069126, 0.005907000042498112, 0.006757999770343304, 0.006945000030100346, 0.006140000186860561, 0.0034099998883903027, 0.010470000095665455, 0.005907000042498112, 0.00573199987411499, 0.009451000019907951, 0.007017000112682581, 0.005874999798834324], "sum": 1.0, "dropout_applied": false}, {"stage_idx": 5, "stage": "topk_after_dropout", "k": 5, "topk": [{"pos": 86, "score_masked": 0.7956938147544861, "weight": 0.015268235467374325, "k": [-0.9342349767684937, -0.14113399386405945, -0.5732499957084656, 0.21110999584197998, 0.08152899891138077, -0.9481199979782104, -0.47652000188827515, -0.4310329854488373, -0.2050279974937439, -0.5988140106201172, 0.19657400250434875, -0.13152499496936798, 0.04032599925994873, -0.3971889913082123, -0.03441299870610237, -0.15127600729465485, -0.7401340007781982, -0.6899129748344421, -0.05812999978661537, 0.3867869973182678, 0.31210100650787354, 1.0266029834747314, 0.5922279953956604, -0.03813299909234047, 0.7489429712295532, -0.5498459935188293, -0.5646029710769653, -0.4598970115184784, 1.6214319467544556, -0.6069390177726746, 0.16320599615573883, -0.7065500020980835], "v": [-0.21387800574302673, 0.21078799664974213, 0.5260729789733887, -1.4646810293197632, 0.25924599170684814, -0.564765989780426, 0.21184700727462769, 0.5170779824256897, 0.27376800775527954, -0.3339810073375702, -0.6460959911346436, -0.6400489807128906, -0.07888700067996979, 0.09362500160932541, -0.04772000014781952, 0.9915249943733215, -0.3640559911727905, -0.12822000682353973, -0.08042699843645096, -0.19586600363254547, -0.9165260195732117, 0.48670798540115356, -0.6887500286102295, 0.13324500620365143, 0.08193500339984894, 0.14716599881649017, -0.5781049728393555, 0.17858299612998962, -0.13320299983024597, 0.06022899970412254, 0.5939679741859436, 0.39469999074935913]}, {"pos": 52, "score_masked": 0.6994296908378601, "weight": 0.013866979628801346, "k": [-0.1164340004324913, 0.11525099724531174, 0.5093140006065369, -0.417044997215271, -0.022863000631332397, -0.4537999927997589, 1.4154690504074097, -0.8436669707298279, -1.0611640214920044, 0.41525501012802124, 0.5004950165748596, 0.2783460021018982, 0.08258000016212463, 0.1115569993853569, 0.8097450137138367, -1.227349042892456, -0.060180000960826874, -1.2536870241165161, -0.5112299919128418, 0.8175250291824341, -0.42896801233291626, 1.2214970588684082, 0.025118999183177948, 0.274181991815567, -0.1332630068063736, 0.46639201045036316, -0.43499699234962463, -0.9172790050506592, 0.2565149962902069, -0.3346799910068512, 0.4982300102710724, -0.2008579969406128], "v": [-0.15412600338459015, -0.24459999799728394, -0.33930501341819763, 1.2512320280075073, 1.4453940391540527, -0.4560370147228241, -0.2890999913215637, 0.39375901222229004, 0.8169450163841248, 1.0913439989089966, -0.12367399781942368, -0.15050700306892395, -0.19688700139522552, 0.3391270041465759, -0.34658700227737427, -0.30463799834251404, 0.05173499882221222, -0.6333760023117065, 0.3240100145339966, -0.7878900170326233, -0.4536440074443817, 0.10255800187587738, 0.6454100012779236, 1.043982982635498, -0.18222099542617798, 0.13819999992847443, -0.6008480191230774, -0.828656017780304, -0.5793889760971069, -0.711355984210968, 0.05013599991798401, -0.5735989809036255]}, {"pos": 19, "score_masked": 0.6759518980979919, "weight": 0.013545204885303974, "k": [-0.0032029999420046806, -0.17803700268268585, -0.1352750062942505, -0.2768239974975586, 0.6977789998054504, 0.3577350080013275, -0.8653780221939087, -0.6840280294418335, -0.33092400431632996, -0.06467799842357635, 0.9666360020637512, -0.5311329960823059, -0.09682200103998184, 0.1699880063533783, 0.4379099905490875, -0.3128190040588379, -0.9117559790611267, -0.9100810289382935, 0.040977999567985535, 0.01849599927663803, -0.5237730145454407, 0.0401110015809536, 0.2950420081615448, -0.575298011302948, 0.23998600244522095, -1.0356650352478027, -0.14277400076389313, -0.46509599685668945, 0.7581980228424072, 1.2925419807434082, 0.7244399785995483, -0.06859099864959717], "v": [-0.11894600093364716, 0.1186320036649704, -0.7415130138397217, -0.7695800065994263, -0.16408400237560272, -0.2543700039386749, 0.1640080064535141, 0.6139770150184631, -0.7474179863929749, -0.011695999652147293, -0.44895100593566895, -1.2354450225830078, 0.15403799712657928, 0.19988399744033813, 0.5845770239830017, -0.15943899750709534, 1.6385339498519897, 1.0099270343780518, -0.7405530214309692, 0.443897008895874, -0.3715690076351166, 0.14558200538158417, 0.7103490233421326, 0.678471028804779, 0.1484609991312027, 0.46975401043891907, 1.277325987815857, 0.3625360131263733, 0.5217819809913635, -0.4007109999656677, -0.165133997797966, 0.7923160195350647]}, {"pos": 115, "score_masked": 0.6723904609680176, "weight": 0.01349705085158348, "k": [-0.07889200001955032, 0.7084569931030273, -0.2537280023097992, -0.14594300091266632, 0.1992039978504181, -1.0718079805374146, 0.1470170021057129, -0.6048280000686646, -1.0074180364608765, -0.13850300014019012, -0.5652490258216858, -0.6723780035972595, 1.3699469566345215, 0.16546699404716492, -0.8683019876480103, -0.20759999752044678, 0.6493620276451111, 0.5382829904556274, -1.2296799421310425, 0.5775139927864075, -0.5446569919586182, 0.2824150025844574, 0.3481850028038025, 1.2862939834594727, -0.46625199913978577, -0.11122199892997742, -0.47902700304985046, -0.31161001324653625, -1.310912013053894, 0.564378023147583, -0.7660959959030151, 0.5720589756965637], "v": [-0.33195799589157104, -1.1031579971313477, -0.45538100600242615, 0.8424310088157654, -0.45103201270103455, -0.020277999341487885, 0.9041569828987122, -0.5361700057983398, -0.19169999659061432, -0.38855698704719543, 0.38972800970077515, 0.09182599931955338, -0.4269460141658783, -0.1621139943599701, -0.04625700041651726, 0.18329499661922455, 0.5484449863433838, -0.7791979908943176, 0.07480300217866898, 0.07054799795150757, 0.4163990020751953, -0.5167989730834961, -0.18405400216579437, -0.4020709991455078, 0.593330979347229, 0.4366999864578247, -0.3008190095424652, -0.3299520015716553, -0.5741919875144958, -0.37358200550079346, -1.226775050163269, 0.24389800429344177]}, {"pos": 60, "score_masked": 0.6711487174034119, "weight": 0.013480301015079021, "k": [-0.5103790163993835, -1.8687520027160645, -0.21637600660324097, -0.15670299530029297, 0.38732999563217163, -0.2613309919834137, -0.8535289764404297, -0.31601500511169434, 0.8523030281066895, 1.7110519409179688, -0.22297599911689758, 0.02015800029039383, 1.0041300058364868, -0.18167999386787415, -0.218982994556427, -0.05237499997019768, -0.7219510078430176, -0.22161099314689636, -0.6124849915504456, 0.3101139962673187, 0.12798400223255157, -0.5815119743347168, 0.9856740236282349, 0.2098349928855896, -1.5064890384674072, -0.9485689997673035, -0.6385949850082397, -0.5552589893341064, -0.8046299815177917, 0.20910300314426422, 0.06430800259113312, -0.08878300338983536], "v": [-0.26699399948120117, -0.2285500019788742, -0.19971400499343872, -0.17880700528621674, -0.7635520100593567, 0.4086360037326813, -0.6947540044784546, -0.04870200157165527, 0.29788699746131897, 0.7002000212669373, 0.8281329870223999, -0.3275980055332184, 0.6500930190086365, -0.2850410044193268, 0.4770349860191345, 0.32229000329971313, -0.022540999576449394, -0.4093019962310791, -0.3643079996109009, -1.1128499507904053, -0.8577569723129272, -0.42226800322532654, 0.3568060100078583, 0.49185800552368164, -0.6501790285110474, -0.1022609993815422, -0.656578004360199, 0.4302150011062622, -1.372776985168457, -0.6913449764251709, 0.19262899458408356, -0.19554099440574646]}]}, {"stage_idx": 6, "stage": "context_head", "context": [-0.08005300164222717, 0.03546199947595596, -0.09473399817943573, -0.03608100116252899, -0.02670999988913536, 0.07781200110912323, -0.07552800327539444, -0.011855999939143658, 0.12107600271701813, -0.17512400448322296, -0.0047889999113976955, -0.19157199561595917, 0.07379700243473053, -0.06349299848079681, -0.0753839984536171, 0.0010789999505504966, 0.15629500150680542, 0.03455600142478943, -0.10336799919605255, 0.00026500000967644155, -0.11180900037288666, 0.01324899960309267, -0.11078199744224548, 0.07364100217819214, 0.029247000813484192, 0.055668000131845474, 0.047331999987363815, 0.06202799826860428, -0.006461999844759703, -0.15968799591064453, -0.08428899943828583, 0.029374999925494194]}]}, {"head": 4, "head_dim": 32, "trace": [{"stage_idx": 0, "stage": "q_after_proj_rope", "q": [1.0542629957199097, -0.24435299634933472, -0.725534975528717, 0.058556001633405685, 0.3485049903392792, 0.2573319971561432, 0.5213620066642761, -1.4751180410385132, 0.6378639936447144, -0.06703100353479385, -0.15375599265098572, -0.04883800074458122, -0.10333500057458878, 0.08389800041913986, 0.10510899871587753, 0.6081939935684204, -0.7432960271835327, 0.17928799986839294, 0.5285009741783142, 1.0207159519195557, 0.2936510145664215, -0.517756998538971, 0.6559600234031677, 0.7616239786148071, 0.33899199962615967, 0.9244890213012695, -0.17063799500465393, 0.537962019443512, 0.49027499556541443, -0.764316976070404, -0.17723800241947174, -0.501239001750946]}, {"stage_idx": 1, "stage": "scores_raw", "scores": [0.48948898911476135, 0.01895200088620186, 0.10540200024843216, -0.11324899643659592, -0.07876099646091461, -0.44518598914146423, 0.5271819829940796, -0.10984499752521515, 0.06856200098991394, -0.10332100093364716, 0.4941770136356354, -0.0993409976363182, 0.5652869939804077, 0.5601739883422852, 0.49620699882507324, 0.43919599056243896, -0.17730699479579926, 0.3945229947566986, -0.10984499752521515, 0.24454300105571747, 0.0982159972190857, 0.10540200024843216, 0.5339739918708801, -0.22520099580287933, 0.02776299975812435, -0.23329399526119232, 0.01397900003939867, -0.2444390058517456, -0.17730699479579926, -0.15152999758720398, 0.07026900351047516, -0.603609025478363, -0.23329399526119232, -0.1771090030670166, -0.10082100331783295, 0.1345369964838028, -0.3511649966239929, 0.36572399735450745, -0.24531100690364838, 0.7610650062561035, 0.36404499411582947, 0.3101919889450073, 0.05273199826478958, 0.12845399975776672, 0.10540200024843216, 0.060029998421669006, 0.21955600380897522, 0.36404499411582947, 0.39905500411987305, 0.09366600215435028, 0.004726000130176544, 0.3419100046157837, 0.35767999291419983, -0.03523600101470947, -0.09960100054740906, 0.4301230013370514, 0.10540200024843216, 0.18262800574302673, 0.18262800574302673, 0.11271599680185318, -0.04673700034618378, -0.5430570244789124, -0.2747569978237152, 0.17511799931526184, 0.2676750123500824, -0.4291900098323822, 0.10540200024843216, -0.35708799958229065, 0.2676750123500824, 0.20686699450016022, -0.09960100054740906, 0.36404499411582947, -0.05999600142240524, 0.006085999775677919, 0.7635819911956787, 0.07430099695920944, -0.10984499752521515, 0.36404499411582947, -0.16318100690841675, 0.23765599727630615, -0.3065679967403412, -0.10984499752521515, -0.17730699479579926, 0.1524610072374344, 0.19200100004673004, -0.5160880088806152, -0.07156199961900711, 0.10269799828529358, 0.10540200024843216, 0.20218299329280853, -0.5430570244789124, -0.23329399526119232, -0.12433099746704102, -0.06565199792385101, 0.2676750123500824, -0.21700699627399445, 0.23863600194454193, 0.19976100325584412, 0.31465399265289307, 0.08973100036382675, -0.09230799973011017, 0.25091901421546936, -0.13321900367736816, 0.5407519936561584, -0.030093999579548836, -0.15363000333309174, -0.0655049979686737, 0.1878190040588379, -0.21700699627399445, 0.3128809928894043, 0.28301700949668884, -0.22732900083065033, 0.04149800166487694, -0.1896899938583374, -0.05420200154185295, 0.19619399309158325, -0.35708799958229065, -0.23329399526119232, 0.004726000130176544, 0.02782999910414219, -0.09960100054740906, 0.36404499411582947, -0.5430570244789124, -0.23329399526119232, 0.1137320026755333, 0.10443499684333801, -0.33892300724983215, 0.10540200024843216]}, {"stage_idx": 2, "stage": "scores_masked", "scores": [0.48948898911476135, 0.01895200088620186, 0.10540200024843216, -0.11324899643659592, -0.07876099646091461, -0.44518598914146423, 0.5271819829940796, -0.10984499752521515, 0.06856200098991394, -0.10332100093364716, 0.4941770136356354, -0.0993409976363182, 0.5652869939804077, 0.5601739883422852, 0.49620699882507324, 0.43919599056243896, -0.17730699479579926, 0.3945229947566986, -0.10984499752521515, 0.24454300105571747, 0.0982159972190857, 0.10540200024843216, 0.5339739918708801, -0.22520099580287933, 0.02776299975812435, -0.23329399526119232, 0.01397900003939867, -0.2444390058517456, -0.17730699479579926, -0.15152999758720398, 0.07026900351047516, -0.603609025478363, -0.23329399526119232, -0.1771090030670166, -0.10082100331783295, 0.1345369964838028, -0.3511649966239929, 0.36572399735450745, -0.24531100690364838, 0.7610650062561035, 0.36404499411582947, 0.3101919889450073, 0.05273199826478958, 0.12845399975776672, 0.10540200024843216, 0.060029998421669006, 0.21955600380897522, 0.36404499411582947, 0.39905500411987305, 0.09366600215435028, 0.004726000130176544, 0.3419100046157837, 0.35767999291419983, -0.03523600101470947, -0.09960100054740906, 0.4301230013370514, 0.10540200024843216, 0.18262800574302673, 0.18262800574302673, 0.11271599680185318, -0.04673700034618378, -0.5430570244789124, -0.2747569978237152, 0.17511799931526184, 0.2676750123500824, -0.4291900098323822, 0.10540200024843216, -0.35708799958229065, 0.2676750123500824, 0.20686699450016022, -0.09960100054740906, 0.36404499411582947, -0.05999600142240524, 0.006085999775677919, 0.7635819911956787, 0.07430099695920944, -0.10984499752521515, 0.36404499411582947, -0.16318100690841675, 0.23765599727630615, -0.3065679967403412, -0.10984499752521515, -0.17730699479579926, 0.1524610072374344, 0.19200100004673004, -0.5160880088806152, -0.07156199961900711, 0.10269799828529358, 0.10540200024843216, 0.20218299329280853, -0.5430570244789124, -0.23329399526119232, -0.12433099746704102, -0.06565199792385101, 0.2676750123500824, -0.21700699627399445, 0.23863600194454193, 0.19976100325584412, 0.31465399265289307, 0.08973100036382675, -0.09230799973011017, 0.25091901421546936, -0.13321900367736816, 0.5407519936561584, -0.030093999579548836, -0.15363000333309174, -0.0655049979686737, 0.1878190040588379, -0.21700699627399445, 0.3128809928894043, 0.28301700949668884, -0.22732900083065033, 0.04149800166487694, -0.1896899938583374, -0.05420200154185295, 0.19619399309158325, -0.35708799958229065, -0.23329399526119232, 0.004726000130176544, 0.02782999910414219, -0.09960100054740906, 0.36404499411582947, -0.5430570244789124, -0.23329399526119232, 0.1137320026755333, 0.10443499684333801, -0.33892300724983215, 0.10540200024843216]}, {"stage_idx": 3, "stage": "weights_softmax", "weights": [0.011698000133037567, 0.007306999992579222, 0.007966999895870686, 0.006401999853551388, 0.0066269999369978905, 0.004594000056385994, 0.012147000059485435, 0.006424000021070242, 0.0076790000312030315, 0.006465999875217676, 0.011753000319004059, 0.006492000073194504, 0.012618999928236008, 0.012555000372231007, 0.011776999570429325, 0.011123999953269958, 0.006004999857395887, 0.010638000443577766, 0.006424000021070242, 0.0091559998691082, 0.007910000160336494, 0.007966999895870686, 0.012230000458657742, 0.005723999813199043, 0.00737199978902936, 0.0056779999285936356, 0.007271000184118748, 0.005615000147372484, 0.006004999857395887, 0.006161999888718128, 0.007691999897360802, 0.003920999821275473, 0.0056779999285936356, 0.006006000097841024, 0.00648199999704957, 0.008202999830245972, 0.005047000013291836, 0.01033599954098463, 0.005609999876469374, 0.015348000451922417, 0.010319000110030174, 0.00977800041437149, 0.007557999808341265, 0.00815299991518259, 0.007966999895870686, 0.007613999769091606, 0.00892999954521656, 0.010319000110030174, 0.010685999877750874, 0.007873999886214733, 0.007203999906778336, 0.010092999786138535, 0.0102530000731349, 0.006922000087797642, 0.006490000057965517, 0.011024000123143196, 0.007966999895870686, 0.00860700011253357, 0.00860700011253357, 0.00802600011229515, 0.0068430001847445965, 0.004166000057011843, 0.00544800003990531, 0.008542000316083431, 0.009371000342071056, 0.004668000154197216, 0.007966999895870686, 0.005016999784857035, 0.009371000342071056, 0.008817999623715878, 0.006490000057965517, 0.010319000110030174, 0.0067529999651014805, 0.007213999982923269, 0.01538699958473444, 0.0077229999005794525, 0.006424000021070242, 0.010319000110030174, 