{"layer_index": 3, "sample_index": 0, "token_index": 0, "num_heads": 8, "head_dim": 32, "rope": true, "rope_note": "Q,K are AFTER RoPE if enabled", "formula": ["Q = LN(x)·WQ, K = LN(x)·WK, V = LN(x)·WV", "scores_raw = (QK^T)/√d", "scores_masked = scores_raw + masks", "weights_softmax = softmax(scores_masked)", "weights_after_dropout = dropout(weights_softmax)", "context_h(t) = Σ_j weights_after_dropout[j] · V[j]", "Concat = [context_h]_h ; AttnOut = Concat · W_O^T"], "merge": {"concat_vector": [0.019632114097476006, 0.1828250139951706, 0.020475901663303375, -0.030551917850971222, -0.05155961588025093, -0.10342606902122498, 0.035483427345752716, -0.039499178528785706, 0.2304697334766388, 0.1371763050556183, 0.10829117149114609, 0.29917848110198975, 0.14753785729408264, 0.1306646317243576, -0.11697181314229965, 0.24436922371387482, 0.14828135073184967, -0.1058158129453659, -0.155283123254776, 0.0397808700799942, 0.08892764896154404, -0.12794221937656403, -0.2482038289308548, 0.08111145347356796, -0.28883156180381775, -0.17553609609603882, 0.16758140921592712, 0.03252047672867775, -0.1377294808626175, -0.11745605617761612, 0.022229403257369995, -0.12312192469835281, -0.09772975742816925, 0.05849996209144592, 0.07484234869480133, 0.10734227299690247, -0.10427065193653107, 0.05149748921394348, 0.0205373615026474, -0.2591160237789154, -0.09977078437805176, 0.015039585530757904, -0.19761739671230316, -0.050193723291158676, 0.10877259820699692, 0.0954565554857254, -0.002914054784923792, 0.06994321197271347, 0.13439427316188812, -0.04758049175143242, -0.033997949212789536, 0.07407397031784058, 0.200267031788826, -0.21225662529468536, -0.07201839238405228, -0.16809308528900146, 0.12915489077568054, 0.08411990851163864, -0.05866318568587303, 0.2227514088153839, -0.08595395088195801, -0.07666140049695969, 0.07791339606046677, 0.10141704976558685, 0.033706847578287125, 0.43953725695610046, -0.17036892473697662, 0.1229725182056427, -0.06107700988650322, -0.1669994592666626, 0.010927901603281498, 0.04494834691286087, 0.19014975428581238, 0.19938001036643982, 0.16955697536468506, -0.025576487183570862, 0.07748357206583023, -0.008282306604087353, -0.062394335865974426, 0.04329974576830864, -0.1610005497932434, -0.2672971189022064, 0.12915731966495514, -0.15138709545135498, 0.012552410364151001, 0.0772700309753418, 0.07980873435735703, 0.07688108086585999, -0.12329790741205215, -0.17498543858528137, -0.05004526302218437, 0.0698351338505745, 0.1744915097951889, -0.02607412077486515, 0.007056021131575108, -0.12251550704240799, 0.1781020611524582, -0.12185592204332352, -0.06532689929008484, -0.2573871612548828, 0.07101275771856308, -0.03826208412647247, 0.2750929296016693, 0.2810632288455963, -0.026538990437984467, 0.193654865026474, 0.20375904440879822, -0.0074303532019257545, 0.04189343750476837, -0.020940212532877922, 0.1346309632062912, 0.22431707382202148, -0.04641399905085564, 0.17186103761196136, -0.014660082757472992, 0.09821636229753494, -0.018900522962212563, -0.1740093231201172, -0.17904245853424072, 0.11521788686513901, -0.012734504416584969, 0.2022211253643036, 0.1282336711883545, 0.2718106806278229, -0.08696331083774567, 0.21305407583713531, 0.014615015126764774, 0.00999194011092186, 0.11916381120681763, 0.08211344480514526, 0.2428417056798935, -0.10930802673101425, 0.000971376255620271, 0.18540579080581665, -0.060953814536333084, 0.1208479180932045, -0.04912438616156578, -0.008680872619152069, 0.29368576407432556, -0.12254851311445236, -0.06679484993219376, -0.009728987701237202, -0.06652989238500595, -0.08449956774711609, 0.15182191133499146, -0.059749748557806015, -0.0870233103632927, -0.22650471329689026, 0.043162401765584946, 0.07331764698028564, -0.08601469546556473, 0.1935543417930603, -0.17966672778129578, 0.20829927921295166, -0.12897105515003204, 0.09281502664089203, 0.1512848436832428, -0.022293424233794212, 0.04880598559975624, 0.2915314733982086, 0.09728562086820602, 0.15128584206104279, -0.06479880213737488, -0.24795401096343994, 0.011923855170607567, 0.01963324099779129, -0.037551093846559525, 0.09057826548814774, -0.08723989129066467, 0.10611207038164139, -0.1624791920185089, -0.035546209663152695, 0.01504507102072239, -0.14464467763900757, -0.15870548784732819, -0.1929604709148407, 0.041215453296899796, -0.0577571876347065, 0.010523414239287376, 0.1763514280319214, -0.11105933785438538, -0.06146065518260002, 0.1575399935245514, -0.014237712137401104, 0.027764419093728065, 0.029116405174136162, 0.03151226043701172, 0.03393464535474777, 0.12447445839643478, -0.17346592247486115, 0.08520907908678055, 0.370754212141037, 0.20941957831382751, 0.3814580738544464, -0.05433592572808266, 0.07746514678001404, 0.029711071401834488, -0.01016036607325077, -0.05064169317483902, -0.11570218950510025, 0.13168829679489136, -0.09905428439378738, 0.040309879928827286, -0.016848206520080566, 0.2092750370502472, 0.10561969131231308, 0.20406386256217957, -0.051394958049058914, -0.15078601241111755, -0.06304085999727249, 0.12325146794319153, -0.20138593018054962, -0.19384291768074036, -0.10073743015527725, -0.07506672292947769, -0.021131614223122597, -0.054456453770399094, -0.023530831560492516, 0.003970777615904808, -0.036042094230651855, -0.04798434302210808, -0.06501095741987228, -0.08840170502662659, 0.0784105509519577, 0.12011252343654633, 0.06828799098730087, 0.030628828331828117, 0.050858788192272186, -0.16906552016735077, 0.008362721651792526, -0.13375824689865112, -0.20492558181285858, 0.001499781385064125, 0.08442412316799164, 0.22596444189548492, -0.052912868559360504, 0.14812250435352325, -0.04460424557328224, -0.05413477122783661, 0.06639239192008972, -0.05698106437921524, 0.05810769647359848, 0.22565871477127075, 0.014033750630915165, -0.07587433606386185, -0.06988612562417984, 0.2412508875131607, -0.0882624089717865, -0.19597041606903076, -0.010211963206529617, 0.23097723722457886, 0.015053330920636654, -0.06695210188627243, 0.04035074636340141, -0.30731138586997986, -0.042672716081142426], "wo_output": [-0.006025824695825577, -0.034439075738191605, 0.2173287719488144, -0.008120261132717133, -0.0004934053868055344, 0.042276106774806976, -0.04052910953760147, -0.06542612612247467, 0.15917626023292542, -0.00419994629919529, 0.037116020917892456, -0.03435875102877617, -0.01965104229748249, -0.12169082462787628, -0.054590798914432526, -0.009411613456904888, 0.0805778056383133, -0.07619835436344147, 0.14749974012374878, 0.06903164088726044, 0.04746149852871895, 0.007507143542170525, -0.02862250804901123, 0.07524022459983826, 0.11517333984375, -0.0069716572761535645, 0.00013560056686401367, -0.04544597119092941, -0.0056694671511650085, 0.2265373170375824, 0.10303983092308044, 0.03333674371242523, 0.06968724727630615, -0.044044848531484604, -0.0541820302605629, 0.04367124289274216, 0.11286409199237823, 0.007143145427107811, 0.01925765909254551, -0.04819866642355919, -0.15542477369308472, 0.009101241827011108, 0.0001468714326620102, -0.1176130473613739, 0.06466265767812729, -0.0011218450963497162, -0.04645395278930664, -0.04605240747332573, -0.07477393746376038, 0.10522294044494629, 0.13422980904579163, 0.022638779133558273, 0.05584106594324112, -0.15087662637233734, 0.0818452462553978, 0.03727123141288757, -0.013318439945578575, -0.02553393691778183, 0.11823418736457825, 0.0701112374663353, 0.016496751457452774, 0.20970718562602997, 0.03663158416748047, 0.020989995449781418, -0.1074422150850296, 0.03651264309883118, 0.007400348782539368, -0.10198109596967697, 0.039812121540308, 0.024325482547283173, -0.14200882613658905, 0.07067813724279404, 0.19773264229297638, -0.057781003415584564, 0.16176322102546692, 0.06192212551832199, 0.005431663244962692, 0.11692003160715103, -0.022778278216719627, -0.054560042917728424, -0.009803209453821182, 0.004168801009654999, -0.058187421411275864, -0.08391077816486359, -0.096060611307621, -0.04641981050372124, 0.0448697954416275, 0.06092097610235214, -0.07300330698490143, -0.028581783175468445, 0.052732475101947784, -0.0575224906206131, 0.00702228769659996, -0.10361813008785248, 0.0574071928858757, 0.10689324140548706, -0.09562376141548157, -0.008228086866438389, -0.12266341596841812, -0.04629936069250107, -0.07435905933380127, -0.006865035742521286, -0.09848715364933014, -0.016837798058986664, -0.09912979602813721, -0.133059561252594, 0.014938464388251305, -0.10419142991304398, 0.09070321172475815, 0.01145581528544426, 0.0803992822766304, 0.10733260214328766, -0.04509543627500534, 0.051252443343400955, -0.04540962725877762, 0.14781172573566437, 0.06684457510709763, 0.07795452326536179, -0.07238402962684631, -0.009022234007716179, 0.02931976318359375, -0.08893601596355438, -0.04335692524909973, 0.04977136105298996, 0.07112735509872437, 0.09253187477588654, -0.055718980729579926, -0.08203496783971786, -0.02646896243095398, 0.024461369961500168, 0.041951119899749756, 0.01247999258339405, 0.09118805825710297, 0.02513662725687027, 0.06709891557693481, 0.007417201995849609, 0.04431780427694321, -0.038850873708724976, -0.055797189474105835, -0.07366733998060226, 0.0005993098020553589, 0.0690658837556839, -0.19949473440647125, 0.11820683628320694, 0.03624412789940834, -0.08465459197759628, 0.06925464421510696, -0.03593745827674866, -0.13140156865119934, -0.014284633100032806, -0.09876690804958344, -0.032818205654621124, -0.13665428757667542, 0.11923281848430634, 0.039322175085544586, 0.005725305527448654, 0.07097944617271423, -0.014928257092833519, 0.10911279171705246, -0.13721993565559387, -0.05818326771259308, 0.0007166489958763123, -0.11277509480714798, 0.07637722790241241, 0.04025484621524811, 0.020264871418476105, -0.014202602207660675, -0.07057196646928787, 0.09481728076934814, -0.1415897011756897, 0.09142559766769409, -0.16508963704109192, 0.011514725163578987, 0.009949781000614166, -0.08042595535516739, 0.08811616897583008, -0.10197597742080688, 0.07419560849666595, 0.06858997046947479, 0.05559825152158737, 0.08744153380393982, -0.0735262930393219, -0.029647186398506165, -0.1339547336101532, -0.06586342304944992, -0.046957194805145264, 0.01186989527195692, 0.04474785923957825, 0.11748561263084412, -0.08743330836296082, -0.0852179229259491, -0.16387832164764404, -0.03260958939790726, -0.0010162107646465302, 0.015682270750403404, 0.009172629565000534, 0.013196425512433052, -0.12960655987262726, -0.08201955258846283, 0.02942962944507599, 0.19354598224163055, -0.04257265478372574, -0.007358291186392307, -0.00948624312877655, -0.03451390564441681, -0.07419857382774353, -0.015324138104915619, -0.08736293017864227, -0.030203362926840782, -0.03156809136271477, -0.025907065719366074, -0.14712956547737122, 0.07803012430667877, -0.12292686104774475, 0.05903226509690285, 0.06839616596698761, 0.08122376352548599, 0.16703768074512482, -0.006679166108369827, -0.21430400013923645, -0.05243273824453354, 0.1663309782743454, -0.030781889334321022, 0.07214449346065521, -0.04421514272689819, 0.02594529092311859, 0.011879686266183853, -0.03233644366264343, 0.05486304312944412, -0.17642970383167267, 0.15564735233783722, 0.09588988125324249, -0.057761386036872864, 0.011202078312635422, 0.06318031251430511, 0.04635009914636612, 0.05256050080060959, -0.02283802628517151, 0.026332149282097816, -0.03397563099861145, 0.022948013618588448, -0.0004137493669986725, 0.02691704034805298, 0.07325185835361481, -0.05531947314739227, 0.1099620833992958, -0.023280590772628784, 0.20346373319625854, -0.052810296416282654, -0.0760868489742279, 0.0350332073867321, 0.14833979308605194, -0.06552860885858536, 0.007823191583156586, 0.06327487528324127, 0.08323734998703003]}, "heads": [{"head": 0, "head_dim": 32, "trace": [{"stage_idx": 0, "stage": "q_after_proj_rope", "q": [-0.34255701303482056, 0.9304699897766113, -0.3768329918384552, 0.7490419745445251, 0.5056769847869873, -0.5138949751853943, -0.08283399790525436, -0.25722798705101013, -0.3696550130844116, -0.30915600061416626, 0.05966300144791603, -1.1020660400390625, 0.241224005818367, 0.8741459846496582, 0.4543429911136627, 0.47902199625968933, 0.3946860134601593, -1.0315810441970825, -0.346343994140625, -0.7105910181999207, -0.03886200115084648, -1.0861300230026245, -0.6821269989013672, 0.15502800047397614, -0.7586309909820557, -0.24177199602127075, -0.11964400112628937, 0.782597005367279, 0.9894999861717224, 0.1777310073375702, -0.0031530000269412994, 0.5530480146408081]}, {"stage_idx": 1, "stage": "scores_raw", "scores": [-0.10510200262069702, -0.30632200837135315, 1.0242799520492554, 0.42916399240493774, -0.04262800142168999, -0.11086700111627579, -0.5116609930992126, -0.4541049897670746, -0.3044539988040924, -0.22785800695419312, 0.25943198800086975, -0.06537699699401855, -0.4266740083694458, -0.9413840174674988, -0.11455900222063065, -0.4005120098590851, -0.09624800086021423, -0.5185149908065796, -0.4541049897670746, 0.1767829954624176, -0.4311330020427704, 1.0242799520492554, -0.08881200104951859, -0.2616870105266571, 0.11740899831056595, -0.3242259919643402, -0.23876899480819702, -0.803367018699646, -0.09624800086021423, 0.47569799423217773, 0.39718499779701233, 0.3393299877643585, -0.3242259919643402, -0.3748840093612671, 0.026833999902009964, 0.5622450113296509, 0.3755050003528595, 1.0452450513839722, -0.01876099966466427, 0.6708239912986755, 0.18437300622463226, -0.4196859896183014, -0.04033900052309036, 0.4989190101623535, 1.0242799520492554, 0.5572649836540222, 0.37484899163246155, 0.18437300622463226, 0.3398360013961792, -0.6594700217247009, 0.3566649854183197, 0.36528798937797546, -0.21993699669837952, -0.614791989326477, -0.10874500125646591, -0.37278100848197937, 1.0242799520492554, -0.047933001071214676, -0.047933001071214676, 0.4771920144557953, -0.7756869792938232, -0.031929001212120056, -0.266074001789093, 0.21108800172805786, 0.10194499790668488, -0.19533100724220276, 1.0242799520492554, -0.007797999773174524, 0.10194499790668488, -0.7041850090026855, -0.10874500125646591, 0.18437300622463226, 0.336340993642807, -0.22001999616622925, -0.5055450201034546, -0.12195400148630142, -0.4541049897670746, 0.18437300622463226, -0.07467100024223328, 0.02368899993598461, 0.5755040049552917, -0.4541049897670746, -0.09624800086021423, -0.08698700368404388, 0.08906599879264832, 0.1596599966287613, 0.0867369994521141, 0.6198239922523499, 1.0242799520492554, 0.25389400124549866, -0.031929001212120056, -0.3242259919643402, 0.18510299921035767, 0.3049069941043854, 0.10194499790668488, -0.2587929964065552, -0.48564401268959045, 0.45473799109458923, 0.16394799947738647, -0.06797699630260468, -0.0649000033736229, 0.12518399953842163, 0.2944119870662689, 0.3164699971675873, -0.06651700288057327, -0.25719699263572693, 0.2928610146045685, 0.22497299313545227, -0.2587929964065552, 0.7611889839172363, -0.04106200113892555, 0.5738369822502136, 0.24414800107479095, 0.029068000614643097, -0.1453859955072403, -0.08782199770212173, -0.007797999773174524, -0.3242259919643402, 0.3566649854183197, -0.077333003282547, -0.10874500125646591, 0.18437300622463226, -0.031929001212120056, -0.3242259919643402, 0.2415969967842102, 0.27877798676490784, -0.2104170024394989, 1.0242799520492554]}, {"stage_idx": 2, "stage": "scores_masked", "scores": [-0.10510200262069702, -0.30632200837135315, 1.0242799520492554, 0.42916399240493774, -0.04262800142168999, -0.11086700111627579, -0.5116609930992126, -0.4541049897670746, -0.3044539988040924, -0.22785800695419312, 0.25943198800086975, -0.06537699699401855, -0.4266740083694458, -0.9413840174674988, -0.11455900222063065, -0.4005120098590851, -0.09624800086021423, -0.5185149908065796, -0.4541049897670746, 0.1767829954624176, -0.4311330020427704, 1.0242799520492554, -0.08881200104951859, -0.2616870105266571, 0.11740899831056595, -0.3242259919643402, -0.23876899480819702, -0.803367018699646, -0.09624800086021423, 0.47569799423217773, 0.39718499779701233, 0.3393299877643585, -0.3242259919643402, -0.3748840093612671, 0.026833999902009964, 0.5622450113296509, 0.3755050003528595, 1.0452450513839722, -0.01876099966466427, 0.6708239912986755, 0.18437300622463226, -0.4196859896183014, -0.04033900052309036, 0.4989190101623535, 1.0242799520492554, 0.5572649836540222, 0.37484899163246155, 0.18437300622463226, 0.3398360013961792, -0.6594700217247009, 0.3566649854183197, 0.36528798937797546, -0.21993699669837952, -0.614791989326477, -0.10874500125646591, -0.37278100848197937, 1.0242799520492554, -0.047933001071214676, -0.047933001071214676, 0.4771920144557953, -0.7756869792938232, -0.031929001212120056, -0.266074001789093, 0.21108800172805786, 0.10194499790668488, -0.19533100724220276, 1.0242799520492554, -0.007797999773174524, 0.10194499790668488, -0.7041850090026855, -0.10874500125646591, 0.18437300622463226, 0.336340993642807, -0.22001999616622925, -0.5055450201034546, -0.12195400148630142, -0.4541049897670746, 0.18437300622463226, -0.07467100024223328, 0.02368899993598461, 0.5755040049552917, -0.4541049897670746, -0.09624800086021423, -0.08698700368404388, 0.08906599879264832, 0.1596599966287613, 0.0867369994521141, 0.6198239922523499, 1.0242799520492554, 0.25389400124549866, -0.031929001212120056, -0.3242259919643402, 0.18510299921035767, 0.3049069941043854, 0.10194499790668488, -0.2587929964065552, -0.48564401268959045, 0.45473799109458923, 0.16394799947738647, -0.06797699630260468, -0.0649000033736229, 0.12518399953842163, 0.2944119870662689, 0.3164699971675873, -0.06651700288057327, -0.25719699263572693, 0.2928610146045685, 0.22497299313545227, -0.2587929964065552, 0.7611889839172363, -0.04106200113892555, 0.5738369822502136, 0.24414800107479095, 0.029068000614643097, -0.1453859955072403, -0.08782199770212173, -0.007797999773174524, -0.3242259919643402, 0.3566649854183197, -0.077333003282547, -0.10874500125646591, 0.18437300622463226, -0.031929001212120056, -0.3242259919643402, 0.2415969967842102, 0.27877798676490784, -0.2104170024394989, 1.0242799520492554]}, {"stage_idx": 3, "stage": "weights_softmax", "weights": [0.006140000186860561, 0.005020999815315008, 0.018995000049471855, 0.010475999675691128, 0.006535999942570925, 0.006105000153183937, 0.004089000169187784, 0.0043310001492500305, 0.005030000116676092, 0.005431000143289566, 0.008840000256896019, 0.006388999987393618, 0.00445100013166666, 0.00266100000590086, 0.006082000210881233, 0.004569000098854303, 0.006194000132381916, 0.00406099995598197, 0.0043310001492500305, 0.00813900027424097, 0.00443200021982193, 0.018995000049471855, 0.0062409997917711735, 0.005249999929219484, 0.007670000195503235, 0.004931999836117029, 0.005371999926865101, 0.0030539999715983868, 0.006194000132381916, 0.010975000448524952, 0.010146000422537327, 0.009576000273227692, 0.004931999836117029, 0.004687999840825796, 0.00700599979609251, 0.011966999620199203, 0.009929000400006771, 0.019398000091314316, 0.006694000214338303, 0.013340000063180923, 0.008201000280678272, 0.004482999909669161, 0.006550999823957682, 0.011233000084757805, 0.018995000049471855, 0.011908000335097313, 0.009921999648213387, 0.008201000280678272, 0.009580999612808228, 0.003527000080794096, 0.009743000380694866, 0.009828000329434872, 0.00547399977222085, 0.0036879999097436666, 0.006118000019341707, 0.00469799991697073, 0.018995000049471855, 0.0065009999088943005, 0.0065009999088943005, 0.010990999639034271, 0.0031399999279528856, 0.006606000009924173, 0.0052269999869167805, 0.008422999642789364, 0.007552000228315592, 0.005609999876469374, 0.018995000049471855, 0.006767000071704388, 0.007552000228315592, 0.0033730000723153353, 0.006118000019341707, 0.008201000280678272, 0.00954699981957674, 0.005472999997437, 0.004114000126719475, 0.006037000101059675, 0.0043310001492500305, 0.008201000280678272, 0.0063299997709691525, 0.006984000094234943, 0.012126999907195568, 0.0043310001492500305, 0.006194000132381916, 0.006252000108361244, 0.007455999962985516, 0.008000999689102173, 0.007437999825924635, 0.012675999663770199, 0.018995000049471855, 0.008791999891400337, 0.006606000009924173, 0.004931999836117029, 0.008206999860703945, 0.009251999668776989, 0.007552000228315592, 0.005264999810606241, 0.0041970000602304935, 0.010746999643743038, 0.008035000413656235, 0.006372000090777874, 0.006391999777406454, 0.00773000018671155, 0.009154999628663063, 0.009359000250697136, 0.006380999926477671, 0.005274000111967325, 0.009140999987721443, 0.008541000075638294, 0.005264999810606241, 0.014600999653339386, 0.0065460000187158585, 0.0121069997549057, 0.008705999702215195, 0.007021000143140554, 0.005896999966353178, 0.006246999837458134, 0.006767000071704388, 0.004931999836117029, 0.009743000380694866, 0.006312999874353409, 0.006118000019341707, 0.008201000280678272, 0.006606000009924173, 0.004931999836117029, 0.008684000000357628, 0.009012999944388866, 0.005526000168174505, 0.018995000049471855], "sum": 1.0}, {"stage_idx": 4, "stage": "weights_after_dropout", "weights": [0.006140000186860561, 0.005020999815315008, 0.018995000049471855, 0.010475999675691128, 0.006535999942570925, 0.006105000153183937, 0.004089000169187784, 0.0043310001492500305, 0.005030000116676092, 0.005431000143289566, 0.008840000256896019, 0.006388999987393618, 0.00445100013166666, 0.00266100000590086, 0.006082000210881233, 0.004569000098854303, 0.006194000132381916, 0.00406099995598197, 0.0043310001492500305, 0.00813900027424097, 0.00443200021982193, 0.018995000049471855, 0.0062409997917711735, 0.005249999929219484, 0.007670000195503235, 0.004931999836117029, 0.005371999926865101, 0.0030539999715983868, 0.006194000132381916, 0.010975000448524952, 0.010146000422537327, 0.009576000273227692, 0.004931999836117029, 0.004687999840825796, 0.00700599979609251, 0.011966999620199203, 0.009929000400006771, 0.019398000091314316, 0.006694000214338303, 0.013340000063180923, 0.008201000280678272, 0.004482999909669161, 0.006550999823957682, 0.011233000084757805, 0.018995000049471855, 0.011908000335097313, 0.009921999648213387, 0.008201000280678272, 0.009580999612808228, 0.003527000080794096, 0.009743000380694866, 0.009828000329434872, 0.00547399977222085, 0.0036879999097436666, 0.006118000019341707, 0.00469799991697073, 0.018995000049471855, 0.0065009999088943005, 0.0065009999088943005, 0.010990999639034271, 0.0031399999279528856, 0.006606000009924173, 0.0052269999869167805, 0.008422999642789364, 0.007552000228315592, 0.005609999876469374, 0.018995000049471855, 0.006767000071704388, 0.007552000228315592, 0.0033730000723153353, 0.006118000019341707, 0.008201000280678272, 0.00954699981957674, 0.005472999997437, 0.004114000126719475, 0.006037000101059675, 0.0043310001492500305, 0.008201000280678272, 0.0063299997709691525, 0.006984000094234943, 0.012126999907195568, 0.0043310001492500305, 0.006194000132381916, 0.006252000108361244, 0.007455999962985516, 0.008000999689102173, 0.007437999825924635, 0.012675999663770199, 0.018995000049471855, 0.008791999891400337, 0.006606000009924173, 0.004931999836117029, 0.008206999860703945, 0.009251999668776989, 0.007552000228315592, 0.005264999810606241, 0.0041970000602304935, 0.010746999643743038, 0.008035000413656235, 0.006372000090777874, 0.006391999777406454, 0.00773000018671155, 0.009154999628663063, 0.009359000250697136, 0.006380999926477671, 0.005274000111967325, 0.009140999987721443, 0.008541000075638294, 0.005264999810606241, 0.014600999653339386, 0.0065460000187158585, 0.0121069997549057, 0.008705999702215195, 0.007021000143140554, 0.005896999966353178, 0.006246999837458134, 0.006767000071704388, 0.004931999836117029, 0.009743000380694866, 0.006312999874353409, 0.006118000019341707, 0.008201000280678272, 0.006606000009924173, 0.004931999836117029, 0.008684000000357628, 0.009012999944388866, 0.005526000168174505, 0.018995000049471855], "sum": 1.0, "dropout_applied": false}, {"stage_idx": 5, "stage": "topk_after_dropout", "k": 5, "topk": [{"pos": 37, "score_masked": 1.0452454090118408, "weight": 0.019397642463445663, "k": [-0.6152529716491699, 0.3024980127811432, -0.6124719977378845, 0.4079880118370056, 0.9962069988250732, -0.05952699854969978, 0.7335820198059082, -0.43689700961112976, -0.8335279822349548, -0.14843499660491943, -0.05269100144505501, -1.7326250076293945, 0.44280898571014404, 0.058336999267339706, -1.1302800178527832, 0.4930259883403778, -0.038082998245954514, -0.4885079860687256, 0.43957701325416565, -1.226436972618103, 0.6119049787521362, -0.447517991065979, -0.3219299912452698, 0.6026359796524048, -0.3182539939880371, 0.8763960003852844, 0.17392300069332123, 0.14858299493789673, -0.32762399315834045, 1.3699820041656494, 0.5842840075492859, 0.23775699734687805], "v": [0.17876599729061127, -1.311061978340149, 0.3818089962005615, -0.7073299884796143, 0.5687209963798523, 0.21987700462341309, 0.04364199936389923, -0.2673240005970001, -0.6941570043563843, 0.8840799927711487, -1.1003060340881348, 0.06563200056552887, 0.32326599955558777, -0.07089699804782867, 1.0279730558395386, 0.026450999081134796, 0.8653810024261475, 0.7495539784431458, 1.5151309967041016, -0.43546000123023987, -0.03534099832177162, -0.16896900534629822, -0.7964299917221069, -0.04247799888253212, -0.7132279872894287, -0.14854000508785248, -0.4041129946708679, -0.7292249798774719, -0.8986899852752686, 0.051003001630306244, 0.09791100025177002, 0.7771409749984741]}, {"pos": 66, "score_masked": 1.0242799520492554, "weight": 0.018995195627212524, "k": [-0.014557000249624252, 0.7946149706840515, -0.2705329954624176, -0.5758140087127686, 0.5001580119132996, -0.2654469907283783, 1.5089850425720215, 0.7474930286407471, 0.3049199879169464, -0.1796489953994751, 0.49573400616645813, -0.6745529770851135, -0.26691699028015137, 0.4232800006866455, -0.3012009859085083, 0.07363999634981155, 0.20807400345802307, -0.8276649713516235, -0.04110400006175041, -0.021702999249100685, 0.33046698570251465, -1.0619900226593018, -1.1875170469284058, -0.6129459738731384, -0.20597299933433533, 0.05053099989891052, -1.4820539951324463, 1.1931209564208984, 0.5214980244636536, 0.485709011554718, -0.6556370258331299, -0.5305500030517578], "v": [0.8726819753646851, 0.299796998500824, 0.3370639979839325, -0.7386919856071472, -0.5403079986572266, -0.2110610008239746, -0.12210000306367874, -0.49246498942375183, 0.6207249760627747, 0.41651999950408936, 0.3152340054512024, 1.1143039464950562, 0.16055600345134735, 0.4093729853630066, -0.22583499550819397, 1.0595320463180542, 0.3683300018310547, 0.17226600646972656, -0.9525189995765686, 0.6088730096817017, -0.2782900035381317, -0.37698501348495483, -0.3325729966163635, 0.5861709713935852, -1.308482050895691, 0.0800589993596077, 1.1562329530715942, 0.6689890027046204, 0.07126100361347198, -0.7349460124969482, 0.34129598736763, -0.2128860056400299]}, {"pos": 21, "score_masked": 1.0242799520492554, "weight": 0.018995195627212524, "k": [-0.014557000249624252, 0.7946149706840515, -0.2705329954624176, -0.5758140087127686, 0.5001580119132996, -0.2654469907283783, 1.5089850425720215, 0.7474930286407471, 0.3049199879169464, -0.1796489953994751, 0.49573400616645813, -0.6745529770851135, -0.26691699028015137, 0.4232800006866455, -0.3012009859085083, 0.07363999634981155, 0.20807400345802307, -0.8276649713516235, -0.04110400006175041, -0.021702999249100685, 0.33046698570251465, -1.0619900226593018, -1.1875170469284058, -0.6129459738731384, -0.20597299933433533, 0.05053099989891052, -1.4820539951324463, 1.1931209564208984, 0.5214980244636536, 0.485709011554718, -0.6556370258331299, -0.5305500030517578], "v": [0.8726819753646851, 0.299796998500824, 0.3370639979839325, -0.7386919856071472, -0.5403079986572266, -0.2110610008239746, -0.12210000306367874, -0.49246498942375183, 0.6207249760627747, 0.41651999950408936, 0.3152340054512024, 1.1143039464950562, 0.16055600345134735, 0.4093729853630066, -0.22583499550819397, 1.0595320463180542, 0.3683300018310547, 0.17226600646972656, -0.9525189995765686, 0.6088730096817017, -0.2782900035381317, -0.37698501348495483, -0.3325729966163635, 0.5861709713935852, -1.308482050895691, 0.0800589993596077, 1.1562329530715942, 0.6689890027046204, 0.07126100361347198, -0.7349460124969482, 0.34129598736763, -0.2128860056400299]}, {"pos": 88, "score_masked": 1.0242799520492554, "weight": 0.018995195627212524, "k": [-0.014557000249624252, 0.7946149706840515, -0.2705329954624176, -0.5758140087127686, 0.5001580119132996, -0.2654469907283783, 1.5089850425720215, 0.7474930286407471, 0.3049199879169464, -0.1796489953994751, 0.49573400616645813, -0.6745529770851135, -0.26691699028015137, 0.4232800006866455, -0.3012009859085083, 0.07363999634981155, 0.20807400345802307, -0.8276649713516235, -0.04110400006175041, -0.021702999249100685, 0.33046698570251465, -1.0619900226593018, -1.1875170469284058, -0.6129459738731384, -0.20597299933433533, 0.05053099989891052, -1.4820539951324463, 1.1931209564208984, 0.5214980244636536, 0.485709011554718, -0.6556370258331299, -0.5305500030517578], "v": [0.8726819753646851, 0.299796998500824, 0.3370639979839325, -0.7386919856071472, -0.5403079986572266, -0.2110610008239746, -0.12210000306367874, -0.49246498942375183, 0.6207249760627747, 0.41651999950408936, 0.3152340054512024, 1.1143039464950562, 0.16055600345134735, 0.4093729853630066, -0.22583499550819397, 1.0595320463180542, 0.3683300018310547, 0.17226600646972656, -0.9525189995765686, 0.6088730096817017, -0.2782900035381317, -0.37698501348495483, -0.3325729966163635, 0.5861709713935852, -1.308482050895691, 0.0800589993596077, 1.1562329530715942, 0.6689890027046204, 0.07126100361347198, -0.7349460124969482, 0.34129598736763, -0.2128860056400299]}, {"pos": 127, "score_masked": 1.0242799520492554, "weight": 0.018995195627212524, "k": [-0.014557000249624252, 0.7946149706840515, -0.2705329954624176, -0.5758140087127686, 0.5001580119132996, -0.2654469907283783, 1.5089850425720215, 0.7474930286407471, 0.3049199879169464, -0.1796489953994751, 0.49573400616645813, -0.6745529770851135, -0.26691699028015137, 0.4232800006866455, -0.3012009859085083, 0.07363999634981155, 0.20807400345802307, -0.8276649713516235, -0.04110400006175041, -0.021702999249100685, 0.33046698570251465, -1.0619900226593018, -1.1875170469284058, -0.6129459738731384, -0.20597299933433533, 0.05053099989891052, -1.4820539951324463, 1.1931209564208984, 0.5214980244636536, 0.485709011554718, -0.6556370258331299, -0.5305500030517578], "v": [0.8726819753646851, 0.299796998500824, 0.3370639979839325, -0.7386919856071472, -0.5403079986572266, -0.2110610008239746, -0.12210000306367874, -0.49246498942375183, 0.6207249760627747, 0.41651999950408936, 0.3152340054512024, 1.1143039464950562, 0.16055600345134735, 0.4093729853630066, -0.22583499550819397, 1.0595320463180542, 0.3683300018310547, 0.17226600646972656, -0.9525189995765686, 0.6088730096817017, -0.2782900035381317, -0.37698501348495483, -0.3325729966163635, 0.5861709713935852, -1.308482050895691, 0.0800589993596077, 1.1562329530715942, 0.6689890027046204, 0.07126100361347198, -0.7349460124969482, 0.34129598736763, -0.2128860056400299]}]}, {"stage_idx": 6, "stage": "context_head", "context": [0.019632000476121902, 0.1828249990940094, 0.020476000383496284, -0.030551999807357788, -0.05155999958515167, -0.1034260019659996, 0.03548299893736839, -0.03949899971485138, 0.23047000169754028, 0.1371760070323944, 0.10829100012779236, 0.29917800426483154, 0.14753800630569458, 0.13066500425338745, -0.11697199940681458, 0.2443690001964569, 0.14828099310398102, -0.10581599920988083, -0.15528300404548645, 0.03978100046515465, 0.08892799913883209, -0.12794199585914612, -0.24820399284362793, 0.08111099898815155, -0.28883200883865356, -0.17553600668907166, 0.1675810068845749, 0.032519999891519547, -0.1377290040254593, -0.11745599657297134, 0.02222900092601776, -0.12312199920415878]}]}, {"head": 1, "head_dim": 32, "trace": [{"stage_idx": 0, "stage": "q_after_proj_rope", "q": [0.8264849781990051, -0.44721001386642456, -0.49059799313545227, -0.028603000566363335, -0.5903480052947998, 1.0850549936294556, 0.37185901403427124, 0.29995301365852356, -0.1060279980301857, -0.6771600246429443, 0.7857810258865356, 0.2891469895839691, 0.8276020288467407, 0.2841930091381073, -1.6157310009002686, -0.40314000844955444, -0.9003159999847412, 0.15152400732040405, -0.6901190280914307, -1.6628309488296509, -0.305745005607605, 0.8082169890403748, 0.7210000157356262, -0.49743199348449707, 0.6649630069732666, -0.7975850105285645, 0.023351000621914864, -0.053355999290943146, 0.30687999725341797, 0.2309039980173111, -0.3118549883365631, -0.58610999584198]}, {"stage_idx": 1, "stage": "scores_raw", "scores": [-0.730288028717041, -0.10751800239086151, -0.327567994594574, -0.355677992105484, 0.4522860050201416, -0.033539000898599625, -0.08454500138759613, 0.27396899461746216, -0.29926401376724243, 0.4881240129470825, -0.3916279971599579, -0.6157299876213074, -0.06463699787855148, 0.3452740013599396, 0.6334549784660339, -0.2007880061864853, -0.03344999998807907, -0.07569800317287445, 0.27396899461746216, -0.17563599348068237, -0.2199539989233017, -0.327567994594574, 0.2938779890537262, 0.6373860239982605, -0.6540970206260681, 0.04889899864792824, 0.2861019968986511, 0.5035480260848999, -0.03344999998807907, 0.3095740079879761, 0.7551800012588501, 0.2454109936952591, 0.04889899864792824, 0.4639759957790375, 0.6645510196685791, 0.1032550036907196, -0.2673879861831665, 0.30215901136398315, -0.15802399814128876, -0.05136699974536896, 0.2942659854888916, 0.20674100518226624, -0.5810840129852295, -0.6144899725914001, -0.327567994594574, -0.5072969794273376, -0.5988379716873169, 0.2942659854888916, 0.18453800678253174, -0.4445050060749054, -0.31129300594329834, 0.33710798621177673, 0.5338749885559082, 0.25902101397514343, 0.5007280111312866, -0.06671500205993652, -0.327567994594574, 0.6207659840583801, 0.6207659840583801, 0.2045069932937622, -0.36252498626708984, 0.6042690277099609, 0.06488599628210068, -0.20596900582313538, -0.17064599692821503, 0.4668999910354614, -0.327567994594574, 0.43451398611068726, -0.17064599692821503, 0.15897700190544128, 0.5007280111312866, 0.2942659854888916, -0.4959050118923187, -0.23061299324035645, 0.05375500023365021, 0.03244499862194061, 0.27396899461746216, 0.2942659854888916, 0.38243600726127625, 0.393204003572464, 0.27377599477767944, 0.27396899461746216, -0.03344999998807907, -0.21205799281597137, -0.2657729983329773, 0.08070100098848343, -0.141634002327919, -0.39993900060653687, -0.327567994594574, -0.43792301416397095, 0.6042690277099609, 0.04889899864792824, 0.031307999044656754, -0.777239978313446, -0.17064599692821503, 0.035092998296022415, 1.185878038406372, -0.37422001361846924, -0.14966699481010437, -0.11293700337409973, -0.07823500037193298, 0.19170600175857544, 0.004892999771982431, -1.0305099487304688, 0.021399000659585, -0.22068500518798828, -0.2939240038394928, 0.806538999080658, 0.035092998296022415, -0.6191660165786743, -0.554082989692688, 0.522894024848938, 0.5716109871864319, -0.21086999773979187, 0.2939249873161316, 0.8199779987335205, 0.43451398611068726, 0.04889899864792824, -0.31129300594329834, 0.9249669909477234, 0.5007280111312866, 0.2942659854888916, 0.6042690277099609, 0.04889899864792824, -0.45298299193382263, 0.47987499833106995, -0.10343900322914124, -0.327567994594574]}, {"stage_idx": 2, "stage": "scores_masked", "scores": [-0.730288028717041, -0.10751800239086151, -0.327567994594574, -0.355677992105484, 0.4522860050201416, -0.033539000898599625, -0.08454500138759613, 0.27396899461746216, -0.29926401376724243, 0.4881240129470825, -0.3916279971599579, -0.6157299876213074, -0.06463699787855148, 0.3452740013599396, 0.6334549784660339, -0.2007880061864853, -0.03344999998807907, -0.07569800317287445, 0.27396899461746216, -0.17563599348068237, -0.2199539989233017, -0.327567994594574, 0.2938779890537262, 0.6373860239982605, -0.6540970206260681, 0.04889899864792824, 0.2861019968986511, 0.5035480260848999, -0.03344999998807907, 0.3095740079879761, 0.7551800012588501, 0.2454109936952591, 0.04889899864792824, 0.4639759957790375, 0.6645510196685791, 0.1032550036907196, -0.2673879861831665, 0.30215901136398315, -0.15802399814128876, -0.05136699974536896, 0.2942659854888916, 0.20674100518226624, -0.5810840129852295, -0.6144899725914001, -0.327567994594574, -0.5072969794273376, -0.5988379716873169, 0.2942659854888916, 0.18453800678253174, -0.4445050060749054, -0.31129300594329834, 0.33710798621177673, 0.5338749885559082, 0.25902101397514343, 0.5007280111312866, -0.06671500205993652, -0.327567994594574, 0.6207659840583801, 0.6207659840583801, 0.2045069932937622, -0.36252498626708984, 0.6042690277099609, 0.06488599628210068, -0.20596900582313538, -0.17064599692821503, 0.4668999910354614, -0.327567994594574, 0.43451398611068726, -0.17064599692821503, 0.15897700190544128, 0.5007280111312866, 0.2942659854888916, -0.4959050118923187, -0.23061299324035645, 0.05375500023365021, 0.03244499862194061, 0.27396899461746216, 0.2942659854888916, 0.38243600726127625, 0.393204003572464, 0.27377599477767944, 0.27396899461746216, -0.03344999998807907, -0.21205799281597137, -0.2657729983329773, 0.08070100098848343, -0.141634002327919, -0.39993900060653687, -0.327567994594574, -0.43792301416397095, 0.6042690277099609, 0.04889899864792824, 0.031307999044656754, -0.777239978313446, -0.17064599692821503, 0.035092998296022415, 1.185878038406372, -0.37422001361846924, -0.14966699481010437, -0.11293700337409973, -0.07823500037193298, 0.19170600175857544, 0.004892999771982431, -1.0305099487304688, 0.021399000659585, -0.22068500518798828, -0.2939240038394928, 0.806538999080658, 0.035092998296022415, -0.6191660165786743, -0.554082989692688, 0.522894024848938, 0.5716109871864319, -0.21086999773979187, 0.2939249873161316, 0.8199779987335205, 0.43451398611068726, 0.04889899864792824, -0.31129300594329834, 0.9249669909477234, 0.5007280111312866, 0.2942659854888916, 0.6042690277099609, 0.04889899864792824, -0.45298299193382263, 0.47987499833106995, -0.10343900322914124, -0.327567994594574]}, {"stage_idx": 3, "stage": "weights_softmax", "weights": [0.003315000096336007, 0.006180000025779009, 0.0049589998088777065, 0.004821999929845333, 0.010816999711096287, 0.006655000150203705, 0.0063240001909434795, 0.009050999768078327, 0.0051020001992583275, 0.0112119996920228, 0.004652000032365322, 0.003717999905347824, 0.006450999993830919, 0.009720000438392162, 0.01296599954366684, 0.005630000028759241, 0.006655000150203705, 0.006380000151693821, 0.009050999768078327, 0.005772999953478575, 0.0055229999125003815, 0.0049589998088777065, 0.009232999756932259, 0.013016999699175358, 0.0035780000034719706, 0.007226999849081039, 0.00916100014001131, 0.011385999619960785, 0.006655000150203705, 0.009379000402987003, 0.014643999747931957, 0.00879599992185831, 0.007226999849081039, 0.010944000445306301, 0.013375000096857548, 0.0076299998909235, 0.005266999825835228, 0.009309000335633755, 0.005876000039279461, 0.006537000183016062, 0.009235999546945095, 0.008461999706923962, 0.003848999971523881, 0.0037219999358057976, 0.0049589998088777065, 0.004143999889492989, 0.003780999919399619, 0.009235999546945095, 0.008275999687612057, 0.0044120000675320625, 0.0050409999676048756, 0.009639999829232693, 0.011737000197172165, 0.00891599990427494, 0.011354000307619572, 0.006438000127673149, 0.0049589998088777065, 0.012802000157535076, 0.012802000157535076, 0.008442999795079231, 0.0047889999113976955, 0.012593000195920467, 0.007342999801039696, 0.005601000040769577, 0.005801999941468239, 0.010976999998092651, 0.0049589998088777065, 0.010626999661326408, 0.005801999941468239, 0.008066999725997448, 0.011354000307619572, 0.009235999546945095, 0.004191000014543533, 0.005464000161737204, 0.007261999882757664, 0.007108999881893396, 0.009050999768078327, 0.009235999546945095, 0.010087000206112862, 0.01019699964672327, 0.009049000218510628, 0.009050999768078327, 0.006655000150203705, 0.0055669997818768024, 0.005276000127196312, 0.007459999993443489, 0.005973000079393387, 0.004612999968230724, 0.0049589998088777065, 0.004441000055521727, 0.012593000195920467, 0.007226999849081039, 0.007100999820977449, 0.003163000103086233, 0.005801999941468239, 0.007127000018954277, 0.02252800017595291, 0.004732999950647354, 0.005925000179558992, 0.006147000007331371, 0.006364000029861927, 0.008336000144481659, 0.0069149998016655445, 0.0024560000747442245, 0.007031000219285488, 0.005518999882042408, 0.005129000172019005, 0.015416000038385391, 0.007127000018954277, 0.003705000039190054, 0.00395399983972311, 0.011609000153839588, 0.012187999673187733, 0.005572999827563763, 0.009232999756932259, 0.015623999759554863, 0.010626999661326408, 0.007226999849081039, 0.0050409999676048756, 0.017354000359773636, 0.011354000307619572, 0.009235999546945095, 0.012593000195920467, 0.007226999849081039, 0.0043750000186264515, 0.011119999922811985, 0.0062049999833106995, 0.0049589998088777065], "sum": 0.9999998807907104}, {"stage_idx": 4, "stage": "weights_after_dropout", "weights": [0.003315000096336007, 0.006180000025779009, 0.0049589998088777065, 0.004821999929845333, 0.010816999711096287, 0.006655000150203705, 0.0063240001909434795, 0.009050999768078327, 0.0051020001992583275, 0.0112119996920228, 0.004652000032365322, 0.003717999905347824, 0.006450999993830919, 0.009720000438392162, 0.01296599954366684, 0.005630000028759241, 0.006655000150203705, 0.006380000151693821, 0.009050999768078327, 0.005772999953478575, 0.0055229999125003815, 0.0049589998088777065, 0.009232999756932259, 0.013016999699175358, 0.0035780000034719706, 0.007226999849081039, 0.00916100014001131, 0.011385999619960785, 0.006655000150203705, 0.009379000402987003, 0.014643999747931957, 0.00879599992185831, 0.007226999849081039, 0.010944000445306301, 0.013375000096857548, 0.0076299998909235, 0.005266999825835228, 0.009309000335633755, 0.005876000039279461, 0.006537000183016062, 0.009235999546945095, 0.008461999706923962, 0.003848999971523881, 0.0037219999358057976, 0.0049589998088777065, 0.004143999889492989, 0.003780999919399619, 0.009235999546945095, 0.008275999687612057, 0.0044120000675320625, 0.0050409999676048756, 0.009639999829232693, 0.011737000197172165, 0.00891599990427494, 0.011354000307619572, 0.006438000127673149, 0.0049589998088777065, 0.012802000157535076, 0.012802000157535076, 0.008442999795079231, 0.0047889999113976955, 0.012593000195920467, 0.007342999801039696, 0.005601000040769577, 0.005801999941468239, 0.010976999998092651, 0.0049589998088777065, 0.010626999661326408, 0.005801999941468239, 0.008066999725997448, 0.011354000307619572, 0.009235999546945095, 0.004191000014543533, 0.005464000161737204, 0.007261999882757664, 0.007108999881893396, 0.009050999768078327, 0.009235999546945095, 0.010087000206112862, 0.01019699964672327, 0.009049000218510628, 0.009050999768078327, 0.006655000150203705, 0.0055669997818768024, 0.005276000127196312, 0.007459999993443489, 0.005973000079393387, 0.004612999968230724, 0.0049589998088777065, 0.004441000055521727, 0.012593000195920467, 0.007226999849081039, 0.007100999820977449, 0.003163000103086233, 0.005801999941468239, 0.007127000018954277, 0.02252800017595291, 0.004732999950647354, 0.005925000179558992, 0.006147000007331371, 0.006364000029861927, 0.008336000144481659, 0.0069149998016655445, 0.0024560000747442245, 0.007031000219285488, 0.005518999882042408, 0.005129000172019005, 0.015416000038385391, 0.007127000018954277, 0.003705000039190054, 0.00395399983972311, 0.011609000153839588, 0.012187999673187733, 0.005572999827563763, 0.009232999756932259, 0.015623999759554863, 0.010626999661326408, 0.007226999849081039, 0.0050409999676048756, 0.017354000359773636, 0.011354000307619572, 0.009235999546945095, 0.012593000195920467, 0.007226999849081039, 0.0043750000186264515, 0.011119999922811985, 0.0062049999833106995, 0.0049589998088777065], "sum": 0.9999998807907104, "dropout_applied": false}, {"stage_idx": 5, "stage": "topk_after_dropout", "k": 5, "topk": [{"pos": 96, "score_masked": 1.1858776807785034, "weight": 0.022527530789375305, "k": [-0.2124989926815033, -0.008264999836683273, -0.12075000256299973, 0.47670501470565796, -0.440528005361557, -0.14727899432182312, 0.16314899921417236, 0.8670470118522644, 0.03975300118327141, -0.21657299995422363, 0.9104480147361755, 0.4028330147266388, -0.14555099606513977, -0.19489599764347076, -0.29828399419784546, -0.7309960126876831, -1.3940500020980835, -0.25402000546455383, 0.02894899994134903, -1.2574219703674316, -0.19909900426864624, -0.32396700978279114, 1.2122650146484375, -0.8118690252304077, -0.04424399882555008, 0.18363499641418457, -0.5396389961242676, -1.6386439800262451, -0.0890669971704483, 0.3556729853153229, 0.15237699449062347, -0.9689189791679382], "v": [0.173908993601799, 0.39966800808906555, -0.5076090097427368, -0.20621700584888458, 0.8700159788131714, 0.5311809778213501, 0.6038489937782288, -0.3182629942893982, 0.15199199318885803, -0.6825519800186157, 0.2869029939174652, -0.6425290107727051, 0.24532799422740936, 0.16175299882888794, -0.19053299725055695, 0.9771649837493896, 0.17875699698925018, 0.3105979859828949, -0.47099998593330383, 0.6223559975624084, 0.2020370066165924, -1.1942150592803955, 0.393310010433197, -0.5451440215110779, 0.24936099350452423, -0.27977800369262695, 0.12232699990272522, -0.0050130002200603485, -0.7025060057640076, 0.49877598881721497, -0.22723999619483948, -0.07931400090456009]}, {"pos": 119, "score_masked": 0.9249669909477234, "weight": 0.017354076728224754, "k": [0.2715519964694977, -1.4899450540542603, -0.22442500293254852, 0.20423699915409088, -0.8298839926719666, 0.15555399656295776, 0.8295040130615234, 0.7931780219078064, 0.5501139760017395, 0.22816599905490875, 0.5868409872055054, 0.49355700612068176, 1.0405470132827759, 0.4287860095500946, -0.08952599763870239, 0.514735996723175, 0.27688199281692505, 0.9585769772529602, 0.16208499670028687, -0.5902069807052612, 0.11916200071573257, -0.185139998793602, 0.3625609874725342, -0.02181899920105934, 0.4890289902687073, -0.009801999665796757, -0.7457839846611023, -0.6253679990768433, 0.992235004901886, -0.870693027973175, -0.7788209915161133, -0.29711899161338806], "v": [0.5174319744110107, 0.2745319902896881, -0.0743890032172203, 0.24307900667190552, -0.6758630275726318, -0.6022030115127563, 0.8380280137062073, -0.24772700667381287, 0.539991021156311, -0.17228899896144867, -0.44575199484825134, 0.04290200024843216, 0.6240720152854919, 1.3887089490890503, 0.06443600356578827, -0.9470130205154419, -0.7732269763946533, 0.7969149947166443, 0.3610680103302002, -0.37912899255752563, 0.8565769791603088, -0.12353099882602692, -0.10226800292730331, 0.16794900596141815, -0.5056399703025818, -0.33952000737190247, 0.43356001377105713, 0.4571309983730316, 0.504010021686554, -0.34353500604629517, -0.1526540070772171, 0.3594070076942444]}, {"pos": 115, "score_masked": 0.8199784755706787, "weight": 0.015624480322003365, "k": [0.5237709879875183, -0.2006870061159134, 0.013728000223636627, -0.20662100613117218, -0.38345199823379517, 0.626924991607666, -0.285537987947464, -0.6865059733390808, -0.4562479853630066, -0.7380179762840271, 0.4242660105228424, 0.38436099886894226, -0.26477301120758057, 1.4497270584106445, -1.179574966430664, -0.8938260078430176, -0.4960139989852905, -0.4248790144920349, 0.11571499705314636, 0.4251439869403839, -0.798471987247467, -0.518127977848053, 0.5363569855690002, 0.44235000014305115, 0.740693986415863, 0.5323349833488464, 0.1809840053319931, -0.46405500173568726, -0.3955349922180176, 0.5256569981575012, -0.4351019859313965, -0.42718398571014404], "v": [-0.26278799772262573, 0.3534829914569855, 0.31967300176620483, -0.22867700457572937, 0.5154380202293396, 0.1423559933900833, -0.3148849904537201, -0.4302859902381897, 0.35677701234817505, 0.6084629893302917, -0.8401650190353394, -0.8147169947624207, 0.47765201330184937, -0.05919099971652031, 0.2722649872303009, 0.8303520083427429, 0.3624280095100403, 0.27690601348876953, -0.7005040049552917, 0.17925800383090973, 0.5616989731788635, -0.42738500237464905, -0.8565760254859924, -1.1622430086135864, -0.7577700018882751, 0.02404100075364113, 0.2634490132331848, 0.26276499032974243, -0.7574759721755981, -0.1874690055847168, -0.3603610098361969, -0.15078100562095642]}, {"pos": 107, "score_masked": 0.8065390586853027, "weight": 0.015415901318192482, "k": [-0.24718299508094788, -0.3900870084762573, -0.45171499252319336, -0.05490700155496597, 0.0073540001176297665, 0.960739016532898, -0.11495000123977661, -0.013766000047326088, -0.5013530254364014, 0.6485069990158081, 0.43556100130081177, -0.23833799362182617, 0.3220199942588806, -0.18858599662780762, -0.9375219941139221, 0.39983901381492615, -0.41337600350379944, 0.2963240146636963, 0.012548999860882759, -0.20941899716854095, -0.1601179987192154, -0.002455000067129731, 0.5188869833946228, 0.4136730134487152, 0.2765839993953705, -0.6419839859008789, 0.1783359944820404, -0.021382000297307968, 0.4199889898300171, -0.858830988407135, 0.27701500058174133, -0.693789005279541], "v": [-0.21334299445152283, 0.133775994181633, 0.6314569711685181, -0.17577600479125977, -1.2951329946517944, 0.6966450214385986, -0.1481039971113205, -0.17054900527000427, -0.557636022567749, -0.5879449844360352, 0.20788699388504028, -0.5004540085792542, -0.42153400182724, 0.13821299374103546, 0.11242599785327911, 0.31075701117515564, -0.33145299553871155, 0.5672280192375183, -0.046549998223781586, 1.0780190229415894, 0.17216099798679352, -0.36154499650001526, -0.10774099826812744, 0.3601379990577698, 0.18935899436473846, 0.6687359809875488, 0.055215999484062195, 0.06304299831390381, -1.35172700881958, -0.7750959992408752, 0.3395079970359802, 0.31897300481796265]}, {"pos": 30, "score_masked": 0.7551800012588501, "weight": 0.014644143171608448, "k": [0.07386299967765808, 0.559095025062561, 0.31628599762916565, -0.5174189805984497, 0.423799991607666, 0.8747239708900452, 0.911266028881073, 0.4925360083580017, 0.7396510243415833, 1.050595998764038, -0.38319799304008484, 0.038061998784542084, 0.5130529999732971, 0.6878600120544434, -0.6012619733810425, -0.3683669865131378, -0.30791398882865906, 1.2396490573883057, 0.6527940034866333, -0.7603759765625, -0.7848520278930664, -0.018857000395655632, 0.4674690067768097, 0.7241209745407104, 0.5177029967308044, 0.03276300057768822, -0.18664200603961945, 0.23916399478912354, 0.9464709758758545, 0.20501099526882172, -0.5602269768714905, -0.7876440286636353], "v": [1.3203649520874023, -0.5761889815330505, 0.6726899743080139, -0.3975290060043335, -0.3525319993495941, -0.4546140134334564, -0.1717890053987503, -0.4364979863166809, -0.29767900705337524, -0.09373799711465836, -0.6620349884033203, -0.2525399923324585, -0.24237899482250214, -0.2631230056285858, -0.706387996673584, -0.8895300030708313, 0.25765499472618103, 0.18747299909591675, -0.10491800308227539, -0.34204599261283875, 0.05878400057554245, -0.8592150211334229, 0.34352800250053406, -0.5115399956703186, 0.947163999080658, -0.3986530005931854, 0.7688239812850952, 0.43396899104118347, -0.4224039912223816, 0.04055200144648552, 0.8937129974365234, 0.08080500364303589]}]}, {"stage_idx": 6, "stage": "context_head", "context": [-0.09773000329732895, 0.05849999934434891, 0.07484199851751328, 0.10734199732542038, -0.10427100211381912, 0.05149700120091438, 0.02053700014948845, -0.259115993976593, -0.09977100044488907, 0.015039999969303608, -0.19761699438095093, -0.05019399896264076, 0.10877300053834915, 0.09545700252056122, -0.0029140000697225332, 0.06994300335645676, 0.13439400494098663, -0.04758000001311302, -0.033998001366853714, 0.07407400012016296, 0.2002670019865036, -0.2122569978237152, -0.07201799750328064, -0.1680929958820343, 0.1291549950838089, 0.0841199979186058, -0.05866299942135811, 0.22275100648403168, -0.08595400303602219, -0.07666099816560745, 0.07791300117969513, 0.10141699761152267]}]}, {"head": 2, "head_dim": 32, "trace": [{"stage_idx": 0, "stage": "q_after_proj_rope", "q": [0.43439701199531555, -0.4935060143470764, -0.2480050027370453, 0.510886013507843, 1.103827953338623, 0.2818410098552704, 0.0053980001248419285, 0.2857930064201355, 0.6977260112762451, 0.5819299817085266, 0.10501399636268616, -0.8016449809074402, -0.7918180227279663, -0.7350460290908813, 0.0583220012485981, -0.741802990436554, -0.10064700245857239, -0.4811039865016937, 0.6887990236282349, -0.40125998854637146, -0.05312899872660637, -0.027458999305963516, 0.18999600410461426, 0.10620900243520737, 0.16658499836921692, 0.4626539945602417, 0.4390850067138672, -1.0483180284500122, 0.5764750242233276, 0.3716700077056885, 0.09828300029039383, 1.0119370222091675]}, {"stage_idx": 1, "stage": "scores_raw", "scores": [0.160630002617836, 0.5312950015068054, -0.1376589983701706, 0.012972000055015087, 0.11829400062561035, 0.732017993927002, 0.44545599818229675, 0.4422850012779236, 0.21736200153827667, -0.4277929961681366, 0.03823700174689293, -0.5150880217552185, 0.2782689929008484, 0.5270000100135803, 0.0535460002720356, 0.13142499327659607, 0.41484299302101135, 0.31641900539398193, 0.4422850012779236, -0.15779100358486176, 0.4632290005683899, -0.1376589983701706, -0.09284400194883347, 0.6597669720649719, -0.2702789902687073, 0.204584002494812, -0.2925649881362915, -0.08252999931573868, 0.41484299302101135, 0.16317500174045563, -0.30619800090789795, -0.3742179870605469, 0.204584002494812, -0.0753289982676506, 0.1711679995059967, -0.08000099658966064, 0.1732970029115677, 0.3168239891529083, -0.30670100450515747, 0.5267800092697144, 0.49696800112724304, 0.4643610119819641, 0.03224699944257736, -0.07625000178813934, -0.1376589983701706, 0.4945580065250397, -0.029839999973773956, 0.49696800112724304, 0.11285500228404999, 0.3757759928703308, 0.7609609961509705, 0.6727719902992249, -0.5706189870834351, 0.10888499766588211, 0.28895100951194763, 0.4632929861545563, -0.1376589983701706, -0.03560100123286247, -0.03560100123286247, -0.11656700074672699, 0.36520200967788696, -0.4218519926071167, 0.07984600216150284, -0.11979100108146667, -0.2786479890346527, -0.25203800201416016, -0.1376589983701706, 0.40252599120140076, -0.2786479890346527, 0.07653199881315231, 0.28895100951194763, 0.49696800112724304, 0.26059699058532715, -0.15059800446033478, -0.22754600644111633, 0.6535090208053589, 0.4422850012779236, 0.49696800112724304, 0.27598199248313904, -0.3451539874076843, -0.026917999610304832, 0.4422850012779236, 0.41484299302101135, 0.5912709832191467, 0.5315139889717102, 0.026142999529838562, 0.6542140245437622, -0.004395999945700169, -0.1376589983701706, -0.12458600103855133, -0.4218519926071167, 0.204584002494812, -0.2976270020008087, -0.07710099965333939, -0.2786479890346527, 0.10755600035190582, 0.034205999225378036, 0.08342999964952469, 0.14420300722122192, -0.05592900142073631, 0.09854000061750412, 0.324196994304657, 0.24968799948692322, 0.2879599928855896, -0.21142099797725677, 0.14660899341106415, -0.012670000083744526, 0.3789899945259094, 0.10755600035190582, -0.16350199282169342, -0.011525999754667282, 0.17259299755096436, -0.3447229862213135, 0.01039899978786707, 0.2019300013780594, 0.3932259976863861, 0.40252599120140076, 0.204584002494812, 0.7609609961509705, 0.3034430146217346, 0.28895100951194763, 0.49696800112724304, -0.4218519926071167, 0.204584002494812, 0.2463349997997284, -0.4370400011539459, 0.23332199454307556, -0.1376589983701706]}, {"stage_idx": 2, "stage": "scores_masked", "scores": [0.160630002617836, 0.5312950015068054, -0.1376589983701706, 0.012972000055015087, 0.11829400062561035, 0.732017993927002, 0.44545599818229675, 0.4422850012779236, 0.21736200153827667, -0.4277929961681366, 0.03823700174689293, -0.5150880217552185, 0.2782689929008484, 0.5270000100135803, 0.0535460002720356, 0.13142499327659607, 0.41484299302101135, 0.31641900539398193, 0.4422850012779236, -0.15779100358486176, 0.4632290005683899, -0.1376589983701706, -0.09284400194883347, 0.6597669720649719, -0.2702789902687073, 0.204584002494812, -0.2925649881362915, -0.08252999931573868, 0.41484299302101135, 0.16317500174045563, -0.30619800090789795, -0.3742179870605469, 0.204584002494812, -0.0753289982676506, 0.1711679995059967, -0.08000099658966064, 0.1732970029115677, 0.3168239891529083, -0.30670100450515747, 0.5267800092697144, 0.49696800112724304, 0.4643610119819641, 0.03224699944257736, -0.07625000178813934, -0.1376589983701706, 0.4945580065250397, -0.029839999973773956, 0.49696800112724304, 0.11285500228404999, 0.3757759928703308, 0.7609609961509705, 0.6727719902992249, -0.5706189870834351, 0.10888499766588211, 0.28895100951194763, 0.4632929861545563, -0.1376589983701706, -0.03560100123286247, -0.03560100123286247, -0.11656700074672699, 0.36520200967788696, -0.4218519926071167, 0.07984600216150284, -0.11979100108146667, -0.2786479890346527, -0.25203800201416016, -0.1376589983701706, 0.40252599120140076, -0.2786479890346527, 0.07653199881315231, 0.28895100951194763, 0.49696800112724304, 0.26059699058532715, -0.15059800446033478, -0.22754600644111633, 0.6535090208053589, 0.4422850012779236, 0.49696800112724304, 0.27598199248313904, -0.3451539874076843, -0.026917999610304832, 0.4422850012779236, 0.41484299302101135, 0.5912709832191467, 0.5315139889717102, 0.026142999529838562, 0.6542140245437622, -0.004395999945700169, -0.1376589983701706, -0.12458600103855133, -0.4218519926071167, 0.204584002494812, -0.2976270020008087, -0.07710099965333939, -0.2786479890346527, 0.10755600035190582, 0.034205999225378036, 0.08342999964952469, 0.14420300722122192, -0.05592900142073631, 0.09854000061750412, 0.324196994304657, 0.24968799948692322, 0.2879599928855896, -0.21142099797725677, 0.14660899341106415, -0.012670000083744526, 0.3789899945259094, 0.10755600035190582, -0.16350199282169342, -0.011525999754667282, 0.17259299755096436, -0.3447229862213135, 0.01039899978786707, 0.2019300013780594, 0.3932259976863861, 0.40252599120140076, 0.204584002494812, 0.7609609961509705, 0.3034430146217346, 0.28895100951194763, 0.49696800112724304, -0.4218519926071167, 0.204584002494812, 0.2463349997997284, -0.4370400011539459, 0.23332199454307556, -0.1376589983701706]}, {"stage_idx": 3, "stage": "weights_softmax", "weights": [0.007737999781966209, 0.011210000142455101, 0.005741999950259924, 0.006676000077277422, 0.007416999898850918, 0.013701999559998512, 0.010288000106811523, 0.010254999622702599, 0.008190000429749489, 0.004296000115573406, 0.00684700021520257, 0.0039369999431073666, 0.008704000152647495, 0.01116199977695942, 0.0069519998505711555, 0.007515000179409981, 0.009978000074625015, 0.00904299970716238, 0.010254999622702599, 0.005628000013530254, 0.010472999885678291, 0.005741999950259924, 0.006006000097841024, 0.012746999971568584, 0.005028999876230955, 0.008085999637842178, 0.004918000195175409, 0.006068000104278326, 0.009978000074625015, 0.007757999934256077, 0.004852000158280134, 0.004532999824732542, 0.008085999637842178, 0.006111999973654747, 0.007819999940693378, 0.006082999985665083, 0.00783700030297041, 0.009046000428497791, 0.0048489999026060104, 0.01116000022739172, 0.010831999592483044, 0.010483999736607075, 0.0068060001358389854, 0.006105999927967787, 0.005741999950259924, 0.010805999860167503, 0.006395999807864428, 0.010831999592483044, 0.00737700005993247, 0.009596000425517559, 0.01410400029271841, 0.012914000079035759, 0.0037239999510347843, 0.007348000071942806, 0.008798000402748585, 0.010472999885678291, 0.005741999950259924, 0.006359000224620104, 0.006359000224620104, 0.0058650001883506775, 0.00949500035494566, 0.0043219998478889465, 0.0071379998698830605, 0.00584599981084466, 0.004987000022083521, 0.005121999885886908, 0.005741999950259924, 0.009855999611318111, 0.004987000022083521, 0.007114000152796507, 0.008798000402748585, 0.010831999592483044, 0.008551999926567078, 0.005669000092893839, 0.005249000154435635, 0.01266700029373169, 0.010254999622702599, 0.010831999592483044, 0.008684000000357628, 0.004666000138968229, 0.006415000185370445, 0.010254999622702599, 0.009978000074625015, 0.011903000064194202, 0.011212999932467937, 0.006763999816030264, 0.012675999663770199, 0.006560999900102615, 0.005741999950259924, 0.005818000063300133, 0.0043219998478889465, 0.008085999637842178, 0.004892999771982431, 0.006101000122725964, 0.004987000022083521, 0.0073379999957978725, 0.006819000001996756, 0.007162999827414751, 0.007612000219523907, 0.006231000181287527, 0.007271999958902597, 0.009112999774515629, 0.008458999916911125, 0.0087890001013875, 0.00533400010317564, 0.0076299998909235, 0.006506999954581261, 0.009626000188291073, 0.0073379999957978725, 0.0055959997698664665, 0.006513999775052071, 0.007830999791622162, 0.004668000154197216, 0.006659000180661678, 0.008063999935984612, 0.009765000082552433, 0.009855999611318111, 0.008085999637842178, 0.01410400029271841, 0.008926000446081161, 0.008798000402748585, 0.010831999592483044, 0.0043219998478889465, 0.008085999637842178, 0.00843099970370531, 0.0042570000514388084, 0.008321999572217464, 0.005741999950259924], "sum": 1.0}, {"stage_idx": 4, "stage": "weights_after_dropout", "weights": [0.007737999781966209, 0.011210000142455101, 0.005741999950259924, 0.006676000077277422, 0.007416999898850918, 0.013701999559998512, 0.010288000106811523, 0.010254999622702599, 0.008190000429749489, 0.004296000115573406, 0.00684700021520257, 0.0039369999431073666, 0.008704000152647495, 0.01116199977695942, 0.0069519998505711555, 0.007515000179409981, 0.009978000074625015, 0.00904299970716238, 0.010254999622702599, 0.005628000013530254, 0.010472999885678291, 0.005741999950259924, 0.006006000097841024, 0.012746999971568584, 0.005028999876230955, 0.008085999637842178, 0.004918000195175409, 0.006068000104278326, 0.009978000074625015, 0.007757999934256077, 0.004852000158280134, 0.004532999824732542, 0.008085999637842178, 0.006111999973654747, 0.007819999940693378, 0.006082999985665083, 0.00783700030297041, 0.009046000428497791, 0.0048489999026060104, 0.01116000022739172, 0.010831999592483044, 0.010483999736607075, 0.0068060001358389854, 0.006105999927967787, 0.005741999950259924, 0.010805999860167503, 0.006395999807864428, 0.010831999592483044, 0.00737700005993247, 0.009596000425517559, 0.01410400029271841, 0.012914000079035759, 0.0037239999510347843, 0.007348000071942806, 0.008798000402748585, 0.010472999885678291, 0.005741999950259924, 0.006359000224620104, 0.006359000224620104, 0.0058650001883506775, 0.00949500035494566, 0.0043219998478889465, 0.0071379998698830605, 0.00584599981084466, 0.004987000022083521, 0.005121999885886908, 0.005741999950259924, 0.009855999611318111, 0.004987000022083521, 0.007114000152796507, 0.008798000402748585, 0.010831999592483044, 0.008551999926567078, 0.005669000092893839, 0.005249000154435635, 0.01266700029373169, 0.010254999622702599, 0.010831999592483044, 0.008684000000357628, 0.004666000138968229, 0.006415000185370445, 0.010254999622702599, 0.009978000074625015, 0.011903000064194202, 0.011212999932467937, 0.006763999816030264, 0.012675999663770199, 0.006560999900102615, 0.005741999950259924, 0.005818000063300133, 0.0043219998478889465, 0.008085999637842178, 0.004892999771982431, 0.006101000122725964, 0.004987000022083521, 0.0073379999957978725, 0.006819000001996756, 0.007162999827414751, 0.007612000219523907, 0.006231000181287527, 0.007271999958902597, 0.009112999774515629, 0.008458999916911125, 0.0087890001013875, 0.00533400010317564, 0.0076299998909235, 0.006506999954581261, 0.009626000188291073, 0.0073379999957978725, 0.0055959997698664665, 0.006513999775052071, 0.007830999791622162, 0.004668000154197216, 0.006659000180661678, 0.008063999935984612, 0.009765000082552433, 0.009855999611318111, 0.008085999637842178, 0.01410400029271841, 0.008926000446081161, 0.008798000402748585, 0.010831999592483044, 0.0043219998478889465, 0.008085999637842178, 0.00843099970370531, 0.0042570000514388084, 0.008321999572217464, 0.005741999950259924], "sum": 1.0, "dropout_applied": false}, {"stage_idx": 5, "stage": "topk_after_dropout", "k": 5, "topk": [{"pos": 118, "score_masked": 0.7609609961509705, "weight": 0.01410442404448986, "k": [-0.24965299665927887, -0.9462469816207886, -0.5185499787330627, -1.133584976196289, 1.1375999450683594, 1.0834699869155884, 0.31565600633621216, 0.09953799843788147, 0.7042319774627686, 0.05393499881029129, 0.04554099962115288, 0.044902000576257706, -0.4062890112400055, -0.7869129776954651, 0.24952299892902374, 0.24288100004196167, -0.5059120059013367, 0.12430500239133835, 0.543287992477417, 0.5661789774894714, 0.5867919921875, -0.832912027835846, 0.7443699836730957, -0.14893199503421783, 0.15888600051403046, -0.004612000193446875, -0.5462219715118408, -0.6042860150337219, 1.1617510318756104, 0.4885390102863312, 0.12331099808216095, 0.04202200099825859], "v": [0.4047290086746216, 0.5145779848098755, 0.15914499759674072, 0.45893099904060364, -0.43810999393463135, -0.4003809988498688, -0.3087660074234009, -0.22793200612068176, 0.7603070139884949, -0.13995599746704102, 1.058411955833435, -0.2650110125541687, 2.107974052429199, -0.3985610008239746, 0.18953999876976013, -0.29595500230789185, -0.48055198788642883, 0.6750839948654175, 0.24939599633216858, 0.9198499917984009, -0.8640519976615906, -0.5163840055465698, 0.1945510059595108, 0.7741100192070007, -0.7831479907035828, -0.24439699947834015, 0.11937499791383743, 0.08304800093173981, 0.9638000130653381, -0.7634620070457458, 0.04954100027680397, -0.4515019953250885]}, {"pos": 50, "score_masked": 0.7609609961509705, "weight": 0.01410442404448986, "k": [-0.24965299665927887, -0.9462469816207886, -0.5185499787330627, -1.133584976196289, 1.1375999450683594, 1.0834699869155884, 0.31565600633621216, 0.09953799843788147, 0.7042319774627686, 0.05393499881029129, 0.04554099962115288, 0.044902000576257706, -0.4062890112400055, -0.7869129776954651, 0.24952299892902374, 0.24288100004196167, -0.5059120059013367, 0.12430500239133835, 0.543287992477417, 0.5661789774894714, 0.5867919921875, -0.832912027835846, 0.7443699836730957, -0.14893199503421783, 0.15888600051403046, -0.004612000193446875, -0.5462219715118408, -0.6042860150337219, 1.1617510318756104, 0.4885390102863312, 0.12331099808216095, 0.04202200099825859], "v": [0.4047290086746216, 0.5145779848098755, 0.15914499759674072, 0.45893099904060364, -0.43810999393463135, -0.4003809988498688, -0.3087660074234009, -0.22793200612068176, 0.7603070139884949, -0.13995599746704102, 1.058411955833435, -0.2650110125541687, 2.107974052429199, -0.3985610008239746, 0.18953999876976013, -0.29595500230789185, -0.48055198788642883, 0.6750839948654175, 0.24939599633216858, 0.9198499917984009, -0.8640519976615906, -0.5163840055465698, 0.1945510059595108, 0.7741100192070007, -0.7831479907035828, -0.24439699947834015, 0.11937499791383743, 0.08304800093173981, 0.9638000130653381, -0.7634620070457458, 0.04954100027680397, -0.4515019953250885]}, {"pos": 5, "score_masked": 0.7320181727409363, "weight": 0.01370205357670784, "k": [-0.14944100379943848, 0.022785000503063202, 0.39338400959968567, 0.36827701330184937, 0.3270590007305145, -0.4446580111980438, 0.27427399158477783, 0.23263399302959442, 0.7095760107040405, 0.15524500608444214, 0.20700600743293762, -0.839148998260498, -0.17009000480175018, -0.18924100697040558, 1.3362669944763184, -0.3795529901981354, 0.30396100878715515, -0.13618400692939758, 1.1142300367355347, -0.061073001474142075, 0.2589159905910492, 0.02512199990451336, 0.8933500051498413, 1.1116299629211426, -0.6942780017852783, -0.7565379738807678, 0.24554799497127533, 0.6066880226135254, 0.5252860188484192, 0.5433840155601501, -0.37641099095344543, 1.3197569847106934], "v": [-0.1563660055398941, 0.9864280223846436, -1.0239850282669067, 1.4050790071487427, 1.1535170078277588, -1.2230639457702637, -1.032958984375, 0.11039400100708008, 0.4878140091896057, 0.5662660002708435, 0.037994999438524246, -0.8435559868812561, -0.4607290029525757, 0.16611899435520172, 0.6050090193748474, -0.004778000060468912, -0.7951160073280334, -1.3989440202713013, 1.7144299745559692, -0.08081299811601639, 0.891211986541748, 0.630312979221344, 0.7657219767570496, 0.7802979946136475, 0.0824820026755333, -0.07004699856042862, -0.5906999707221985, 0.041193000972270966, 0.029614999890327454, 0.3257550001144409, -0.22459100186824799, -0.46522799134254456]}, {"pos": 51, "score_masked": 0.6727724671363831, "weight": 0.012913845479488373, "k": [0.3929100036621094, -0.24334800243377686, 0.46479400992393494, 0.29637500643730164, 0.19221000373363495, -0.010036000050604343, -0.03167400136590004, -0.06803099811077118, -0.3716129958629608, 0.5077850222587585, 0.7515519857406616, -0.582942008972168, -1.6513880491256714, -0.37453800439834595, -0.9078350067138672, -1.0828839540481567, -0.021801000460982323, 0.3304379880428314, 0.19850899279117584, -0.1712300032377243, 0.4289909899234772, 0.870684027671814, -0.2765290141105652, -0.10832100361585617, -0.7200189828872681, 0.4552290141582489, -0.32173898816108704, -0.7937279939651489, 0.30386900901794434, -0.29253798723220825, 0.12019000202417374, -0.41920000314712524], "v": [0.7958840131759644, 1.1195319890975952, -0.07095800340175629, -0.24788500368595123, 0.29984399676322937, -0.2652849853038788, 0.6850619912147522, -0.8220059871673584, 0.6741160154342651, 0.4155220091342926, -0.4467509984970093, -0.1702059954404831, -0.28166401386260986, -0.7486050128936768, 0.7821940183639526, -0.1855430006980896, -0.993861973285675, -0.34241798520088196, 0.14159399271011353, 0.21061399579048157, 0.5484640002250671, -0.15094900131225586, -0.20514899492263794, 0.37236401438713074, 0.5525959730148315, 0.9418879747390747, 0.6212890148162842, 0.1480730026960373, 0.8215439915657043, -0.35492798686027527, 0.6213930249214172, -0.3153649866580963]}, {"pos": 23, "score_masked": 0.6597666144371033, "weight": 0.012746976688504219, "k": [0.22702600061893463, -1.7344039678573608, -0.3601920008659363, -0.24552099406719208, -0.2853350043296814, -0.0459510013461113, 0.10103999823331833, 0.6434270143508911, 0.5572109818458557, -0.2544560134410858, 0.48083001375198364, -0.4293529987335205, 0.1419910043478012, -0.7299489974975586, 0.5615659952163696, -0.4510990083217621, -1.032668948173523, 0.07134400308132172, 0.8775590062141418, 0.9672620296478271, 0.8132290244102478, -0.7733680009841919, -0.0018550000386312604, 0.2654210031032562, 0.48487600684165955, -0.04479699954390526, -0.25110799074172974, 0.2592810094356537, 0.3257269859313965, 0.6345570087432861, -1.844702959060669, 1.30268394947052], "v": [-0.3322809934616089, 1.7026469707489014, 0.5414959788322449, 0.37502801418304443, 0.3375310003757477, -0.6614159941673279, -0.45875799655914307, -0.2976340055465698, -0.46923500299453735, 0.5226240158081055, 0.5770710110664368, -0.1348479986190796, -0.19771699607372284, 0.7273799777030945, 0.19892999529838562, 0.9792559742927551, -0.026697000488638878, -0.1071460023522377, -0.013256000354886055, -0.03624099865555763, 0.09791900217533112, -0.28654998540878296, 0.48686400055885315, -0.02787500061094761, 0.5885249972343445, -0.4217270016670227, -0.8230149745941162, -0.23129500448703766, 0.12180600315332413, -0.3479509949684143, -0.21362000703811646, 0.43939000368118286]}]}, {"stage_idx": 6, "stage": "context_head", "context": [0.03370700031518936, 0.439536988735199, -0.1703689992427826, 0.1229730024933815, -0.061076998710632324, -0.1669989973306656, 0.010928000323474407, 0.04494800046086311, 0.19014999270439148, 0.19937999546527863, 0.16955700516700745, -0.025575999170541763, 0.07748399674892426, -0.008282000198960304, -0.062394000589847565, 0.043299999088048935, -0.16100099682807922, -0.26729699969291687, 0.12915700674057007, -0.15138700604438782, 0.012551999650895596, 0.07727000117301941, 0.07980900257825851, 0.07688099890947342, -0.12329799681901932, -0.17498500645160675, -0.05004499852657318, 0.06983499974012375, 0.1744920015335083, -0.02607399970293045, 0.007056000176817179, -0.12251599878072739]}]}, {"head": 3, "head_dim": 32, "trace": [{"stage_idx": 0, "stage": "q_after_proj_rope", "q": [0.14110800623893738, -0.3281930088996887, -0.4124639928340912, -0.6902089715003967, -0.7455800175666809, -0.34983599185943604, -0.29049399495124817, 0.6583309769630432, -0.6405810117721558, 0.20218700170516968, 1.590432047843933, 0.9171000123023987, -0.05914200097322464, 0.8987889885902405, -0.1952960044145584, -0.38801100850105286, -0.12532199919223785, -0.14246299862861633, -0.49763399362564087, 0.6029250025749207, -1.2003060579299927, 0.2804490029811859, -0.44152501225471497, 0.5551999807357788, 0.9037280082702637, 0.14163100719451904, 0.05423500016331673, 0.2589170038700104, -0.31346699595451355, -0.3075160086154938, -1.587533950805664, 0.43194299936294556]}, {"stage_idx": 1, "stage": "scores_raw", "scores": [-0.6617029905319214, -0.2377540022134781, 0.23064400255680084, -0.3823640048503876, -0.33068200945854187, -0.15144400298595428, -0.44430699944496155, 0.14012500643730164, 0.42972099781036377, -0.6708710193634033, -0.9520969986915588, -0.6055399775505066, -0.7516229748725891, 0.0442579984664917, -0.5138130187988281, -0.27556800842285156, 0.2177090048789978, -0.1923139989376068, 0.14012500643730164, -0.10312400013208389, 0.11348199844360352, 0.23064400255680084, 0.24392299354076385, -0.17452199757099152, 0.20480899512767792, 0.46916699409484863, 0.03558100014925003, 0.05402600020170212, 0.2177090048789978, -0.15693899989128113, -0.3676300048828125, 0.23333700001239777, 0.46916699409484863, 0.286514014005661, 0.2962549924850464, 0.22762100398540497, 0.47938400506973267, -0.10928399860858917, 0.1273380070924759, 0.0636259987950325, 0.08759400248527527, -0.07128699868917465, 0.307559996843338, -0.5180860161781311, 0.23064400255680084, 0.0009420000133104622, 0.2545279860496521, 0.08759400248527527, -0.437406986951828, -0.1993129998445511, -0.36192798614501953, -0.2042279988527298, 0.1616940051317215, 0.2855220139026642, -0.17546600103378296, -0.21317000687122345, 0.23064400255680084, 0.13468599319458008, 0.13468599319458008, -0.049584001302719116, -0.45895901322364807, 0.34540998935699463, -0.008628999814391136, -0.21124300360679626, -0.1572909951210022, 0.13451500236988068, 0.23064400255680084, -1.2334749698638916, -0.1572909951210022, 0.201665997505188, -0.17546600103378296, 0.08759400248527527, -0.9654499888420105, -0.33579298853874207, 0.4175190031528473, 0.27973100543022156, 0.14012500643730164, 0.08759400248527527, -0.25666698813438416, -0.17495499551296234, -0.912738025188446, 0.14012500643730164, 0.2177090048789978, -0.3996509909629822, -0.11635799705982208, -0.3422529995441437, -0.18578100204467773, -0.031947001814842224, 0.23064400255680084, -0.27610599994659424, 0.34540998935699463, 0.46916699409484863, -0.49206700921058655, 0.020267000421881676, -0.1572909951210022, 0.47371000051498413, 0.48574098944664, -0.0343719981610775, -0.6700670123100281, 0.06924699991941452, -0.09963399916887283, -0.06842099875211716, -0.0664760023355484, -0.0012959999730810523, -0.1384200006723404, 0.37943100929260254, -0.5186610221862793, -0.3933649957180023, 0.47371000051498413, -0.2591570019721985, -0.5103840231895447, -0.3622730076313019, 0.05313799902796745, 0.1434219926595688, -0.1306309998035431, -0.04701099917292595, -1.2334749698638916, 0.46916699409484863, -0.36192798614501953, -0.023003999143838882, -0.17546600103378296, 0.08759400248527527, 0.34540998935699463, 0.46916699409484863, -0.428070992231369, 0.2673659920692444, -0.00585799990221858, 0.23064400255680084]}, {"stage_idx": 2, "stage": "scores_masked", "scores": [-0.6617029905319214, -0.2377540022134781, 0.23064400255680084, -0.3823640048503876, -0.33068200945854187, -0.15144400298595428, -0.44430699944496155, 0.14012500643730164, 0.42972099781036377, -0.6708710193634033, -0.9520969986915588, -0.6055399775505066, -0.7516229748725891, 0.0442579984664917, -0.5138130187988281, -0.27556800842285156, 0.2177090048789978, -0.1923139989376068, 0.14012500643730164, -0.10312400013208389, 0.11348199844360352, 0.23064400255680084, 0.24392299354076385, -0.17452199757099152, 0.20480899512767792, 0.46916699409484863, 0.03558100014925003, 0.05402600020170212, 0.2177090048789978, -0.15693899989128113, -0.3676300048828125, 0.23333700001239777, 0.46916699409484863, 0.286514014005661, 0.2962549924850464, 0.22762100398540497, 0.47938400506973267, -0.10928399860858917, 0.1273380070924759, 0.0636259987950325, 0.08759400248527527, -0.07128699868917465, 0.307559996843338, -0.5180860161781311, 0.23064400255680084, 0.0009420000133104622, 0.2545279860496521, 0.08759400248527527, -0.437406986951828, -0.1993129998445511, -0.36192798614501953, -0.2042279988527298, 0.1616940051317215, 0.2855220139026642, -0.17546600103378296, -0.21317000687122345, 0.23064400255680084, 0.13468599319458008, 0.13468599319458008, -0.049584001302719116, -0.45895901322364807, 0.34540998935699463, -0.008628999814391136, -0.21124300360679626, -0.1572909951210022, 0.13451500236988068, 0.23064400255680084, -1.2334749698638916, -0.1572909951210022, 0.201665997505188, -0.17546600103378296, 0.08759400248527527, -0.9654499888420105, -0.33579298853874207, 0.4175190031528473, 0.27973100543022156, 0.14012500643730164, 0.08759400248527527, -0.25666698813438416, -0.17495499551296234, -0.912738025188446, 0.14012500643730164, 0.2177090048789978, -0.3996509909629822, -0.11635799705982208, -0.3422529995441437, -0.18578100204467773, -0.031947001814842224, 0.23064400255680084, -0.27610599994659424, 0.34540998935699463, 0.46916699409484863, -0.49206700921058655, 0.020267000421881676, -0.1572909951210022, 0.47371000051498413, 0.48574098944664, -0.0343719981610775, -0.6700670123100281, 0.06924699991941452, -0.09963399916887283, -0.06842099875211716, -0.0664760023355484, -0.0012959999730810523, -0.1384200006723404, 0.37943100929260254, -0.5186610221862793, -0.3933649957180023, 0.47371000051498413, -0.2591570019721985, -0.5103840231895447, -0.3622730076313019, 0.05313799902796745, 0.1434219926595688, -0.1306309998035431, -0.04701099917292595, -1.2334749698638916, 0.46916699409484863, -0.36192798614501953, -0.023003999143838882, -0.17546600103378296, 0.08759400248527527, 0.34540998935699463, 0.46916699409484863, -0.428070992231369, 0.2673659920692444, -0.00585799990221858, 0.23064400255680084]}, {"stage_idx": 3, "stage": "weights_softmax", "weights": [0.004040000028908253, 0.006173000205308199, 0.009860999882221222, 0.005342000164091587, 0.005625000223517418, 0.006730000022798777, 0.005020999815315008, 0.009007999673485756, 0.012032999657094479, 0.004002999980002642, 0.0030219999607652426, 0.004273000173270702, 0.0036929999478161335, 0.008183999918401241, 0.004683999810367823, 0.005944000091403723, 0.009734000079333782, 0.006459999829530716, 0.009007999673485756, 0.007062999997287989, 0.008771000429987907, 0.009860999882221222, 0.009992999956011772, 0.006575999781489372, 0.009610000066459179, 0.012517999857664108, 0.008113999851047993, 0.008264999836683273, 0.009734000079333782, 0.006692999973893166, 0.005421000067144632, 0.0098879998549819, 0.012517999857664108, 0.01042800024151802, 0.010529999621212482, 0.009831000119447708, 0.012645999900996685, 0.007019000127911568, 0.008892999961972237, 0.008344000205397606, 0.008546999655663967, 0.007290999870747328, 0.010649999603629112, 0.0046640001237392426, 0.009860999882221222, 0.00783700030297041, 0.010099999606609344, 0.008546999655663967, 0.0050559998489916325, 0.006415000185370445, 0.005452000070363283, 0.006384000182151794, 0.009204000234603882, 0.010417000390589237, 0.006570000201463699, 0.006326999980956316, 0.009860999882221222, 0.008958999998867512, 0.008958999998867512, 0.007451000157743692, 0.004947999957948923, 0.011060000397264957, 0.007763000205159187, 0.0063390000723302364, 0.006690000183880329, 0.008957000449299812, 0.009860999882221222, 0.002280999906361103, 0.006690000183880329, 0.009580000303685665, 0.006570000201463699, 0.008546999655663967, 0.0029819998890161514, 0.0055970000103116035, 0.011886999942362309, 0.010356999933719635, 0.009007999673485756, 0.008546999655663967, 0.006058000028133392, 0.006572999991476536, 0.0031429999507963657, 0.009007999673485756, 0.009734000079333782, 0.005249999929219484, 0.006969999987632036, 0.0055610002018511295, 0.0065020001493394375, 0.007584000006318092, 0.009860999882221222, 0.005940999835729599, 0.011060000397264957, 0.012517999857664108, 0.004786999896168709, 0.00798999983817339, 0.006690000183880329, 0.0125749995931983, 0.012726999819278717, 0.007565000094473362, 0.004005999770015478, 0.00839100033044815, 0.0070870001800358295, 0.007311999797821045, 0.007325999904423952, 0.007819999940693378, 0.006818000227212906, 0.01144300028681755, 0.004660999868065119, 0.005284000188112259, 0.0125749995931983, 0.006041999906301498, 0.004699999932199717, 0.005450000055134296, 0.008256999775767326, 0.009038000367581844, 0.0068709999322891235, 0.007470000069588423, 0.002280999906361103, 0.012517999857664108, 0.005452000070363283, 0.007652000058442354, 0.006570000201463699, 0.008546999655663967, 0.011060000397264957, 0.012517999857664108, 0.005102999974042177, 0.010230000130832195, 0.0077840001322329044, 0.009860999882221222], "sum": 1.0}, {"stage_idx": 4, "stage": "weights_after_dropout", "weights": [0.004040000028908253, 0.006173000205308199, 0.009860999882221222, 0.005342000164091587, 0.005625000223517418, 0.006730000022798777, 0.005020999815315008, 0.009007999673485756, 0.012032999657094479, 0.004002999980002642, 0.0030219999607652426, 0.004273000173270702, 0.0036929999478161335, 0.008183999918401241, 0.004683999810367823, 0.005944000091403723, 0.009734000079333782, 0.006459999829530716, 0.009007999673485756, 0.007062999997287989, 0.008771000429987907, 0.009860999882221222, 0.009992999956011772, 0.006575999781489372, 0.009610000066459179, 0.012517999857664108, 0.008113999851047993, 0.008264999836683273, 0.009734000079333782, 0.006692999973893166, 0.005421000067144632, 0.0098879998549819, 0.012517999857664108, 0.01042800024151802, 0.010529999621212482, 0.009831000119447708, 0.012645999900996685, 0.007019000127911568, 0.008892999961972237, 0.008344000205397606, 0.008546999655663967, 0.007290999870747328, 0.010649999603629112, 0.0046640001237392426, 0.009860999882221222, 0.00783700030297041, 0.010099999606609344, 0.008546999655663967, 0.0050559998489916325, 0.006415000185370445, 0.005452000070363283, 0.006384000182151794, 0.009204000234603882, 0.010417000390589237, 0.006570000201463699, 0.006326999980956316, 0.009860999882221222, 0.008958999998867512, 0.008958999998867512, 0.007451000157743692, 0.004947999957948923, 0.011060000397264957, 0.007763000205159187, 0.0063390000723302364, 0.006690000183880329, 0.008957000449299812, 0.009860999882221222, 0.002280999906361103, 0.006690000183880329, 0.009580000303685665, 0.006570000201463699, 0.008546999655663967, 0.0029819998890161514, 0.0055970000103116035, 0.011886999942362309, 0.010356999933719635, 0.009007999673485756, 0.008546999655663967, 0.006058000028133392, 0.006572999991476536, 0.0031429999507963657, 0.009007999673485756, 0.009734000079333782, 0.005249999929219484, 0.006969999987632036, 0.0055610002018511295, 0.0065020001493394375, 0.007584000006318092, 0.009860999882221222, 0.005940999835729599, 0.011060000397264957, 0.012517999857664108, 0.004786999896168709, 0.00798999983817339, 0.006690000183880329, 0.0125749995931983, 0.012726999819278717, 0.007565000094473362, 0.004005999770015478, 0.00839100033044815, 0.0070870001800358295, 0.007311999797821045, 0.007325999904423952, 0.007819999940693378, 0.006818000227212906, 0.01144300028681755, 0.004660999868065119, 0.005284000188112259, 0.0125749995931983, 0.006041999906301498, 0.004699999932199717, 0.005450000055134296, 0.008256999775767326, 0.009038000367581844, 0.0068709999322891235, 0.007470000069588423, 0.002280999906361103, 0.012517999857664108, 0.005452000070363283, 0.007652000058442354, 0.006570000201463699, 0.008546999655663967, 0.011060000397264957, 0.012517999857664108, 0.005102999974042177, 0.010230000130832195, 0.0077840001322329044, 0.009860999882221222], "sum": 1.0, "dropout_applied": false}, {"stage_idx": 5, "stage": "topk_after_dropout", "k": 5, "topk": [{"pos": 96, "score_masked": 0.48574066162109375, "weight": 0.012726735323667526, "k": [0.6101149916648865, 0.31719300150871277, 0.0535690002143383, 0.20755399763584137, 0.0868460014462471, 0.5178179740905762, -1.5696979761123657, 0.21922999620437622, 0.2016800045967102, -1.1882909536361694, -0.005578999873250723, 0.8679230213165283, -0.4981429874897003, 0.18184900283813477, 0.4149850010871887, -0.9123690128326416, 0.4796909987926483, 0.3577210009098053, -0.818668007850647, 1.1532399654388428, 0.13979199528694153, 0.27109798789024353, -0.7306879758834839, -0.24985800683498383, -0.7736579775810242, 0.7371760010719299, 0.2681649923324585, 1.016113042831421, -0.6697030067443848, 0.1592870056629181, -0.31587299704551697, 0.6115450263023376], "v": [0.38161998987197876, 0.07298099994659424, -0.20274899899959564, 0.3250109851360321, -1.031370997428894, 0.24807900190353394, 0.4198249876499176, -0.6501219868659973, 0.13468700647354126, 0.00012799999967683107, 0.6268600225448608, -0.29791200160980225, 0.009902000427246094, 0.6505020260810852, 1.5552829504013062, 1.4434529542922974, 0.3796499967575073, 0.02861900068819523, -0.36072200536727905, 0.9082109928131104, -0.022433999925851822, -0.686352014541626, -0.8984209895133972, -0.057371001690626144, -0.023996999487280846, 0.04006100073456764, -0.01119299978017807, 0.22668200731277466, -0.40754300355911255, 0.6919220089912415, 0.4732159972190857, 0.3890720009803772]}, {"pos": 36, "score_masked": 0.47938403487205505, "weight": 0.012646093033254147, "k": [0.14956900477409363, -0.06894499808549881, 0.26517900824546814, -0.1487019956111908, -0.6093040108680725, 0.3919009864330292, 0.30322200059890747, 1.2351059913635254, 0.3631179928779602, 0.3389489948749542, 0.607509970664978, 0.9136769771575928, -0.3859339952468872, -0.5089160203933716, -0.6602740287780762, 0.6876839995384216, -0.1180569976568222, -0.40322598814964294, 0.047543998807668686, -0.422993004322052, -0.2779479920864105, 0.44416001439094543, 0.5863509774208069, -0.35513898730278015, 0.6848030090332031, -1.4267139434814453, -0.11199399828910828, -0.19576099514961243, 0.5357049703598022, -0.25659799575805664, -0.5196250081062317, -0.7561519742012024], "v": [1.1352349519729614, -0.30858299136161804, 0.6161569952964783, 0.324178010225296, 0.7153239846229553, 0.14808699488639832, -0.7971810102462769, 0.9194660186767578, 1.0999740362167358, -0.39315399527549744, -0.23664699494838715, -0.5422210097312927, 0.17222100496292114, 0.8066310286521912, -1.0088740587234497, -0.01832599937915802, -0.17414499819278717, -0.0902239978313446, -0.2038619965314865, 0.36167800426483154, 0.17647600173950195, -0.48986101150512695, 0.2909129858016968, -0.05304599925875664, 0.2827030122280121, 0.1554650068283081, -0.7046769857406616, 0.10598000138998032, 0.15052300691604614, -0.480679988861084, -0.570343017578125, 0.178616002202034]}, {"pos": 95, "score_masked": 0.47371038794517517, "weight": 0.012574546970427036, "k": [-1.1802409887313843, 0.6391249895095825, -0.16833899915218353, -0.5703930258750916, 0.4634470045566559, 0.13677899539470673, -0.24228399991989136, 0.6955180168151855, -0.6689760088920593, 1.0157359838485718, 0.42627599835395813, 0.8708840012550354, 0.935500979423523, -0.19563500583171844, -0.7566699981689453, 0.19000700116157532, -0.7531200051307678, 0.16707199811935425, -0.08137799799442291, -0.40285998582839966, 0.024387000128626823, -0.21788500249385834, -0.7689769864082336, 0.33361199498176575, -0.0016479999758303165, 1.1945650577545166, 0.3748230040073395, 0.41442400217056274, 0.4055980145931244, 0.22885900735855103, -0.23796500265598297, -0.6333400011062622], "v": [0.8631960153579712, 0.263247013092041, 0.5174959897994995, 0.05863400176167488, -0.3900029957294464, 0.27854299545288086, -0.40011298656463623, 0.40071699023246765, -0.7090160250663757, -0.9196119904518127, 0.9612299799919128, 0.6874600052833557, 0.541221022605896, -0.7337129712104797, -0.3373059928417206, 0.13546699285507202, 0.10960599780082703, 0.21394099295139313, -0.19089600443840027, -0.5100950002670288, -1.150473952293396, -0.8932610154151917, 0.07104899734258652, 0.23371000587940216, 0.7932379841804504, 0.06460700184106827, -0.02802800014615059, -0.5677940249443054, -1.0890710353851318, -0.6176170110702515, -0.04035000130534172, -1.1516809463500977]}, {"pos": 108, "score_masked": 0.47371038794517517, "weight": 0.012574546970427036, "k": [-1.1802409887313843, 0.6391249895095825, -0.16833899915218353, -0.5703930258750916, 0.4634470045566559, 0.13677899539470673, -0.24228399991989136, 0.6955180168151855, -0.6689760088920593, 1.0157359838485718, 0.42627599835395813, 0.8708840012550354, 0.935500979423523, -0.19563500583171844, -0.7566699981689453, 0.19000700116157532, -0.7531200051307678, 0.16707199811935425, -0.08137799799442291, -0.40285998582839966, 0.024387000128626823, -0.21788500249385834, -0.7689769864082336, 0.33361199498176575, -0.0016479999758303165, 1.1945650577545166, 0.3748230040073395, 0.41442400217056274, 0.4055980145931244, 0.22885900735855103, -0.23796500265598297, -0.6333400011062622], "v": [0.8631960153579712, 0.263247013092041, 0.5174959897994995, 0.05863400176167488, -0.3900029957294464, 0.27854299545288086, -0.40011298656463623, 0.40071699023246765, -0.7090160250663757, -0.9196119904518127, 0.9612299799919128, 0.6874600052833557, 0.541221022605896, -0.7337129712104797, -0.3373059928417206, 0.13546699285507202, 0.10960599780082703, 0.21394099295139313, -0.19089600443840027, -0.5100950002670288, -1.150473952293396, -0.8932610154151917, 0.07104899734258652, 0.23371000587940216, 0.7932379841804504, 0.06460700184106827, -0.02802800014615059, -0.5677940249443054, -1.0890710353851318, -0.6176170110702515, -0.04035000130534172, -1.1516809463500977]}, {"pos": 25, "score_masked": 0.46916666626930237, "weight": 0.012517540715634823, "k": [0.3009360134601593, 0.47129198908805847, 0.4108929932117462, -0.6876479983329773, -0.334553986787796, 0.6275500059127808, 0.533420979976654, 0.3469899892807007, 0.06859800219535828, -1.076874017715454, 0.6961290240287781, -0.3215160071849823, -0.16588200628757477, -0.1384350061416626, 0.023341000080108643, -0.0841279998421669, 0.037654999643564224, 0.2331790030002594, 0.46431899070739746, 0.25110000371932983, -0.8654559850692749, -0.5786899924278259, -0.8516600131988525, -0.028696000576019287, -0.03748200088739395, 0.38298600912094116, -0.7048490047454834, -0.11419700086116791, -0.47231200337409973, -0.4548650085926056, -0.28871798515319824, 0.17536699771881104], "v": [1.0120600461959839, -0.3940190076828003, 0.3514629900455475, -0.5949389934539795, 0.22696900367736816, 0.6199880242347717, 0.6000210046768188, 0.4294010102748871, 0.5649600028991699, 0.19121100008487701, -0.5073869824409485, -0.22046999633312225, 0.3388200104236603, -0.3445430099964142, -0.03476100042462349, 1.2104530334472656, 0.14590099453926086, 1.3443289995193481, -0.3662779927253723, 0.9766899943351746, 0.3956179916858673, -0.9575380086898804, -0.5815320014953613, -0.06441099941730499, -0.914546012878418, 0.3057279884815216, -0.1878969967365265, 0.35094401240348816, -0.19036699831485748, -0.0576540008187294, 1.0687639713287354, -0.4029270112514496]}]}, {"stage_idx": 6, "stage": "context_head", "context": [0.17810200154781342, -0.12185599654912949, -0.0653270035982132, -0.2573870122432709, 0.07101300358772278, -0.03826199844479561, 0.2750929892063141, 0.2810629904270172, -0.026538999751210213, 0.19365499913692474, 0.20375899970531464, -0.007430000230669975, 0.04189300164580345, -0.02094000019133091, 0.1346309930086136, 0.22431699931621552, -0.04641399905085564, 0.17186099290847778, -0.014659999869763851, 0.0982159972190857, -0.018900999799370766, -0.17400899529457092, -0.1790419965982437, 0.11521799862384796, -0.012734999880194664, 0.20222100615501404, 0.12823399901390076, 0.27181100845336914, -0.0869629979133606, 0.21305400133132935, 0.01461500022560358, 0.009991999715566635]}]}, {"head": 4, "head_dim": 32, "trace": [{"stage_idx": 0, "stage": "q_after_proj_rope", "q": [-0.4660379886627197, -0.5310389995574951, -0.17308500409126282, -0.6805620193481445, -0.5232089757919312, 0.17557500302791595, -0.44480100274086, -0.08330199867486954, 0.049910999834537506, -0.058949001133441925, 0.26325100660324097, 0.8200650215148926, 0.25166401267051697, -0.41951000690460205, -0.08036600053310394, 0.7991750240325928, 0.6627020239830017, -0.3556230068206787, 0.3075900077819824, 0.17383399605751038, -0.7051929831504822, 0.4206179976463318, 0.40132299065589905, 0.4241580069065094, -0.1346839964389801, 0.12766599655151367, -0.1809310019016266, -0.5253890156745911, -0.7364299893379211, 0.3573859930038452, -0.30123499035835266, -0.062199998646974564]}, {"stage_idx": 1, "stage": "scores_raw", "scores": [-0.09286600351333618, 0.8638250231742859, 0.06008699908852577, -0.27924999594688416, 0.24390199780464172, -0.28817200660705566, -0.21733200550079346, 0.09558899700641632, -0.5648900270462036, 0.03484199941158295, -0.02688400074839592, 0.14024600386619568, -0.05341799929738045, 0.041120998561382294, -0.28745999932289124, 0.09866999834775925, -0.08345799893140793, -0.24213600158691406, 0.09558899700641632, -0.1789650022983551, -0.10770700126886368, 0.06008699908852577, 0.20504100620746613, 0.36017099022865295, -0.17288200557231903, 0.1572120040655136, 0.10428900271654129, -0.333950012922287, -0.08345799893140793, 0.06090100109577179, -0.1491439938545227, 0.07355800271034241, 0.1572120040655136, 0.22613799571990967, 0.1217769980430603, -0.08295399695634842, 0.49862900376319885, -0.2961210012435913, -0.5517020225524902, 0.0816200003027916, -0.13833199441432953, -0.23105500638484955, 0.12348999828100204, 0.7106379866600037, 0.06008699908852577, -0.5084480047225952, -0.33292001485824585, -0.13833199441432953, -0.24747000634670258, -0.036309998482465744, 0.2188500016927719, 0.40875399112701416, 0.22919400036334991, -0.3540169894695282, -0.4413270056247711, -0.03380899876356125, 0.06008699908852577, -0.15179799497127533, -0.15179799497127533, -0.42946499586105347, 0.008418000303208828, 0.33098000288009644, -0.14098800718784332, 0.18153999745845795, -0.08907199651002884, 0.23935900628566742, 0.06008699908852577, -0.03282900154590607, -0.08907199651002884, 0.19596199691295624, -0.4413270056247711, -0.13833199441432953, -0.21253199875354767, -0.0576540008187294, 0.35694199800491333, 0.28901201486587524, 0.09558899700641632, -0.13833199441432953, 0.007977000437676907, -0.033879999071359634, 0.25039198994636536, 0.09558899700641632, -0.08345799893140793, 0.18882499635219574, -0.03560899943113327, -0.06196200102567673, 0.31431201100349426, 0.15471699833869934, 0.06008699908852577, -0.12969699501991272, 0.33098000288009644, 0.1572120040655136, -0.1684429943561554, -0.08281899988651276, -0.08907199651002884, 0.17026600241661072, 0.26441898941993713, 0.03422499820590019, -0.4691320061683655, -0.14322400093078613, -0.19275200366973877, 0.2009260058403015, 0.08053400367498398, 0.3621549904346466, 0.10068599879741669, -0.007937000133097172, -0.01512600015848875, -0.08292999863624573, 0.17026600241661072, 0.21610400080680847, -0.3651669919490814, -0.0076939999125897884, 0.2218949943780899, 0.3846440017223358, 0.04994700103998184, -0.18852999806404114, -0.03282900154590607, 0.1572120040655136, 0.2188500016927719, -0.07469599694013596, -0.4413270056247711, -0.13833199441432953, 0.33098000288009644, 0.1572120040655136, 0.20835000276565552, -0.030595999211072922, 0.2159689962863922, 0.06008699908852577]}, {"stage_idx": 2, "stage": "scores_masked", "scores": [-0.09286600351333618, 0.8638250231742859, 0.06008699908852577, -0.27924999594688416, 0.24390199780464172, -0.28817200660705566, -0.21733200550079346, 0.09558899700641632, -0.5648900270462036, 0.03484199941158295, -0.02688400074839592, 0.14024600386619568, -0.05341799929738045, 0.041120998561382294, -0.28745999932289124, 0.09866999834775925, -0.08345799893140793, -0.24213600158691406, 0.09558899700641632, -0.1789650022983551, -0.10770700126886368, 0.06008699908852577, 0.20504100620746613, 0.36017099022865295, -0.17288200557231903, 0.1572120040655136, 0.10428900271654129, -0.333950012922287, -0.08345799893140793, 0.06090100109577179, -0.1491439938545227, 0.07355800271034241, 0.1572120040655136, 0.22613799571990967, 0.1217769980430603, -0.08295399695634842, 0.49862900376319885, -0.2961210012435913, -0.5517020225524902, 0.0816200003027916, -0.13833199441432953, -0.23105500638484955, 0.12348999828100204, 0.7106379866600037, 0.06008699908852577, -0.5084480047225952, -0.33292001485824585, -0.13833199441432953, -0.24747000634670258, -0.036309998482465744, 0.2188500016927719, 0.40875399112701416, 0.22919400036334991, -0.3540169894695282, -0.4413270056247711, -0.03380899876356125, 0.06008699908852577, -0.15179799497127533, -0.15179799497127533, -0.42946499586105347, 0.008418000303208828, 0.33098000288009644, -0.14098800718784332, 0.18153999745845795, -0.08907199651002884, 0.23935900628566742, 0.06008699908852577, -0.03282900154590607, -0.08907199651002884, 0.19596199691295624, -0.4413270056247711, -0.13833199441432953, -0.21253199875354767, -0.0576540008187294, 0.35694199800491333, 0.28901201486587524, 0.09558899700641632, -0.13833199441432953, 0.007977000437676907, -0.033879999071359634, 0.25039198994636536, 0.09558899700641632, -0.08345799893140793, 0.18882499635219574, -0.03560899943113327, -0.06196200102567673, 0.31431201100349426, 0.15471699833869934, 0.06008699908852577, -0.12969699501991272, 0.33098000288009644, 0.1572120040655136, -0.1684429943561554, -0.08281899988651276, -0.08907199651002884, 0.17026600241661072, 0.26441898941993713, 0.03422499820590019, -0.4691320061683655, -0.14322400093078613, -0.19275200366973877, 0.2009260058403015, 0.08053400367498398, 0.3621549904346466, 0.10068599879741669, -0.007937000133097172, -0.01512600015848875, -0.08292999863624573, 0.17026600241661072, 0.21610400080680847, -0.3651669919490814, -0.0076939999125897884, 0.2218949943780899, 0.3846440017223358, 0.04994700103998184, -0.18852999806404114, -0.03282900154590607, 0.1572120040655136, 0.2188500016927719, -0.07469599694013596, -0.4413270056247711, -0.13833199441432953, 0.33098000288009644, 0.1572120040655136, 0.20835000276565552, -0.030595999211072922, 0.2159689962863922, 0.06008699908852577]}, {"stage_idx": 3, "stage": "weights_softmax", "weights": [0.00686000008136034, 0.01785700023174286, 0.007993999868631363, 0.0056940000504255295, 0.009607000276446342, 0.005642999894917011, 0.006056999787688255, 0.008283000439405441, 0.004279000218957663, 0.007794999983161688, 0.007327999919652939, 0.008661000058054924, 0.007135999854654074, 0.00784400012344122, 0.005646999925374985, 0.008307999931275845, 0.006924999877810478, 0.0059090000577270985, 0.008283000439405441, 0.0062939999625086784, 0.006759000010788441, 0.007993999868631363, 0.009240999817848206, 0.010790999978780746, 0.006333000026643276, 0.008809000253677368, 0.00835500005632639, 0.0053900000639259815, 0.006924999877810478, 0.00800000037997961, 0.0064849997870624065, 0.008101999759674072, 0.008809000253677368, 0.009437999688088894, 0.008503000251948833, 0.006928000133484602, 0.012393999844789505, 0.005597999785095453, 0.004335999954491854, 0.008167999796569347, 0.006554999854415655, 0.005975000094622374, 0.008516999892890453, 0.015320999547839165, 0.007993999868631363, 0.004526999779045582, 0.005396000109612942, 0.006554999854415655, 0.005876999814063311, 0.007259000092744827, 0.009368999861180782, 0.011328999884426594, 0.009467000141739845, 0.005282999947667122, 0.0048420000821352005, 0.007277000229805708, 0.007993999868631363, 0.006467000115662813, 0.006467000115662813, 0.004898999817669392, 0.007590999826788902, 0.010480999946594238, 0.0065379999577999115, 0.009026000276207924, 0.00688599981367588, 0.009562999941408634, 0.007993999868631363, 0.007284999825060368, 0.00688599981367588, 0.009157000109553337, 0.0048420000821352005, 0.006554999854415655, 0.006085999775677919, 0.00710600009188056, 0.01075700018554926, 0.010049999691545963, 0.008283000439405441, 0.006554999854415655, 0.007588000036776066, 0.007277000229805708, 0.009669999592006207, 0.008283000439405441, 0.006924999877810478, 0.009092000313103199, 0.0072639998979866505, 0.007075000088661909, 0.01030800025910139, 0.008786999620497227, 0.007993999868631363, 0.006612000055611134, 