{"layer_index": 0, "sample_index": 0, "token_index": 0, "num_heads": 8, "head_dim": 32, "rope": true, "rope_note": "Q,K are AFTER RoPE if enabled", "formula": ["Q = LN(x)·WQ, K = LN(x)·WK, V = LN(x)·WV", "scores_raw = (QK^T)/√d", "scores_masked = scores_raw + masks", "weights_softmax = softmax(scores_masked)", "weights_after_dropout = dropout(weights_softmax)", "context_h(t) = Σ_j weights_after_dropout[j] · V[j]", "Concat = [context_h]_h ; AttnOut = Concat · W_O^T"], "merge": {"concat_vector": [0.0012130738468840718, -0.005950722377747297, 0.09479766339063644, -0.11924120038747787, 0.0338972732424736, -0.06698848307132721, 0.08181649446487427, 0.08246452361345291, 0.10256753116846085, 0.12386103719472885, -0.09457649290561676, -0.02544524148106575, 0.1126246377825737, 0.0897853747010231, 0.00840972363948822, 0.02081204019486904, -0.05705943703651428, 0.10314254462718964, -0.056180231273174286, 0.014945627190172672, 0.07910315692424774, 0.09854099154472351, -0.015475344844162464, 0.017170920968055725, -0.0718185305595398, -0.0006508657243102789, -0.031471747905015945, -0.029623761773109436, -0.04131966456770897, -0.1539776474237442, 0.06467604637145996, 0.011469954624772072, 0.021418355405330658, -0.00196439353749156, 0.08298376202583313, 0.018955837935209274, -0.07966473698616028, -0.02128656953573227, 0.1854943186044693, 0.019727244973182678, -0.09593608230352402, -0.07035790383815765, 0.15392597019672394, -0.05514101684093475, 0.0350855216383934, 0.04126719757914543, 0.038477011024951935, -0.03515195846557617, 0.054136972874403, 0.09262175112962723, 0.11478383094072342, -0.11098901927471161, -0.035439785569906235, 0.06101327762007713, -0.023668106645345688, 0.005802421364933252, 0.16337960958480835, -0.031004685908555984, -0.08573023974895477, 0.019707785919308662, 0.20277179777622223, 0.049641046673059464, -0.025921741500496864, -0.05642588436603546, 0.03027300350368023, -0.003676619613543153, 0.06851867586374283, 0.09549760073423386, 0.060556262731552124, -0.059600330889225006, -0.03793158754706383, -0.0741475373506546, -0.06120719760656357, -0.09705320000648499, -0.07398486137390137, -0.09429103881120682, 0.07540744543075562, 0.05139494314789772, -0.02001972869038582, -0.23546840250492096, -0.10532650351524353, 0.1309812217950821, 0.10750462859869003, -0.15357142686843872, -0.05969630181789398, -0.07408294081687927, -0.01972435787320137, 0.028775878250598907, -0.0028357317205518484, 0.008397558704018593, 0.004313092678785324, -0.060798972845077515, -0.019174056127667427, 0.11978357285261154, 0.09046723693609238, 0.048690926283597946, -0.07443581521511078, -0.08275709301233292, -0.09080751985311508, -0.06174689158797264, -0.19060587882995605, 0.05193640664219856, 0.11787547916173935, -0.06941407173871994, 0.0493868812918663, 0.06825926899909973, 0.0092522744089365, 0.009897133335471153, -0.03731590136885643, 0.012450012378394604, 0.016083594411611557, 0.08723026514053345, 0.18128983676433563, -0.068890780210495, 0.12952294945716858, -0.061222776770591736, 0.021333619952201843, 0.04142246022820473, -0.06885547935962677, -0.10010180622339249, 0.12009964883327484, -0.04701133817434311, 0.09143541008234024, 0.059179939329624176, -0.036862872540950775, 0.0689774826169014, 0.03427531570196152, 0.006788284983485937, 0.06327086687088013, 0.13854937255382538, 0.0643668845295906, -0.05481109395623207, 0.048509396612644196, -0.0920359194278717, -0.06066805124282837, 0.09660901129245758, 0.035478148609399796, -0.06570085138082504, -0.04577948525547981, -0.0069579752162098885, 0.03128344193100929, -0.13278526067733765, 0.10505757480859756, 0.1040421724319458, 0.11178579181432724, -0.007448641583323479, -0.07924768328666687, -0.05084998905658722, 0.024169906973838806, -0.020680855959653854, 0.038153793662786484, -0.04365817829966545, 0.07528327405452728, -0.07304618507623672, 0.009750560857355595, -0.011913610622286797, -0.13006314635276794, -0.0714837983250618, 0.027032937854528427, 0.11061999201774597, -0.0002737533941399306, -0.027476834133267403, 0.06020822748541832, -0.10708163678646088, 0.015485121868550777, -0.006965754088014364, -0.09958887845277786, 0.11919651180505753, -0.012923328205943108, 0.07950548827648163, -0.15709592401981354, 0.025056103244423866, 0.02455136366188526, 0.10018713772296906, 0.013647380284965038, 0.04766750708222389, -0.036515749990940094, -0.010881016962230206, 0.08335908502340317, -0.02118062973022461, 0.013502049259841442, -0.057091131806373596, 0.061812400817871094, -0.03005567006766796, -0.13407611846923828, -0.12444628775119781, -0.1701502799987793, -0.1421017050743103, 0.05095406249165535, -0.16792669892311096, -0.15874294936656952, -0.025367330759763718, -0.09141400456428528, 0.15482325851917267, -0.04419039562344551, -0.02139589749276638, -0.012775436043739319, -0.030569370836019516, 0.12949518859386444, 0.08318110555410385, 0.05993514135479927, 0.15118065476417542, 0.008239698596298695, 0.021901970729231834, 0.05173010751605034, 0.04086234048008919, 0.1001787781715393, -0.0542132630944252, 0.04094313085079193, -0.03494652360677719, 0.030276356264948845, -0.1320497989654541, 0.11616083234548569, -0.09991173446178436, 0.04610138759016991, -0.08327356725931168, -0.11198605597019196, 0.06783537566661835, -0.05346845090389252, 0.039851848036050797, 0.32360178232192993, 0.06712336093187332, -0.003699075896292925, -0.06080373376607895, 0.00019052036805078387, -0.06423275172710419, -0.129472017288208, 0.008791054598987103, 0.0038819799665361643, -0.05738604813814163, 0.07084769010543823, 0.01656096987426281, -0.04841197654604912, -0.08148767054080963, -0.05337680131196976, -0.010375586338341236, -0.07124368846416473, 0.10767144709825516, -0.03802758455276489, -0.013813292607665062, -0.000473374268040061, -0.1029040515422821, -0.15804411470890045, -0.06102386489510536, 0.06328976154327393, 0.049252599477767944, 0.039648137986660004, 0.033530671149492264, -0.06312727928161621, -0.14768731594085693, -0.009806336835026741, 0.02831704169511795, 0.18775148689746857, 0.11729474365711212, 0.017811309546232224, -0.14731186628341675], "wo_output": [0.030964886769652367, -0.10017140209674835, 0.06892292201519012, 0.008347691036760807, 0.09327086806297302, 0.052595920860767365, 0.04892653599381447, 0.012812158092856407, -0.05873429402709007, 0.03076261654496193, -0.013884827494621277, -0.023578539490699768, -0.029080882668495178, 0.09961354732513428, 0.04318546503782272, 0.07257907837629318, 0.07832445204257965, -0.12386705726385117, 0.08888547122478485, 0.005031414330005646, -0.1556476652622223, -0.03261200338602066, 0.05692724511027336, 0.013250825926661491, -0.009008776396512985, -0.012487277388572693, 0.05678144097328186, 0.02503661997616291, 0.006887156516313553, 0.06203854829072952, -0.022256508469581604, -0.0015729364240542054, -0.05088920518755913, 0.15001937747001648, -0.03755064308643341, -0.12755267322063446, 0.11621614545583725, -0.0613471195101738, -0.012220341712236404, -0.044762320816516876, -0.09941039234399796, -0.11273156106472015, 0.017989378422498703, -0.002805802971124649, 0.02782900631427765, -0.005630406551063061, -0.027383260428905487, 0.015371548943221569, -0.05808917060494423, -0.03685702383518219, -0.017339350655674934, -0.07647960633039474, -0.04457944631576538, 0.04046765714883804, 0.017251301556825638, 0.00218186154961586, -0.003943007439374924, -0.04751751571893692, -0.012705094181001186, 0.015275046229362488, 0.006521191447973251, 0.0247228741645813, -0.013368092477321625, -0.1302454173564911, 0.0160171277821064, 0.02330467477440834, -0.07325615733861923, 0.007074721157550812, 0.04466533660888672, -0.00567045621573925, -0.04115281626582146, 0.05966345965862274, -0.031233135610818863, -0.029128503054380417, 0.007989317178726196, -0.008263051509857178, -0.030883461236953735, 0.10558351874351501, -0.0002101575955748558, 0.11686162650585175, 0.0528852641582489, 0.04390893876552582, -0.08459630608558655, 0.00015479419380426407, 0.0712277889251709, -0.056236036121845245, 0.06715863198041916, -0.02209334447979927, 0.03075515292584896, 0.010220472700893879, -0.08101257681846619, 0.05615702271461487, 0.0804053544998169, 0.0015994086861610413, 0.028259094804525375, 0.013267546892166138, -0.021851209923624992, -0.08427136391401291, -0.0784212127327919, -0.01811370626091957, -0.01041373424232006, 0.10809355974197388, 0.06855623424053192, -0.04324512928724289, -0.021174274384975433, 0.005236264318227768, 0.10207918286323547, -0.06629309803247452, -0.010894931852817535, -0.00834318995475769, -0.035611558705568314, 0.01008998230099678, -0.024781618267297745, -0.09893213212490082, 0.07412698864936829, 0.09068126231431961, 0.004722282290458679, -0.013723563402891159, 0.04816809296607971, -0.02315530925989151, -0.01035800576210022, -0.02320774272084236, 0.017163407057523727, 0.0391727052628994, 0.03531549125909805, 0.008420716039836407, 0.020787116140127182, -0.0111733078956604, -0.04409944266080856, 0.035155754536390305, -0.025828097015619278, -0.10922425240278244, -0.0826902687549591, 0.12567177414894104, 0.026487134397029877, -0.04284786432981491, -0.0015171137638390064, 0.046939872205257416, 0.01221633329987526, -0.05195959657430649, 0.05443258583545685, -0.10677450150251389, 0.097699835896492, -0.04851136356592178, -0.003477342426776886, 0.00117415189743042, -0.00499764084815979, 0.04538784176111221, -0.030718013644218445, 0.019813477993011475, 0.1797456294298172, -0.04523955658078194, -0.06809341162443161, 0.09567701816558838, -0.026184089481830597, -0.0045911893248558044, 0.011592165566980839, -0.067400261759758, -0.018557362258434296, -0.03747887909412384, 0.1179255023598671, 0.008435331284999847, 0.02441382221877575, 0.02865326777100563, -0.09559579938650131, -0.016967277973890305, -0.020304236561059952, -0.07689942419528961, -0.002233335515484214, 0.0630129799246788, -0.09640257060527802, -0.02153773605823517, 0.012218380346894264, 0.039043523371219635, -0.03506477177143097, 0.0424746498465538, -0.00987672433257103, -0.07115688920021057, -0.007579252123832703, -0.03165475279092789, -0.06922559440135956, 0.048897162079811096, -0.06952154636383057, 0.09223215281963348, 0.02269764617085457, -0.05318501591682434, -0.055946364998817444, 0.03604879230260849, -0.006504599004983902, 0.044265709817409515, 0.05222020298242569, 0.019007280468940735, -0.15013830363750458, 0.0843573808670044, -0.025394022464752197, -0.04394102841615677, -0.012046664953231812, -0.07805061340332031, 0.08761607855558395, 0.03029753267765045, 0.01261112466454506, 0.01209067553281784, -0.03169500082731247, -0.05670255050063133, 0.0558638721704483, -0.036545366048812866, 0.017257146537303925, 0.04697926715016365, -0.08970197290182114, -0.020820556208491325, 0.03862019255757332, 0.024076957255601883, 0.03974069654941559, -0.0002148505300283432, 0.033889129757881165, -0.0010906048119068146, 0.0015555601567029953, -0.08005163818597794, -0.02068549394607544, -0.06938014179468155, -0.05569368600845337, 0.07406290620565414, 0.048666950315237045, -0.0036540739238262177, 0.003695286810398102, 0.018733879551291466, -0.014173848554491997, 0.058534931391477585, -0.08376838266849518, 0.013589839451014996, -0.044248372316360474, 0.06259214133024216, -0.10304278135299683, -0.007153868675231934, -0.02199826017022133, -0.018224578350782394, 0.002455279231071472, -0.05286591500043869, -0.05147400498390198, -0.01516532152891159, -0.03837532550096512, 0.01883305422961712, -0.01866891048848629, 0.008397761732339859, 0.08332328498363495, -0.12207133322954178, -0.06137954816222191, 0.09725841879844666, 0.040842633694410324, -0.011737126857042313, 0.10860450565814972, 0.0014327839016914368, 0.02972622774541378, 0.06034738942980766, 0.015029707923531532, 0.0685364231467247]}, "heads": [{"head": 0, "head_dim": 32, "trace": [{"stage_idx": 0, "stage": "q_after_proj_rope", "q": [1.1236029863357544, -0.49073299765586853, -0.17060799896717072, -0.06130199879407883, 0.4008069932460785, -0.5601670145988464, -0.16322599351406097, -0.14644399285316467, -0.13441500067710876, -0.6593819856643677, 0.15502400696277618, -0.06510400027036667, -0.12627099454402924, -0.3735089898109436, -0.45158499479293823, 0.6206480264663696, -0.27258801460266113, 0.2214760035276413, 0.37102100253105164, 0.21653099358081818, 0.3523460030555725, 0.38690298795700073, -0.04480300098657608, -0.4798299968242645, -1.076964020729065, -0.1520649939775467, 0.23201000690460205, -0.057211000472307205, 0.15521399676799774, 0.4755899906158447, -0.16332599520683289, -0.007521999999880791]}, {"stage_idx": 1, "stage": "scores_raw", "scores": [-0.24599799513816833, -0.2910130023956299, 0.3027400076389313, 0.1496949940919876, 0.1493220031261444, -0.018100999295711517, 0.06809400022029877, 0.04559199884533882, 0.40323498845100403, 0.09938199818134308, -0.1941480040550232, 0.18168500065803528, 0.06401699781417847, 0.03382899984717369, -0.5769569873809814, -0.23678399622440338, -0.021328000351786613, -0.32812899351119995, 0.04559199884533882, 0.0696209967136383, -0.012636000290513039, 0.3027400076389313, -0.23438699543476105, 0.005284000188112259, 0.18819400668144226, 0.09012000262737274, 0.09470299631357193, 0.002492999890819192, -0.021328000351786613, 0.21163299679756165, -0.11350099742412567, 0.3969559967517853, 0.09012000262737274, -0.17467500269412994, -0.12640799582004547, -0.12551599740982056, -0.3549410104751587, 0.07991400361061096, 0.0919559970498085, 0.02691599912941456, 0.21351799368858337, -0.059349000453948975, 0.06297899782657623, 0.15486299991607666, 0.3027400076389313, -0.2649939954280853, 0.3382050096988678, 0.21351799368858337, -0.11557900160551071, 0.1630460023880005, -0.05076000094413757, -0.2882179915904999, -0.024776000529527664, 0.256289005279541, 0.6620759963989258, 0.22299900650978088, 0.3027400076389313, 0.3735109865665436, 0.3735109865665436, -0.22599300742149353, -0.04541099816560745, 0.6208760142326355, 0.00930199958384037, -0.10570500046014786, 0.2963170111179352, -0.08551499992609024, 0.3027400076389313, 0.5674369931221008, 0.2963170111179352, 0.6538619995117188, 0.6620759963989258, 0.21351799368858337, -0.18381600081920624, 0.043935999274253845, 0.10426399856805801, -0.03357499837875366, 0.04559199884533882, 0.21351799368858337, 0.4398820102214813, -0.15087799727916718, -0.014867999590933323, 0.04559199884533882, -0.021328000351786613, 0.5439890027046204, 0.5916799902915955, -0.3046860098838806, 0.08302199840545654, -0.07589200139045715, 0.3027400076389313, -0.334852010011673, 0.6208760142326355, 0.09012000262737274, 0.23815999925136566, -0.07439500093460083, 0.2963170111179352, -0.09058599919080734, -0.09584099799394608, -0.11393799632787704, 0.30893799662590027, 0.020532000809907913, 0.35064899921417236, 0.019850000739097595, 0.039698000997304916, -0.3984290063381195, -0.22882799804210663, 0.27410998940467834, -0.28126001358032227, -0.14841100573539734, -0.09058599919080734, -0.04777999967336655, 0.07965099811553955, -0.44342198967933655, -0.17494399845600128, 0.3869610130786896, 0.1704850047826767, 0.11770500242710114, 0.5674369931221008, 0.09012000262737274, -0.05076000094413757, 0.023715000599622726, 0.6620759963989258, 0.21351799368858337, 0.6208760142326355, 0.09012000262737274, -0.008985999971628189, -0.3573110103607178, 0.06092799827456474, 0.3027400076389313]}, {"stage_idx": 2, "stage": "scores_masked", "scores": [-0.24599799513816833, -0.2910130023956299, 0.3027400076389313, 0.1496949940919876, 0.1493220031261444, -0.018100999295711517, 0.06809400022029877, 0.04559199884533882, 0.40323498845100403, 0.09938199818134308, -0.1941480040550232, 0.18168500065803528, 0.06401699781417847, 0.03382899984717369, -0.5769569873809814, -0.23678399622440338, -0.021328000351786613, -0.32812899351119995, 0.04559199884533882, 0.0696209967136383, -0.012636000290513039, 0.3027400076389313, -0.23438699543476105, 0.005284000188112259, 0.18819400668144226, 0.09012000262737274, 0.09470299631357193, 0.002492999890819192, -0.021328000351786613, 0.21163299679756165, -0.11350099742412567, 0.3969559967517853, 0.09012000262737274, -0.17467500269412994, -0.12640799582004547, -0.12551599740982056, -0.3549410104751587, 0.07991400361061096, 0.0919559970498085, 0.02691599912941456, 0.21351799368858337, -0.059349000453948975, 0.06297899782657623, 0.15486299991607666, 0.3027400076389313, -0.2649939954280853, 0.3382050096988678, 0.21351799368858337, -0.11557900160551071, 0.1630460023880005, -0.05076000094413757, -0.2882179915904999, -0.024776000529527664, 0.256289005279541, 0.6620759963989258, 0.22299900650978088, 0.3027400076389313, 0.3735109865665436, 0.3735109865665436, -0.22599300742149353, -0.04541099816560745, 0.6208760142326355, 0.00930199958384037, -0.10570500046014786, 0.2963170111179352, -0.08551499992609024, 0.3027400076389313, 0.5674369931221008, 0.2963170111179352, 0.6538619995117188, 0.6620759963989258, 0.21351799368858337, -0.18381600081920624, 0.043935999274253845, 0.10426399856805801, -0.03357499837875366, 0.04559199884533882, 0.21351799368858337, 0.4398820102214813, -0.15087799727916718, -0.014867999590933323, 0.04559199884533882, -0.021328000351786613, 0.5439890027046204, 0.5916799902915955, -0.3046860098838806, 0.08302199840545654, -0.07589200139045715, 0.3027400076389313, -0.334852010011673, 0.6208760142326355, 0.09012000262737274, 0.23815999925136566, -0.07439500093460083, 0.2963170111179352, -0.09058599919080734, -0.09584099799394608, -0.11393799632787704, 0.30893799662590027, 0.020532000809907913, 0.35064899921417236, 0.019850000739097595, 0.039698000997304916, -0.3984290063381195, -0.22882799804210663, 0.27410998940467834, -0.28126001358032227, -0.14841100573539734, -0.09058599919080734, -0.04777999967336655, 0.07965099811553955, -0.44342198967933655, -0.17494399845600128, 0.3869610130786896, 0.1704850047826767, 0.11770500242710114, 0.5674369931221008, 0.09012000262737274, -0.05076000094413757, 0.023715000599622726, 0.6620759963989258, 0.21351799368858337, 0.6208760142326355, 0.09012000262737274, -0.008985999971628189, -0.3573110103607178, 0.06092799827456474, 0.3027400076389313]}, {"stage_idx": 3, "stage": "weights_softmax", "weights": [0.0054410002194345, 0.005200999788939953, 0.009417999535799026, 0.008081999607384205, 0.008078999817371368, 0.006833000108599663, 0.007449000142514706, 0.007282999809831381, 0.010413999669253826, 0.007685000076889992, 0.0057299998588860035, 0.008345000445842743, 0.007418000139296055, 0.007197999861091375, 0.0039079999551177025, 0.005491000134497881, 0.006810999941080809, 0.0050119999796152115, 0.007282999809831381, 0.007459999993443489, 0.0068709999322891235, 0.009417999535799026, 0.005504000000655651, 0.006994999945163727, 0.008399000391364098, 0.007613999769091606, 0.0076489998027682304, 0.006976000033318996, 0.006810999941080809, 0.008597999811172485, 0.006211999803781509, 0.010348999872803688, 0.007613999769091606, 0.005843000020831823, 0.006132000125944614, 0.006136999931186438, 0.0048790001310408115, 0.007536999881267548, 0.007627999875694513, 0.007147999946027994, 0.00861399993300438, 0.006556999869644642, 0.007410999853163958, 0.008124000392854214, 0.009417999535799026, 0.005338000133633614, 0.009758000262081623, 0.00861399993300438, 0.006198999937623739, 0.008190000429749489, 0.00661400007084012, 0.005216000135987997, 0.006787999998778105, 0.0089910002425313, 0.013491000048816204, 0.008697000332176685, 0.009417999535799026, 0.010108999907970428, 0.010108999907970428, 0.005551000125706196, 0.006649000104516745, 0.012946000322699547, 0.007023000158369541, 0.006260000169277191, 0.009358000010251999, 0.006388000212609768, 0.009417999535799026, 0.012272999621927738, 0.009358000010251999, 0.013380000367760658, 0.013491000048816204, 0.00861399993300438, 0.005789999850094318, 0.007271000184118748, 0.0077229999005794525, 0.00672800000756979, 0.007282999809831381, 0.00861399993300438, 0.010803000070154667, 0.00598399993032217, 0.006856000050902367, 0.007282999809831381, 0.006810999941080809, 0.011988000012934208, 0.012574000284075737, 0.0051310001872479916, 0.0075610000640153885, 0.0064500002190470695, 0.009417999535799026, 0.004978000186383724, 0.012946000322699547, 0.007613999769091606, 0.008829000405967236, 0.006459000054746866, 0.009358000010251999, 0.00635599996894598, 0.006322000175714493, 0.006209000013768673, 0.009476999752223492, 0.007102999836206436, 0.00988100003451109, 0.007098000030964613, 0.007240000180900097, 0.0046720001846551895, 0.005535000003874302, 0.009153000079095364, 0.005251999944448471, 0.005998999811708927, 0.00635599996894598, 0.006634000223129988, 0.007534999866038561, 0.004466000013053417, 0.005841000005602837, 0.01024600025266409, 0.00825200043618679, 0.007826999761164188, 0.012272999621927738, 0.007613999769091606, 0.00661400007084012, 0.00712500000372529, 0.013491000048816204, 0.00861399993300438, 0.012946000322699547, 0.007613999769091606, 0.006895999889820814, 0.004867999814450741, 0.007395000196993351, 0.009417999535799026], "sum": 1.0000001192092896}, {"stage_idx": 4, "stage": "weights_after_dropout", "weights": [0.0054410002194345, 0.005200999788939953, 0.009417999535799026, 0.008081999607384205, 0.008078999817371368, 0.006833000108599663, 0.007449000142514706, 0.007282999809831381, 0.010413999669253826, 0.007685000076889992, 0.0057299998588860035, 0.008345000445842743, 0.007418000139296055, 0.007197999861091375, 0.0039079999551177025, 0.005491000134497881, 0.006810999941080809, 0.0050119999796152115, 0.007282999809831381, 0.007459999993443489, 0.0068709999322891235, 0.009417999535799026, 0.005504000000655651, 0.006994999945163727, 0.008399000391364098, 0.007613999769091606, 0.0076489998027682304, 0.006976000033318996, 0.006810999941080809, 0.008597999811172485, 0.006211999803781509, 0.010348999872803688, 0.007613999769091606, 0.005843000020831823, 0.006132000125944614, 0.006136999931186438, 0.0048790001310408115, 0.007536999881267548, 0.007627999875694513, 0.007147999946027994, 0.00861399993300438, 0.006556999869644642, 0.007410999853163958, 0.008124000392854214, 0.009417999535799026, 0.005338000133633614, 0.009758000262081623, 0.00861399993300438, 0.006198999937623739, 0.008190000429749489, 0.00661400007084012, 0.005216000135987997, 0.006787999998778105, 0.0089910002425313, 0.013491000048816204, 0.008697000332176685, 0.009417999535799026, 0.010108999907970428, 0.010108999907970428, 0.005551000125706196, 0.006649000104516745, 0.012946000322699547, 0.007023000158369541, 0.006260000169277191, 0.009358000010251999, 0.006388000212609768, 0.009417999535799026, 0.012272999621927738, 0.009358000010251999, 0.013380000367760658, 0.013491000048816204, 0.00861399993300438, 0.005789999850094318, 0.007271000184118748, 0.0077229999005794525, 0.00672800000756979, 0.007282999809831381, 0.00861399993300438, 0.010803000070154667, 0.00598399993032217, 0.006856000050902367, 0.007282999809831381, 0.006810999941080809, 0.011988000012934208, 0.012574000284075737, 0.0051310001872479916, 0.0075610000640153885, 0.0064500002190470695, 0.009417999535799026, 0.004978000186383724, 0.012946000322699547, 0.007613999769091606, 0.008829000405967236, 0.006459000054746866, 0.009358000010251999, 0.00635599996894598, 0.006322000175714493, 0.006209000013768673, 0.009476999752223492, 0.007102999836206436, 0.00988100003451109, 0.007098000030964613, 0.007240000180900097, 0.0046720001846551895, 0.005535000003874302, 0.009153000079095364, 0.005251999944448471, 0.005998999811708927, 0.00635599996894598, 0.006634000223129988, 0.007534999866038561, 0.004466000013053417, 0.005841000005602837, 0.01024600025266409, 0.00825200043618679, 0.007826999761164188, 0.012272999621927738, 0.007613999769091606, 0.00661400007084012, 0.00712500000372529, 0.013491000048816204, 0.00861399993300438, 0.012946000322699547, 0.007613999769091606, 0.006895999889820814, 0.004867999814450741, 0.007395000196993351, 0.009417999535799026], "sum": 1.0000001192092896, "dropout_applied": false}, {"stage_idx": 5, "stage": "topk_after_dropout", "k": 5, "topk": [{"pos": 54, "score_masked": 0.6620760560035706, "weight": 0.013490722514688969, "k": [0.37856999039649963, -0.5644329786300659, -0.6727319955825806, 1.2509510517120361, 0.32255101203918457, 0.09514199942350388, -0.4078249931335449, -0.41817501187324524, 0.04841399937868118, -0.891219973564148, 0.4536280035972595, 0.5271620154380798, -0.44871100783348083, -0.29163500666618347, 0.32476499676704407, 0.9059290289878845, -0.5738239884376526, -0.30128800868988037, -0.9169179797172546, 0.46218299865722656, 0.6855829954147339, -0.8212969899177551, -0.1879429966211319, -0.659400999546051, -1.2308130264282227, 0.46621501445770264, -0.5258309841156006, 0.44564101099967957, 0.11601600050926208, 0.6293879747390747, -0.49111300706863403, 0.02574400044977665], "v": [-1.0076489448547363, -0.43532800674438477, -0.1621139943599701, -0.37067699432373047, -1.232308030128479, -0.11547800153493881, 0.43354499340057373, 0.030869999900460243, -0.2713479995727539, -0.496398001909256, -0.060846999287605286, -0.4309220016002655, 0.5525720119476318, 0.029411999508738518, -0.26551198959350586, -1.0068140029907227, 0.16147199273109436, -0.009976999834179878, -0.3972089886665344, 0.4934769868850708, -0.043880000710487366, -0.10355199873447418, 0.3838210105895996, -0.7475410103797913, 0.36413800716400146, -0.5992329716682434, 0.22517800331115723, 0.06083500012755394, 0.9326859712600708, 0.12570300698280334, -1.0413490533828735, -0.7425969839096069]}, {"pos": 70, "score_masked": 0.6620760560035706, "weight": 0.013490722514688969, "k": [0.37856999039649963, -0.5644329786300659, -0.6727319955825806, 1.2509510517120361, 0.32255101203918457, 0.09514199942350388, -0.4078249931335449, -0.41817501187324524, 0.04841399937868118, -0.891219973564148, 0.4536280035972595, 0.5271620154380798, -0.44871100783348083, -0.29163500666618347, 0.32476499676704407, 0.9059290289878845, -0.5738239884376526, -0.30128800868988037, -0.9169179797172546, 0.46218299865722656, 0.6855829954147339, -0.8212969899177551, -0.1879429966211319, -0.659400999546051, -1.2308130264282227, 0.46621501445770264, -0.5258309841156006, 0.44564101099967957, 0.11601600050926208, 0.6293879747390747, -0.49111300706863403, 0.02574400044977665], "v": [-1.0076489448547363, -0.43532800674438477, -0.1621139943599701, -0.37067699432373047, -1.232308030128479, -0.11547800153493881, 0.43354499340057373, 0.030869999900460243, -0.2713479995727539, -0.496398001909256, -0.060846999287605286, -0.4309220016002655, 0.5525720119476318, 0.029411999508738518, -0.26551198959350586, -1.0068140029907227, 0.16147199273109436, -0.009976999834179878, -0.3972089886665344, 0.4934769868850708, -0.043880000710487366, -0.10355199873447418, 0.3838210105895996, -0.7475410103797913, 0.36413800716400146, -0.5992329716682434, 0.22517800331115723, 0.06083500012755394, 0.9326859712600708, 0.12570300698280334, -1.0413490533828735, -0.7425969839096069]}, {"pos": 120, "score_masked": 0.6620760560035706, "weight": 0.013490722514688969, "k": [0.37856999039649963, -0.5644329786300659, -0.6727319955825806, 1.2509510517120361, 0.32255101203918457, 0.09514199942350388, -0.4078249931335449, -0.41817501187324524, 0.04841399937868118, -0.891219973564148, 0.4536280035972595, 0.5271620154380798, -0.44871100783348083, -0.29163500666618347, 0.32476499676704407, 0.9059290289878845, -0.5738239884376526, -0.30128800868988037, -0.9169179797172546, 0.46218299865722656, 0.6855829954147339, -0.8212969899177551, -0.1879429966211319, -0.659400999546051, -1.2308130264282227, 0.46621501445770264, -0.5258309841156006, 0.44564101099967957, 0.11601600050926208, 0.6293879747390747, -0.49111300706863403, 0.02574400044977665], "v": [-1.0076489448547363, -0.43532800674438477, -0.1621139943599701, -0.37067699432373047, -1.232308030128479, -0.11547800153493881, 0.43354499340057373, 0.030869999900460243, -0.2713479995727539, -0.496398001909256, -0.060846999287605286, -0.4309220016002655, 0.5525720119476318, 0.029411999508738518, -0.26551198959350586, -1.0068140029907227, 0.16147199273109436, -0.009976999834179878, -0.3972089886665344, 0.4934769868850708, -0.043880000710487366, -0.10355199873447418, 0.3838210105895996, -0.7475410103797913, 0.36413800716400146, -0.5992329716682434, 0.22517800331115723, 0.06083500012755394, 0.9326859712600708, 0.12570300698280334, -1.0413490533828735, -0.7425969839096069]}, {"pos": 69, "score_masked": 0.6538616418838501, "weight": 0.01338035799562931, "k": [0.7650550007820129, -0.5307530164718628, -0.06167000159621239, 0.792527973651886, 0.04010799899697304, -0.2282859981060028, 0.8034170269966125, -0.8640779852867126, -0.27538999915122986, 0.1463399976491928, 0.34797099232673645, -0.2128710001707077, -0.4676379859447479, 1.090641975402832, 0.3083040118217468, 0.06734500080347061, -0.031626999378204346, 0.08177199959754944, 0.24163399636745453, -0.8838670253753662, 0.4236449897289276, -0.3935549855232239, 0.9262359738349915, -0.971904993057251, -1.8830679655075073, 0.822409987449646, 1.0594459772109985, 1.1143929958343506, -0.06816200166940689, 1.244547963142395, 0.6053119897842407, -0.07511000335216522], "v": [-0.7696530222892761, 1.0844180583953857, -0.38794898986816406, -0.06715100258588791, -0.708441972732544, 0.08369400352239609, 0.49178001284599304, -0.360164999961853, -0.3423449993133545, -0.8060809969902039, 0.07134199887514114, -0.6506900191307068, 0.4218969941139221, -0.22808699309825897, -1.4668099880218506, 0.6992499828338623, -0.2726939916610718, 0.03716700151562691, 0.33129000663757324, -0.0905039981007576, -0.155799001455307, -1.008437991142273, 0.10552900284528732, 0.408053994178772, 1.1198639869689941, 0.14943799376487732, 0.7791360020637512, 0.21574099361896515, -0.2086929976940155, -0.53398597240448, -0.9143850207328796, 0.6030009984970093]}, {"pos": 90, "score_masked": 0.6208759546279907, "weight": 0.012946197763085365, "k": [1.0713800191879272, -0.19794400036334991, -1.2555049657821655, 0.1607629954814911, 0.2880440056324005, -0.831142008304596, 0.01746400073170662, -0.19527000188827515, 0.6625649929046631, 0.2347330003976822, -1.408715009689331, -0.06705299764871597, -0.4908420145511627, -1.174461007118225, -0.855417013168335, -0.0014830000000074506, 0.36315399408340454, -0.1839279979467392, -0.48291999101638794, -0.7448279857635498, 0.465366005897522, 0.16704100370407104, 0.010228999890387058, -0.5410280227661133, -0.7904189825057983, -0.3239080011844635, -0.196724995970726, -0.26089200377464294, 0.237869992852211, 0.18206100165843964, 0.1873060017824173, -0.22679300606250763], "v": [0.422529011964798, -0.12830400466918945, -0.09116700291633606, -0.26940399408340454, -1.302804946899414, -0.26034098863601685, 0.9761419892311096, 0.23625299334526062, 0.7401660084724426, 0.6156539916992188, 0.13578300178050995, 0.6845279932022095, 0.5899559855461121, -0.21420800685882568, -0.2770000100135803, 1.13326096534729, 0.611748993396759, 0.6531890034675598, 0.034839000552892685, -0.4449560046195984, -0.04948899894952774, 0.4448530077934265, -0.08890099823474884, 0.28423601388931274, 0.23930099606513977, -0.08258599787950516, -0.33117198944091797, 0.21418699622154236, 0.12037800252437592, -0.556007981300354, 1.2963080406188965, 0.03585800155997276]}]}, {"stage_idx": 6, "stage": "context_head", "context": [0.0012130000395700336, -0.005950999911874533, 0.0947979986667633, -0.11924099922180176, 0.033897001296281815, -0.06698799878358841, 0.08181600272655487, 0.08246500045061111, 0.10256800055503845, 0.12386099994182587, -0.09457600116729736, -0.02544499933719635, 0.11262500286102295, 0.08978500217199326, 0.008410000242292881, 0.02081199921667576, -0.05705900117754936, 0.10314299911260605, -0.05618000030517578, 0.014945999719202518, 0.0791030004620552, 0.09854099899530411, -0.015475000254809856, 0.017170999199151993, -0.0718189999461174, -0.0006510000093840063, -0.03147200122475624, -0.029624000191688538, -0.04131999984383583, -0.15397800505161285, 0.06467600166797638, 0.011470000259578228]}]}, {"head": 1, "head_dim": 32, "trace": [{"stage_idx": 0, "stage": "q_after_proj_rope", "q": [-0.6531540155410767, 0.10043200105428696, 0.06231100112199783, 0.37368300557136536, 0.24008500576019287, -0.01809599995613098, -0.04876499995589256, -0.3476260006427765, 0.5459460020065308, 0.09136699885129929, 0.8650779724121094, 0.15728099644184113, 0.28508099913597107, -1.0495200157165527, 0.8906469941139221, 0.7040370106697083, 0.30313101410865784, 0.2710619866847992, -0.08844500035047531, 0.661978006362915, -0.3609760105609894, 0.28187599778175354, 0.12928199768066406, -0.4395599961280823, -0.8638650178909302, -0.5828139781951904, 0.665710985660553, -0.3317599892616272, -0.5921990275382996, 0.3585439920425415, 0.5414779782295227, 0.47691500186920166]}, {"stage_idx": 1, "stage": "scores_raw", "scores": [0.6739850044250488, -0.09282699972391129, -0.008166000247001648, -0.02960200048983097, 0.18929800391197205, 0.3707349896430969, -0.1946360021829605, 0.22539499402046204, 0.49436700344085693, -0.14201700687408447, 0.358832985162735, 0.10072100162506104, 0.16151100397109985, 0.3845230042934418, 0.2887350022792816, -0.24195800721645355, -0.0846949964761734, 0.6233339905738831, 0.22539499402046204, -0.1873600035905838, 0.22875699400901794, -0.008166000247001648, 0.19964399933815002, -0.5266810059547424, 0.29532599449157715, -0.05071699991822243, 0.08825600147247314, 0.28855299949645996, -0.0846949964761734, 0.13361799716949463, -0.2010989934206009, 0.08245299756526947, -0.05071699991822243, 0.009948000311851501, -0.18093900382518768, 0.17147700488567352, -0.02814899943768978, 0.18945500254631042, 0.30208098888397217, -0.06586100161075592, 0.3108519911766052, 0.2669700086116791, -0.06693699955940247, -0.5681220293045044, -0.008166000247001648, -0.19953800737857819, -0.12782099843025208, 0.3108519911766052, -0.15647700428962708, -0.2062070071697235, -0.31408900022506714, 0.21379800140857697, 0.11045899987220764, -0.12809699773788452, -0.2113109976053238, -0.21991099417209625, -0.008166000247001648, 0.10045500099658966, 0.10045500099658966, 0.2258239984512329, 0.30531999468803406, 0.050755999982357025, 0.06401299685239792, -0.19915999472141266, 0.14266499876976013, -0.03816600143909454, -0.008166000247001648, 0.03001300059258938, 0.14266499876976013, -0.18249599635601044, -0.2113109976053238, 0.3108519911766052, 0.17355699837207794, -0.33435899019241333, 0.19336499273777008, -0.2652760148048401, 0.22539499402046204, 0.3108519911766052, 0.28431200981140137, 0.26772698760032654, 0.4226599931716919, 0.22539499402046204, -0.0846949964761734, 0.24701499938964844, 0.26690900325775146, -0.3268449902534485, 0.001344999996945262, -0.1377439945936203, -0.008166000247001648, -0.044411998242139816, 0.050755999982357025, -0.05071699991822243, -0.06096300110220909, -0.1724890023469925, 0.14266499876976013, -0.21776799857616425, 0.053141999989748, -0.4544749855995178, -0.1869879961013794, 0.16002599895000458, -0.08117199689149857, 0.013875000178813934, 0.20883400738239288, -0.17810800671577454, -0.06364999711513519, 0.09419099986553192, -0.2651959955692291, 0.087008997797966, -0.21776799857616425, 0.17066000401973724, 0.05666700005531311, -0.32450801134109497, -0.05020900070667267, 0.19976399838924408, 0.4433189928531647, 0.03816299885511398, 0.03001300059258938, -0.05071699991822243, -0.31408900022506714, -0.1337669938802719, -0.2113109976053238, 0.3108519911766052, 0.050755999982357025, -0.05071699991822243, -0.1177159994840622, 0.407804012298584, -0.25610700249671936, -0.008166000247001648]}, {"stage_idx": 2, "stage": "scores_masked", "scores": [0.6739850044250488, -0.09282699972391129, -0.008166000247001648, -0.02960200048983097, 0.18929800391197205, 0.3707349896430969, -0.1946360021829605, 0.22539499402046204, 0.49436700344085693, -0.14201700687408447, 0.358832985162735, 0.10072100162506104, 0.16151100397109985, 0.3845230042934418, 0.2887350022792816, -0.24195800721645355, -0.0846949964761734, 0.6233339905738831, 0.22539499402046204, -0.1873600035905838, 0.22875699400901794, -0.008166000247001648, 0.19964399933815002, -0.5266810059547424, 0.29532599449157715, -0.05071699991822243, 0.08825600147247314, 0.28855299949645996, -0.0846949964761734, 0.13361799716949463, -0.2010989934206009, 0.08245299756526947, -0.05071699991822243, 0.009948000311851501, -0.18093900382518768, 0.17147700488567352, -0.02814899943768978, 0.18945500254631042, 0.30208098888397217, -0.06586100161075592, 0.3108519911766052, 0.2669700086116791, -0.06693699955940247, -0.5681220293045044, -0.008166000247001648, -0.19953800737857819, -0.12782099843025208, 0.3108519911766052, -0.15647700428962708, -0.2062070071697235, -0.31408900022506714, 0.21379800140857697, 0.11045899987220764, -0.12809699773788452, -0.2113109976053238, -0.21991099417209625, -0.008166000247001648, 0.10045500099658966, 0.10045500099658966, 0.2258239984512329, 0.30531999468803406, 0.050755999982357025, 0.06401299685239792, -0.19915999472141266, 0.14266499876976013, -0.03816600143909454, -0.008166000247001648, 0.03001300059258938, 0.14266499876976013, -0.18249599635601044, -0.2113109976053238, 0.3108519911766052, 0.17355699837207794, -0.33435899019241333, 0.19336499273777008, -0.2652760148048401, 0.22539499402046204, 0.3108519911766052, 0.28431200981140137, 0.26772698760032654, 0.4226599931716919, 0.22539499402046204, -0.0846949964761734, 0.24701499938964844, 0.26690900325775146, -0.3268449902534485, 0.001344999996945262, -0.1377439945936203, -0.008166000247001648, -0.044411998242139816, 0.050755999982357025, -0.05071699991822243, -0.06096300110220909, -0.1724890023469925, 0.14266499876976013, -0.21776799857616425, 0.053141999989748, -0.4544749855995178, -0.1869879961013794, 0.16002599895000458, -0.08117199689149857, 0.013875000178813934, 0.20883400738239288, -0.17810800671577454, -0.06364999711513519, 0.09419099986553192, -0.2651959955692291, 0.087008997797966, -0.21776799857616425, 0.17066000401973724, 0.05666700005531311, -0.32450801134109497, -0.05020900070667267, 0.19976399838924408, 0.4433189928531647, 0.03816299885511398, 0.03001300059258938, -0.05071699991822243, -0.31408900022506714, -0.1337669938802719, -0.2113109976053238, 0.3108519911766052, 0.050755999982357025, -0.05071699991822243, -0.1177159994840622, 0.407804012298584, -0.25610700249671936, -0.008166000247001648]}, {"stage_idx": 3, "stage": "weights_softmax", "weights": [0.014456000179052353, 0.006713999900966883, 0.0073079997673630714, 0.007153000216931105, 0.008902999572455883, 0.010673999786376953, 0.006064999848604202, 0.009229999966919422, 0.012078999541699886, 0.006391999777406454, 0.01054800022393465, 0.00814799964427948, 0.00865899957716465, 0.010821999981999397, 0.009833999909460545, 0.005783999804407358, 0.006769000086933374, 0.013741999864578247, 0.009229999966919422, 0.0061090001836419106, 0.009260999970138073, 0.0073079997673630714, 0.008995999582111835, 0.004350999835878611, 0.009898999705910683, 0.007003000006079674, 0.00804699957370758, 0.009832000359892845, 0.006769000086933374, 0.008421000093221664, 0.006025000009685755, 0.008000999689102173, 0.007003000006079674, 0.007441000081598759, 0.006147999782115221, 0.00874600000679493, 0.007162999827414751, 0.00890399981290102, 0.009965999983251095, 0.006897999905049801, 0.010053999722003937, 0.0096220001578331, 0.006891000084578991, 0.00417400011792779, 0.0073079997673630714, 0.0060350000858306885, 0.006484000012278557, 0.010053999722003937, 0.006300000008195639, 0.005994999781250954, 0.0053820000030100346, 0.009123999625444412, 0.00822800025343895, 0.00648199999704957, 0.005963999778032303, 0.005913000088185072, 0.0073079997673630714, 0.00814600009471178, 0.00814600009471178, 0.009233999997377396, 0.009998000226914883, 0.007751000113785267, 0.007854999974370003, 0.006037000101059675, 0.008496999740600586, 0.007091999985277653, 0.0073079997673630714, 0.007592000067234039, 0.008496999740600586, 0.006138999946415424, 0.005963999778032303, 0.010053999722003937, 0.008763999678194523, 0.005274000111967325, 0.008938999846577644, 0.005650999955832958, 0.009229999966919422, 0.010053999722003937, 0.009789999574422836, 0.00962899997830391, 0.011242999695241451, 0.009229999966919422, 0.006769000086933374, 0.009432000108063221, 0.0096220001578331, 0.005313000176101923, 0.00737799983471632, 0.0064199999906122684, 0.0073079997673630714, 0.007048000115901232, 0.007751000113785267, 0.007003000006079674, 0.0069320001639425755, 0.006200000178068876, 0.008496999740600586, 0.005925999954342842, 0.007770000025629997, 0.004676999989897013, 0.006111000198870897, 0.008646000176668167, 0.006792999804019928, 0.0074709998443722725, 0.009078999981284142, 0.006165999919176102, 0.006912999786436558, 0.008094999939203262, 0.005650999955832958, 0.008036999963223934, 0.005925999954342842, 0.00873900018632412, 0.007796999998390675, 0.005326000042259693, 0.007007000036537647, 0.008996999822556973, 0.011478000320494175, 0.007654000073671341, 0.007592000067234039, 0.007003000006079674, 0.0053820000030100346, 0.006444999948143959, 0.005963999778032303, 0.010053999722003937, 0.007751000113785267, 0.007003000006079674, 0.006548999808728695, 0.011076999828219414, 0.005702999886125326, 0.0073079997673630714], "sum": 1.0}, {"stage_idx": 4, "stage": "weights_after_dropout", "weights": [0.014456000179052353, 0.006713999900966883, 0.0073079997673630714, 0.007153000216931105, 0.008902999572455883, 0.010673999786376953, 0.006064999848604202, 0.009229999966919422, 0.012078999541699886, 0.006391999777406454, 0.01054800022393465, 0.00814799964427948, 0.00865899957716465, 0.010821999981999397, 0.009833999909460545, 0.005783999804407358, 0.006769000086933374, 0.013741999864578247, 0.009229999966919422, 0.0061090001836419106, 0.009260999970138073, 0.0073079997673630714, 0.008995999582111835, 0.004350999835878611, 0.009898999705910683, 0.007003000006079674, 0.00804699957370758, 0.009832000359892845, 0.006769000086933374, 0.008421000093221664, 0.006025000009685755, 0.008000999689102173, 0.007003000006079674, 0.007441000081598759, 0.006147999782115221, 0.00874600000679493, 0.007162999827414751, 0.00890399981290102, 0.009965999983251095, 0.006897999905049801, 0.010053999722003937, 0.0096220001578331, 0.006891000084578991, 0.00417400011792779, 0.0073079997673630714, 0.0060350000858306885, 0.006484000012278557, 0.010053999722003937, 0.006300000008195639, 0.005994999781250954, 0.0053820000030100346, 0.009123999625444412, 0.00822800025343895, 0.00648199999704957, 0.005963999778032303, 0.005913000088185072, 0.0073079997673630714, 0.00814600009471178, 0.00814600009471178, 0.009233999997377396, 0.009998000226914883, 0.007751000113785267, 0.007854999974370003, 0.006037000101059675, 0.008496999740600586, 0.007091999985277653, 0.0073079997673630714, 0.007592000067234039, 0.008496999740600586, 0.006138999946415424, 0.005963999778032303, 0.010053999722003937, 0.008763999678194523, 0.005274000111967325, 0.008938999846577644, 0.005650999955832958, 0.009229999966919422, 0.010053999722003937, 0.009789999574422836, 0.00962899997830391, 0.011242999695241451, 0.009229999966919422, 0.006769000086933374, 0.009432000108063221, 0.0096220001578331, 0.005313000176101923, 0.00737799983471632, 0.0064199999906122684, 0.0073079997673630714, 0.007048000115901232, 0.007751000113785267, 0.007003000006079674, 0.0069320001639425755, 0.006200000178068876, 0.008496999740600586, 0.005925999954342842, 0.007770000025629997, 0.004676999989897013, 0.006111000198870897, 0.008646000176668167, 0.006792999804019928, 0.0074709998443722725, 0.009078999981284142, 0.006165999919176102, 0.006912999786436558, 0.008094999939203262, 0.005650999955832958, 0.008036999963223934, 0.005925999954342842, 0.00873900018632412, 0.007796999998390675, 0.005326000042259693, 0.007007000036537647, 0.008996999822556973, 0.011478000320494175, 0.007654000073671341, 0.007592000067234039, 0.007003000006079674, 0.0053820000030100346, 0.006444999948143959, 0.005963999778032303, 0.010053999722003937, 0.007751000113785267, 0.007003000006079674, 0.006548999808728695, 0.011076999828219414, 0.005702999886125326, 0.0073079997673630714], "sum": 1.0, "dropout_applied": false}, {"stage_idx": 5, "stage": "topk_after_dropout", "k": 5, "topk": [{"pos": 0, "score_masked": 0.6739853024482727, "weight": 0.014455580152571201, "k": [-0.8473740220069885, 0.47607100009918213, 1.0010290145874023, 0.008805000223219395, -0.7580639719963074, -0.5214239954948425, 0.8892179727554321, 0.325655996799469, 0.7710229754447937, -0.09988400340080261, 0.6782659888267517, 0.11172699928283691, -0.3809550106525421, -0.2775239944458008, -0.3942730128765106, -0.0451820008456707, 0.7187740206718445, -0.6837189793586731, 0.3825030028820038, 1.0479739904403687, -0.18408599495887756, 0.6152330040931702, -0.4315569996833801, -0.6830899715423584, -1.319993019104004, -0.5163959860801697, 0.5608029961585999, -0.9171739816665649, 0.8758640289306641, -0.13040100038051605, -0.5231429934501648, 0.44460201263427734], "v": [0.2868660092353821, 0.3723529875278473, -0.021076999604701996, -0.4698750078678131, 0.8641570210456848, -0.411624014377594, -1.0110340118408203, -0.600970983505249, -0.48452699184417725, 0.408939003944397, -0.440328985452652, 1.1532930135726929, -0.34416601061820984, 0.692736029624939, -0.42022600769996643, -0.3665429949760437, 0.38738200068473816, 0.5020120143890381, -0.6590149998664856, -0.061827000230550766, -0.126227006316185, -0.47578200697898865, 0.3621729910373688, -0.032269999384880066, -0.4934830069541931, -0.7771009802818298, -0.8296599984169006, -0.30030199885368347, 0.5246739983558655, -0.09746599942445755, -0.6811370253562927, 0.4643250107765198]}, {"pos": 17, "score_masked": 0.6233340501785278, "weight": 0.013741621747612953, "k": [0.24539199471473694, 1.044579029083252, 1.2116899490356445, -0.1180960014462471, -0.5597580075263977, -0.1273230016231537, 0.6645539999008179, 0.8601719737052917, 0.6290950179100037, 0.6496359705924988, 1.2648810148239136, 0.10143399983644485, 0.42497000098228455, -0.6879100203514099, -0.5659800171852112, 1.216968059539795, 0.22460900247097015, 0.05939599871635437, 0.47728800773620605, 0.8924260139465332, -0.2675760090351105, 0.2537600100040436, -0.14428399503231049, 0.48625698685646057, 0.158377006649971, -0.8509089946746826, 0.3229770064353943, 0.20777000486850739, -0.18916800618171692, 0.27067500352859497, 0.08214700222015381, -0.046953000128269196], "v": [-0.26242899894714355, 0.07551699876785278, -0.4443559944629669, -1.0048960447311401, -0.749455988407135, 0.39762499928474426, 0.05681699886918068, -0.2910600006580353, -0.7810980081558228, 0.16815200448036194, -0.3103939890861511, -0.06068500131368637, 0.2007340043783188, -0.8579930067062378, -0.09913399815559387, -0.259535014629364, -0.6932410001754761, 0.8734549880027771, -0.20978400111198425, 0.4324919879436493, -0.151978000998497, -0.20546799898147583, 0.4493449926376343, 0.06270399689674377, -1.2977219820022583, 0.3757590055465698, 0.01982099935412407, -0.8435840010643005, 0.12182000279426575, -0.7515439987182617, 0.19840000569820404, -0.8402720093727112]}, {"pos": 8, "score_masked": 0.4943670332431793, "weight": 0.012078925035893917, "k": [-0.2680149972438812, 0.999114990234375, 0.26120299100875854, 0.555840015411377, 0.6277269721031189, -0.48283201456069946, 0.5507100224494934, 0.8185269832611084, 0.4085650146007538, -0.4422850012779236, -0.08501400053501129, -0.05153699964284897, 0.44099798798561096, -0.01671699993312359, -0.04497800022363663, 0.027765000239014626, -0.0963210016489029, 0.10964500159025192, 0.17463399469852448, 0.5426790118217468, -0.7016379833221436, 0.5139279961585999, 0.22310400009155273, -0.4903919994831085, -0.3262290060520172, 0.14109200239181519, 0.4738380014896393, -0.2696000039577484, -0.3778670132160187, -0.14561499655246735, 0.4859359860420227, 0.4180450141429901], "v": [0.6405990123748779, -0.288563996553421, 0.009544000029563904, 0.8848140239715576, -0.3152489960193634, 0.06379599869251251, 0.1163100004196167, -0.12269599735736847, -0.6943129897117615, -0.26500099897384644, 1.345870018005371, 0.6330299973487854, -0.35290199518203735, -0.7408729791641235, 0.2387309968471527, -0.30253100395202637, 0.5368660092353821, -0.07144299894571304, -0.10352600365877151, -0.3042359948158264, 0.2854810059070587, -1.0739209651947021, 0.8971019983291626, -0.5296919941902161, -0.3301979899406433, -0.38718900084495544, -0.6079829931259155, 0.18227599561214447, 0.25478601455688477, 0.5665330290794373, 0.8441659808158875, 0.5770130157470703]}, {"pos": 114, "score_masked": 0.44331932067871094, "weight": 0.011477797292172909, "k": [0.4816589951515198, 0.5513190031051636, 0.31228700280189514, 0.15953199565410614, 0.6385830044746399, 0.6461480259895325, 0.711529016494751, -0.08365599811077118, -0.05902500078082085, -0.34495899081230164, 0.16456200182437897, -0.6542909741401672, -0.027256999164819717, -1.122439980506897, 0.12840400636196136, 0.8066239953041077, 0.4283500015735626, -0.22527199983596802, -0.2810640037059784, -0.21215400099754333, 0.1438400000333786, -0.20613700151443481, -0.3265329897403717, 0.8577359914779663, -0.9825689792633057, -0.09044899791479111, -0.32096099853515625, 0.12952500581741333, -0.6168239712715149, -0.4931879937648773, 0.11133500188589096, 0.8516640067100525], "v": [1.4625500440597534, -1.0663700103759766, 0.42394500970840454, 0.14643000066280365, -0.21413500607013702, -0.6811270117759705, -0.5433059930801392, -0.6691100001335144, -0.47843700647354126, -0.8273469805717468, 0.04584699869155884, 0.5275920033454895, -0.4508959949016571, 0.32719799876213074, 0.7216089963912964, 0.3499380052089691, -0.6313890218734741, 0.3379429876804352, -0.7958850264549255, -0.35012900829315186, 0.49554601311683655, -0.7580080032348633, 1.3960579633712769, 0.33294200897216797, 0.5146840214729309, -0.4509829878807068, -0.2762329876422882, 0.4061650037765503, 0.5641019940376282, 0.39608699083328247, -0.040525998920202255, -1.1460460424423218]}, {"pos": 80, "score_masked": 0.42266029119491577, "weight": 0.01124311052262783, "k": [0.49421900510787964, 0.057771001011133194, 0.37429699301719666, 1.0932329893112183, -0.3605000078678131, -1.0087449550628662, -0.7737740278244019, -0.38714200258255005, -0.37692001461982727, 0.10677500069141388, 0.2464590072631836, -0.2898600101470947, 0.052324000746011734, -1.3127779960632324, 0.1459980010986328, -0.2782909870147705, 1.331220030784607, 0.3675380051136017, 0.46997201442718506, 1.1348240375518799, -0.023548999801278114, -0.48500901460647583, 0.12318400293588638, -0.08654499799013138, 0.29190701246261597, 0.31012800335884094, 0.3384140133857727, 0.30748599767684937, 0.6096510291099548, 0.16490499675273895, 0.6216610074043274, 0.02100900001823902], "v": [0.35212400555610657, -0.20514799654483795, 0.36083799600601196, -0.05516999959945679, -0.06421399861574173, -0.45077699422836304, -0.0394509993493557, -0.7522199749946594, -0.30378401279449463, 0.7655919790267944, -0.1526859998703003, 0.22191299498081207, -0.0897430032491684, -0.03882800042629242, 0.21913400292396545, -0.10993800312280655, 0.5132560133934021, -0.6488249897956848, -0.12688200175762177, -0.6739889979362488, -0.021118000149726868, -0.10140199959278107, 0.24972499907016754, -0.3234440088272095, 1.0461900234222412, 0.4288319945335388, 0.5633990168571472, -1.2136110067367554, -0.2664960026741028, 0.10650599747896194, -0.22991900146007538, 0.7377719879150391]}]}, {"stage_idx": 6, "stage": "context_head", "context": [0.021417999640107155, -0.001964000053703785, 0.08298400044441223, 0.018955999985337257, -0.07966499775648117, -0.02128699980676174, 0.18549400568008423, 0.01972699910402298, -0.09593600034713745, -0.07035800069570541, 0.15392599999904633, -0.05514099821448326, 0.035085998475551605, 0.04126700013875961, 0.03847699984908104, -0.035151999443769455, 0.05413699895143509, 0.09262199699878693, 0.11478400230407715, -0.11098899692296982, -0.035440001636743546, 0.06101299822330475, -0.02366800047457218, 0.005801999941468239, 0.1633799970149994, -0.031005000695586205, -0.08573000133037567, 0.019708000123500824, 0.20277200639247894, 0.049640998244285583, -0.025922000408172607, -0.056425999850034714]}]}, {"head": 2, "head_dim": 32, "trace": [{"stage_idx": 0, "stage": "q_after_proj_rope", "q": [0.26575198769569397, 0.6028469800949097, -0.20123900473117828, 0.5617799758911133, -0.5248119831085205, 0.460314005613327, -1.1310030221939087, 0.12577499449253082, 0.3116210103034973, 0.8999890089035034, -0.9582570195198059, -0.6832860112190247, -0.4883210062980652, -0.037317000329494476, -0.47398999333381653, -0.015912000089883804, -0.32089298963546753, 0.6667349934577942, -0.4656049907207489, -0.426952987909317, -0.8953040242195129, 0.4516420066356659, -0.9697449803352356, -0.6796370148658752, 0.33428001403808594, -0.6169739961624146, 0.9228309988975525, 0.5071089863777161, -0.10123699903488159, 0.8920120000839233, -0.04670400172472, -0.13377800583839417]}, {"stage_idx": 1, "stage": "scores_raw", "scores": [0.11613299697637558, -0.0849749967455864, -0.46715599298477173, -0.11062300205230713, -0.10479900240898132, -0.2600269913673401, 0.446696013212204, -0.20236200094223022, 0.029879000037908554, 0.519989013671875, 0.02962999977171421, -0.11340799927711487, -0.30266499519348145, 0.2348410040140152, 0.2496899962425232, -0.7069000005722046, -0.2673409879207611, 0.07487200200557709, -0.20236200094223022, -0.17295600473880768, -0.211217999458313, -0.46715599298477173, 0.27561500668525696, -0.3371970057487488, 0.1206820011138916, 0.0076870000921189785, -0.24982500076293945, 0.03198599815368652, -0.2673409879207611, -0.2134840041399002, -0.5141000151634216, 0.4277220070362091, 0.0076870000921189785, 0.4059689939022064, 0.3460310101509094, 0.30201199650764465, -0.33063700795173645, 0.33747801184654236, -0.06241700053215027, 0.2585969865322113, 0.5760120153427124, 0.6873210072517395, -0.5746840238571167, 1.0358879566192627, -0.46715599298477173, 0.10093999654054642, -0.08736199885606766, 0.5760120153427124, -0.2594130039215088, 0.2022709995508194, 0.1907079964876175, -0.033858999609947205, 0.12055300176143646, -0.533536970615387, -0.8734549880027771, 0.16846199333667755, -0.46715599298477173, 0.006907999981194735, 0.006907999981194735, 0.09685099869966507, -0.34210601449012756, -0.3282740116119385, -0.27896198630332947, 0.18044599890708923, 0.6795780062675476, -0.1773650050163269, -0.46715599298477173, 0.19721999764442444, 0.6795780062675476, -0.18516500294208527, -0.8734549880027771, 0.5760120153427124, -0.2626650035381317, 0.09605199843645096, 0.0666159987449646, -0.1580210030078888, -0.20236200094223022, 0.5760120153427124, -0.11928299814462662, 0.3379240036010742, 0.02394299954175949, -0.20236200094223022, -0.2673409879207611, 0.5893639922142029, 0.19699299335479736, -0.620235025882721, -0.27198898792266846, 0.2309589982032776, -0.46715599298477173, 0.023225000128149986, -0.3282740116119385, 0.0076870000921189785, 0.002114000031724572, -0.010131999850273132, 0.6795780062675476, -0.1373869925737381, -0.29557499289512634, -0.048374999314546585, 0.021994000300765038, -0.3221000134944916, -0.04242600128054619, 0.37146198749542236, -0.6119459867477417, -0.03275400027632713, -0.4756470024585724, -0.25606998801231384, -0.04559199884533882, 0.11630100011825562, -0.1373869925737381, 0.16879600286483765, 0.06852900236845016, -0.17041000723838806, -0.13168500363826752, 0.012900000438094139, 0.08526799827814102, -0.32729700207710266, 0.19721999764442444, 0.0076870000921189785, 0.1907079964876175, 0.029649000614881516, -0.8734549880027771, 0.5760120153427124, -0.3282740116119385, 0.0076870000921189785, -0.09444800019264221, -0.41335800290107727, 0.08709199726581573, -0.46715599298477173]}, {"stage_idx": 2, "stage": "scores_masked", "scores": [0.11613299697637558, -0.0849749967455864, -0.46715599298477173, -0.11062300205230713, -0.10479900240898132, -0.2600269913673401, 0.446696013212204, -0.20236200094223022, 0.029879000037908554, 0.519989013671875, 0.02962999977171421, -0.11340799927711487, -0.30266499519348145, 0.2348410040140152, 0.2496899962425232, -0.7069000005722046, -0.2673409879207611, 0.07487200200557709, -0.20236200094223022, -0.17295600473880768, -0.211217999458313, -0.46715599298477173, 0.27561500668525696, -0.3371970057487488, 0.1206820011138916, 0.0076870000921189785, -0.24982500076293945, 0.03198599815368652, -0.2673409879207611, -0.2134840041399002, -0.5141000151634216, 0.4277220070362091, 0.0076870000921189785, 0.4059689939022064, 0.3460310101509094, 0.30201199650764465, -0.33063700795173645, 0.33747801184654236, -0.06241700053215027, 0.2585969865322113, 0.5760120153427124, 0.6873210072517395, -0.5746840238571167, 1.0358879566192627, -0.46715599298477173, 0.10093999654054642, -0.08736199885606766, 0.5760120153427124, -0.2594130039215088, 0.2022709995508194, 0.1907079964876175, -0.033858999609947205, 0.12055300176143646, -0.533536970615387, -0.8734549880027771, 0.16846199333667755, -0.46715599298477173, 0.006907999981194735, 0.006907999981194735, 0.09685099869966507, -0.34210601449012756, -0.3282740116119385, -0.27896198630332947, 0.18044599890708923, 0.6795780062675476, -0.1773650050163269, -0.46715599298477173, 0.19721999764442444, 0.6795780062675476, -0.18516500294208527, -0.8734549880027771, 0.5760120153427124, -0.2626650035381317, 0.09605199843645096, 0.0666159987449646, -0.1580210030078888, -0.20236200094223022, 0.5760120153427124, -0.11928299814462662, 0.3379240036010742, 0.02394299954175949, -0.20236200094223022, -0.2673409879207611, 0.5893639922142029, 0.19699299335479736, -0.620235025882721, -0.27198898792266846, 0.2309589982032776, -0.46715599298477173, 0.023225000128149986, -0.3282740116119385, 0.0076870000921189785, 0.002114000031724572, -0.010131999850273132, 0.6795780062675476, -0.1373869925737381, -0.29557499289512634, -0.048374999314546585, 0.021994000300765038, -0.3221000134944916, -0.04242600128054619, 0.37146198749542236, -0.6119459867477417, -0.03275400027632713, -0.4756470024585724, -0.25606998801231384, -0.04559199884533882, 0.11630100011825562, -0.1373869925737381, 0.16879600286483765, 0.06852900236845016, -0.17041000723838806, -0.13168500363826752, 0.012900000438094139, 0.08526799827814102, -0.32729700207710266, 0.19721999764442444, 0.0076870000921189785, 0.1907079964876175, 0.029649000614881516, -0.8734549880027771, 0.5760120153427124, -0.3282740116119385, 0.0076870000921189785, -0.09444800019264221, -0.41335800290107727, 0.08709199726581573, -0.46715599298477173]}, {"stage_idx": 3, "stage": "weights_softmax", "weights": [0.008547999896109104, 0.006990999914705753, 0.004769999999552965, 0.006814000196754932, 0.00685400003567338, 0.005867999978363514, 0.011896999552845955, 0.00621700007468462, 0.007841999642550945, 0.012800999917089939, 0.007840000092983246, 0.006794999819248915, 0.005623000208288431, 0.009624999947845936, 0.009769000113010406, 0.0037529999390244484, 0.005824999883770943, 0.008202999830245972, 0.00621700007468462, 0.006401999853551388, 0.006161999888718128, 0.004769999999552965, 0.010026000440120697, 0.005431999918073416, 0.008586999960243702, 0.007670000195503235, 0.005927999969571829, 0.00785799976438284, 0.005824999883770943, 0.006147999782115221, 0.00455200020223856, 0.01167299970984459, 0.007670000195503235, 0.011421999894082546, 0.01075700018554926, 0.010293999686837196, 0.005468000192195177, 0.010665999725461006, 0.007149999961256981, 0.009856999851763248, 0.013539000414311886, 0.01513299997895956, 0.004284000024199486, 0.02144400030374527, 0.004769999999552965, 0.00841899961233139, 0.00697400001809001, 0.013539000414311886, 0.005872000008821487, 0.009317000396549702, 0.009209999814629555, 0.007356999907642603, 0.008585999719798565, 0.0044639999978244305, 0.00317799998447299, 0.009007000364363194, 0.004769999999552965, 0.007664000149816275, 0.007664000149816275, 0.008384999819099903, 0.0054060001857578754, 0.005481000058352947, 0.005758000072091818, 0.009115999564528465, 0.015015999786555767, 0.006374000106006861, 0.004769999999552965, 0.009270000271499157, 0.015015999786555767, 0.0063240001909434795, 0.00317799998447299, 0.013539000414311886, 0.005853000096976757, 0.008377999998629093, 0.008135000243782997, 0.006498000118881464, 0.00621700007468462, 0.013539000414311886, 0.006754999980330467, 0.010670999996364117, 0.007794999983161688, 0.00621700007468462, 0.005824999883770943, 0.013721000403165817, 0.009267999790608883, 0.004093000199645758, 0.005797999911010265, 0.009588000364601612, 0.004769999999552965, 0.007790000177919865, 0.005481000058352947, 0.007670000195503235, 0.007627000100910664, 0.007534000091254711, 0.015015999786555767, 0.006634000223129988, 0.005663000047206879, 0.00725100003182888, 0.007780000101774931, 0.0055149998515844345, 0.007294999901205301, 0.01103499997407198, 0.004126999992877245, 0.007366000209003687, 0.004730000160634518, 0.005890999920666218, 0.007271999958902597, 0.008549000136554241, 0.006634000223129988, 0.00901000015437603, 0.008151000365614891, 0.006417999975383282, 0.0066720000468194485, 0.007710000034421682, 0.008287999778985977, 0.00548599986359477, 0.009270000271499157, 0.007670000195503235, 0.009209999814629555, 0.007840000092983246, 0.00317799998447299, 0.013539000414311886, 0.005481000058352947, 0.007670000195503235, 0.006924999877810478, 0.005034000147134066, 0.008302999660372734, 0.004769999999552965], "sum": 0.9999998807907104}, {"stage_idx": 4, "stage": "weights_after_dropout", "weights": [0.008547999896109104, 0.006990999914705753, 0.004769999999552965, 0.006814000196754932, 0.00685400003567338, 0.005867999978363514, 0.011896999552845955, 0.00621700007468462, 0.007841999642550945, 0.012800999917089939, 0.007840000092983246, 0.006794999819248915, 0.005623000208288431, 0.009624999947845936, 0.009769000113010406, 0.0037529999390244484, 0.005824999883770943, 0.008202999830245972, 0.00621700007468462, 0.006401999853551388, 0.006161999888718128, 0.004769999999552965, 0.010026000440120697, 0.005431999918073416, 0.008586999960243702, 0.007670000195503235, 0.005927999969571829, 0.00785799976438284, 0.005824999883770943, 0.006147999782115221, 0.00455200020223856, 0.01167299970984459, 0.007670000195503235, 0.011421999894082546, 0.01075700018554926, 0.010293999686837196, 0.005468000192195177, 0.010665999725461006, 0.007149999961256981, 0.009856999851763248, 0.013539000414311886, 0.01513299997895956, 0.004284000024199486, 0.02144400030374527, 0.004769999999552965, 0.00841899961233139, 0.00697400001809001, 0.013539000414311886, 0.005872000008821487, 0.009317000396549702, 0.009209999814629555, 0.007356999907642603, 0.008585999719798565, 0.0044639999978244305, 0.00317799998447299, 0.009007000364363194, 0.004769999999552965, 0.007664000149816275, 0.007664000149816275, 0.008384999819099903, 0.0054060001857578754, 0.005481000058352947, 0.005758000072091818, 0.009115999564528465, 0.015015999786555767, 0.006374000106006861, 0.004769999999552965, 0.009270000271499157, 0.015015999786555767, 0.0063240001909434795, 0.00317799998447299, 0.013539000414311886, 0.005853000096976757, 0.008377999998629093, 0.008135000243782997, 0.006498000118881464, 0.00621700007468462, 0.013539000414311886, 0.006754999980330467, 0.010670999996364117, 0.007794999983161688, 0.00621700007468462, 0.005824999883770943, 0.013721000403165817, 0.009267999790608883, 0.004093000199645758, 0.005797999911010265, 0.009588000364601612, 0.004769999999552965, 0.007790000177919865, 0.005481000058352947, 0.007670000195503235, 0.007627000100910664, 0.007534000091254711, 0.015015999786555767, 0.006634000223129988, 0.005663000047206879, 0.00725100003182888, 0.007780000101774931, 0.0055149998515844345, 0.007294999901205301, 0.01103499997407198, 0.004126999992877245, 0.007366000209003687, 0.004730000160634518, 0.005890999920666218, 0.007271999958902597, 0.008549000136554241, 0.006634000223129988, 0.00901000015437603, 0.008151000365614891, 0.006417999975383282, 0.0066720000468194485, 0.007710000034421682, 0.008287999778985977, 0.00548599986359477, 0.009270000271499157, 0.007670000195503235, 0.009209999814629555, 0.007840000092983246, 0.00317799998447299, 0.013539000414311886, 0.005481000058352947, 0.007670000195503235, 0.006924999877810478, 0.005034000147134066, 0.008302999660372734, 0.004769999999552965], "sum": 0.9999998807907104, "dropout_applied": false}, {"stage_idx": 5, "stage": "topk_after_dropout", "k": 5, "topk": [{"pos": 43, "score_masked": 1.0358877182006836, "weight": 0.021444259211421013, "k": [0.1367570012807846, -0.2398650050163269, -0.0736360028386116, -0.4801670014858246, 0.5125910043716431, -0.07741499692201614, -0.7704359889030457, 0.5715500116348267, 0.4957039952278137, 0.5403630137443542, -1.1449220180511475, -0.4983290135860443, 0.8792340159416199, 0.05639199912548065, -0.6684160232543945, 0.33593401312828064, 0.4181919991970062, 0.5875679850578308, 0.7104989886283875, -0.47398701310157776, -0.5493649840354919, 0.2373420000076294, -0.13317300379276276, -1.3987629413604736, -0.15537400543689728, -0.6292570233345032, 1.7249540090560913, -0.20341399312019348, 0.2708379924297333, -0.07376699894666672, -0.32406100630760193, -0.5318430066108704], "v": [0.09195200353860855, -0.4564400017261505, -0.5912050008773804, 0.02695300057530403, 0.4228760004043579, 0.1906770020723343, 0.7092350125312805, 0.36634698510169983, -0.670307993888855, 0.31714698672294617, -1.2500170469284058, 0.08257699757814407, 0.35276299715042114, 0.44342300295829773, 0.24840900301933289, 0.167603000998497, -0.852292001247406, -0.7885329723358154, 0.38101598620414734, -0.15505799651145935, 0.20738500356674194, 0.1517309993505478, -0.2120569944381714, -0.41106700897216797, 0.24474699795246124, -0.6232699751853943, -0.28688299655914307, -0.6494489908218384, -0.19472500681877136, 1.0213919878005981, 0.5962280035018921, 0.27776598930358887]}, {"pos": 41, "score_masked": 0.6873205900192261, "weight": 0.015133182518184185, "k": [1.119331955909729, 0.7924990057945251, 0.36542099714279175, 0.2849760055541992, -0.884984016418457, -1.0509929656982422, -0.7271720170974731, 0.2044460028409958, -0.28239500522613525, 0.8362249732017517, 0.3652220070362091, -0.39722201228141785, 0.045584000647068024, 0.2951030135154724, -0.984129011631012, 0.3541429936885834, 0.6877409815788269, 0.19128799438476562, 0.5546929836273193, -1.1063040494918823, -0.3894309997558594, 0.5963420271873474, 0.24980400502681732, 0.6295499801635742, -0.4719739854335785, 0.2777920067310333, 0.8420779705047607, -0.1103150025010109, -0.20964300632476807, 0.9075419902801514, -0.2595039904117584, 0.8954070210456848], "v": [-1.242982029914856, -0.4270870089530945, -0.06313599646091461, -0.762365996837616, 0.2872439920902252, 0.7526159882545471, 0.7100440263748169, 0.6777650117874146, -0.3720160126686096, 0.32967400550842285, -0.4640029966831207, -0.9784600138664246, -0.4593769907951355, 0.4312860071659088, -0.3895590007305145, -0.8395810127258301, -0.5479369759559631, 0.28101301193237305, 0.5363960266113281, 0.23009899258613586, -0.1624159961938858, -0.016801999881863594, 0.7595070004463196, -0.3849180042743683, -1.1759639978408813, 1.2534890174865723, -0.22741000354290009, 0.5174509882926941, -0.49005600810050964, 0.5686709880828857, -0.18857799470424652, -0.019240999594330788]}, {"pos": 64, "score_masked": 0.6795783042907715, "weight": 0.015016470104455948, "k": [0.34232500195503235, 0.6350510120391846, 0.12915299832820892, -0.07211200147867203, -1.0684230327606201, -0.08520600199699402, -0.4012030065059662, -0.2707509994506836, -1.5195610523223877, 0.5495280027389526, -0.372312992811203, -0.638949990272522, -1.3635239601135254, 0.9311910271644592, 1.0506579875946045, -0.32592201232910156, 0.41314399242401123, 0.1543170064687729, -0.11248700320720673, -0.17638200521469116, 0.3026829957962036, 0.33601200580596924, -0.28038400411605835, -0.2731949985027313, 0.4046820104122162, -0.9005560278892517, -0.3094939887523651, 0.0878790020942688, -0.04423699900507927, 0.7827119827270508, 0.18311600387096405, 0.2781819999217987], "v": [1.0865999460220337, -0.5451750159263611, 1.096351981163025, 0.1592559963464737, -0.5657209753990173, -0.3659130036830902, -0.7723219990730286, -0.45196399092674255, 0.9590790271759033, -0.11897599697113037, -0.038950998336076736, -0.4518660008907318, -0.23699800670146942, -1.2020299434661865, 0.665913999080658, 0.4305410087108612, -0.31334900856018066, 0.025794999673962593, 0.42742401361465454, -0.9850590229034424, -0.21656300127506256, -1.0874509811401367, -0.717432975769043, -0.5543649792671204, -0.52811199426651, 0.003957000095397234, 0.9422760009765625, -0.3378719985485077, 0.5655850172042847, 0.5752739906311035, 0.88816899061203, -0.2026509940624237]}, {"pos": 68, "score_masked": 0.6795783042907715, "weight": 0.015016470104455948, "k": [0.34232500195503235, 0.6350510120391846, 0.12915299832820892, -0.07211200147867203, -1.0684230327606201, -0.08520600199699402, -0.4012030065059662, -0.2707509994506836, -1.5195610523223877, 0.5495280027389526, -0.372312992811203, -0.638949990272522, -1.3635239601135254, 0.9311910271644592, 1.0506579875946045, -0.32592201232910156, 0.41314399242401123, 0.1543170064687729, -0.11248700320720673, -0.17638200521469116, 0.3026829957962036, 0.33601200580596924, -0.28038400411605835, -0.2731949985027313, 0.4046820104122162, -0.9005560278892517, -0.3094939887523651, 0.0878790020942688, -0.04423699900507927, 0.7827119827270508, 0.18311600387096405, 0.2781819999217987], "v": [1.0865999460220337, -0.5451750159263611, 1.096351981163025, 0.1592559963464737, -0.5657209753990173, -0.3659130036830902, -0.7723219990730286, -0.45196399092674255, 0.9590790271759033, -0.11897599697113037, -0.038950998336076736, -0.4518660008907318, -0.23699800670146942, -1.2020299434661865, 0.665913999080658, 0.4305410087108612, -0.31334900856018066, 0.025794999673962593, 0.42742401361465454, -0.9850590229034424, -0.21656300127506256, -1.0874509811401367, -0.717432975769043, -0.5543649792671204, -0.52811199426651, 0.003957000095397234, 0.9422760009765625, -0.3378719985485077, 0.5655850172042847, 0.5752739906311035, 0.88816899061203, -0.2026509940624237]}, {"pos": 94, "score_masked": 0.6795783042907715, "weight": 0.015016470104455948, "k": [0.34232500195503235, 0.6350510120391846, 0.12915299832820892, -0.07211200147867203, -1.0684230327606201, -0.08520600199699402, -0.4012030065059662, -0.2707509994506836, -1.5195610523223877, 0.5495280027389526, -0.372312992811203, -0.638949990272522, -1.3635239601135254, 0.9311910271644592, 1.0506579875946045, -0.32592201232910156, 0.41314399242401123, 0.1543170064687729, -0.11248700320720673, -0.17638200521469116, 0.3026829957962036, 0.33601200580596924, -0.28038400411605835, -0.2731949985027313, 0.4046820104122162, -0.9005560278892517, -0.3094939887523651, 0.0878790020942688, -0.04423699900507927, 0.7827119827270508, 0.18311600387096405, 0.2781819999217987], "v": [1.0865999460220337, -0.5451750159263611, 1.096351981163025, 0.1592559963464737, -0.5657209753990173, -0.3659130036830902, -0.7723219990730286, -0.45196399092674255, 0.9590790271759033, -0.11897599697113037, -0.038950998336076736, -0.4518660008907318, -0.23699800670146942, -1.2020299434661865, 0.665913999080658, 0.4305410087108612, -0.31334900856018066, 0.025794999673962593, 0.42742401361465454, -0.9850590229034424, -0.21656300127506256, -1.0874509811401367, -0.717432975769043, -0.5543649792671204, -0.52811199426651, 0.003957000095397234, 0.9422760009765625, -0.3378719985485077, 0.5655850172042847, 0.5752739906311035, 0.88816899061203, -0.2026509940624237]}]}, {"stage_idx": 6, "stage": "context_head", "context": [0.03027299977838993, -0.0036770000588148832, 0.06851900368928909, 0.09549800306558609, 0.06055599823594093, -0.05959999933838844, -0.03793200105428696, -0.07414799928665161, -0.06120700016617775, -0.09705299884080887, -0.07398500293493271, -0.09429100155830383, 0.0754069983959198, 0.0513949990272522, -0.020020000636577606, -0.23546800017356873, -0.10532599687576294, 0.13098099827766418, 0.10750500112771988, -0.1535709947347641, -0.059696000069379807, -0.07408300042152405, -0.019724000245332718, 0.028775999322533607, -0.0028359999414533377, 0.00839800015091896, 0.00431300001218915, -0.060798998922109604, -0.01917400024831295, 0.11978399753570557, 0.09046699851751328, 0.048691000789403915]}]}, {"head": 3, "head_dim": 32, "trace": [{"stage_idx": 0, "stage": "q_after_proj_rope", "q": [-0.7084590196609497, -0.04963099956512451, 0.12082599848508835, 0.1912669986486435, 1.0054219961166382, -0.1552879959344864, 0.1876010000705719, 0.8315399885177612, 0.3514609932899475, 0.03923799842596054, 0.4336000084877014, -1.027446985244751, 0.2528190016746521, -0.8326410055160522, 1.134294033050537, 0.6696069836616516, 0.2811090052127838, -0.550790011882782, 0.2506909966468811, 0.18616899847984314, -0.9726099967956543, 0.15467099845409393, -0.38805100321769714, 0.2839910089969635, -1.3826500177383423, -0.10797200351953506, 0.5179960131645203, -0.28520599007606506, -1.2658469676971436, -0.11057499796152115, 1.0722299814224243, -0.2726860046386719]}, {"stage_idx": 1, "stage": "scores_raw", "scores": [0.21242600679397583, -0.3375310003757477, -0.010383999906480312, 0.030261000618338585, -0.7036979794502258, 0.6744019985198975, -0.21645699441432953, -0.22011399269104004, 0.08958499878644943, 0.08489599823951721, -0.20271700620651245, -0.14502400159835815, 0.08075200021266937, 0.20014800131320953, 0.4966210126876831, -0.23072600364685059, -0.13512800633907318, 0.5818660259246826, -0.22011399269104004, -0.009595000185072422, 0.05892299860715866, -0.010383999906480312, -0.4888870120048523, -0.18835100531578064, -0.04200499877333641, 0.4893139898777008, -0.12830300629138947, -0.41591399908065796, -0.13512800633907318, 0.22435900568962097, 0.9348329901695251, -0.23521800339221954, 0.4893139898777008, -0.3352360129356384, 0.178056001663208, -0.034421999007463455, 0.10860399901866913, 0.8022980093955994, -0.24847400188446045, -0.2630600035190582, -0.0991550013422966, 0.4307459890842438, 0.6469799876213074, 0.00940600037574768, -0.010383999906480312, 0.1304900050163269, -0.00032699998700991273, -0.0991550013422966, 0.39154401421546936, -0.31139299273490906, -0.2402919977903366, -0.18486300110816956, -0.14689099788665771, -0.32194700837135315, -0.07451699674129486, 0.2918989956378937, -0.010383999906480312, -0.02888599969446659, -0.02888599969446659, 0.24664099514484406, 0.213796004652977, 0.23982299864292145, 0.11065000295639038, 0.09863399714231491, -0.31410500407218933, 0.13424700498580933, -0.010383999906480312, -0.04810899868607521, -0.31410500407218933, -0.1718139946460724, -0.07451699674129486, -0.0991550013422966, -0.2099200040102005, 0.11973000317811966, -0.25657498836517334, 0.25871598720550537, -0.22011399269104004, -0.0991550013422966, -0.2515209913253784, -0.31202900409698486, 0.03666999936103821, -0.22011399269104004, -0.13512800633907318, 0.06848300248384476, -0.3249480128288269, 0.19392800331115723, -0.3758929967880249, 0.39572998881340027, -0.010383999906480312, -0.39028599858283997, 0.23982299864292145, 0.4893139898777008, 1.0470659732818604, 0.09341300278902054, -0.31410500407218933, -0.08338099718093872, 0.19211900234222412, 0.2500630021095276, -0.08586099743843079, 0.05152500048279762, 0.249208003282547, -0.32128700613975525, -0.05088299885392189, -0.010129000060260296, -0.30634400248527527, -0.03169599920511246, -0.4453490078449249, 0.19259999692440033, -0.08338099718093872, 0.05458800122141838, -0.146589994430542, -0.47781500220298767, 0.07022599875926971, 0.9597240090370178, 0.09374699741601944, 0.09317900240421295, -0.04810899868607521, 0.4893139898777008, -0.2402919977903366, -0.09532199800014496, -0.07451699674129486, -0.0991550013422966, 0.23982299864292145, 0.4893139898777008, -0.5710269808769226, 0.055876001715660095, 0.0427590012550354, -0.010383999906480312]}, {"stage_idx": 2, "stage": "scores_masked", "scores": [0.21242600679397583, -0.3375310003757477, -0.010383999906480312, 0.030261000618338585, -0.7036979794502258, 0.6744019985198975, -0.21645699441432953, -0.22011399269104004, 0.08958499878644943, 0.08489599823951721, -0.20271700620651245, -0.14502400159835815, 0.08075200021266937, 0.20014800131320953, 0.4966210126876831, -0.23072600364685059, -0.13512800633907318, 0.5818660259246826, -0.22011399269104004, -0.009595000185072422, 0.05892299860715866, -0.010383999906480312, -0.4888870120048523, -0.18835100531578064, -0.04200499877333641, 0.4893139898777008, -0.12830300629138947, -0.41591399908065796, -0.13512800633907318, 0.22435900568962097, 0.9348329901695251, -0.23521800339221954, 0.4893139898777008, -0.3352360129356384, 0.178056001663208, -0.034421999007463455, 0.10860399901866913, 0.8022980093955994, -0.24847400188446045, -0.2630600035190582, -0.0991550013422966, 0.4307459890842438, 0.6469799876213074, 0.00940600037574768, -0.010383999906480312, 0.1304900050163269, -0.00032699998700991273, -0.0991550013422966, 0.39154401421546936, -0.31139299273490906, -0.2402919977903366, -0.18486300110816956, -0.14689099788665771, -0.32194700837135315, -0.07451699674129486, 0.2918989956378937, -0.010383999906480312, -0.02888599969446659, -0.02888599969446659, 0.24664099514484406, 0.213796004652977, 0.23982299864292145, 0.11065000295639038, 0.09863399714231491, -0.31410500407218933, 0.13424700498580933, -0.010383999906480312, -0.04810899868607521, -0.31410500407218933, -0.1718139946460724, -0.07451699674129486, -0.0991550013422966, -0.2099200040102005, 0.11973000317811966, -0.25657498836517334, 0.25871598720550537, -0.22011399269104004, -0.0991550013422966, -0.2515209913253784, -0.31202900409698486, 0.03666999936103821, -0.22011399269104004, -0.13512800633907318, 0.06848300248384476, -0.3249480128288269, 0.19392800331115723, -0.3758929967880249, 0.39572998881340027, -0.010383999906480312, -0.39028599858283997, 0.23982299864292145, 0.4893139898777008, 1.0470659732818604, 0.09341300278902054, -0.31410500407218933, -0.08338099718093872, 0.19211900234222412, 0.2500630021095276, -0.08586099743843079, 0.05152500048279762, 0.249208003282547, -0.32128700613975525, -0.05088299885392189, -0.010129000060260296, -0.30634400248527527, -0.03169599920511246, -0.4453490078449249, 0.19259999692440033, -0.08338099718093872, 0.05458800122141838, -0.146589994430542, -0.47781500220298767, 0.07022599875926971, 0.9597240090370178, 0.09374699741601944, 0.09317900240421295, -0.04810899868607521, 0.4893139898777008, -0.2402919977903366, -0.09532199800014496, -0.07451699674129486, -0.0991550013422966, 0.23982299864292145, 0.4893139898777008, -0.5710269808769226, 0.055876001715660095, 0.0427590012550354, -0.010383999906480312]}, {"stage_idx": 3, "stage": "weights_softmax", "weights": [0.009087000042200089, 0.005243000108748674, 0.007271999958902597, 0.007573000155389309, 0.0036349999718368053, 0.014422000385820866, 0.005917000118643045, 0.005896000191569328, 0.008035999722778797, 0.007999000139534473, 0.005998999811708927, 0.00635599996894598, 0.007965999655425549, 0.008976000361144543, 0.012072999961674213, 0.005834000185132027, 0.006419000215828419, 0.013148000463843346, 0.005896000191569328, 0.007277000229805708, 0.007794000208377838, 0.007271999958902597, 0.004505999851971865, 0.006085999775677919, 0.007044999860227108, 0.011985000222921371, 0.00646300008520484, 0.004846999887377024, 0.006419000215828419, 0.009196000173687935, 0.018712999299168587, 0.005807999987155199, 0.011985000222921371, 0.005255000200122595, 0.008779999800026417, 0.007098999805748463, 0.008190000429749489, 0.01638999953866005, 0.0057310000993311405, 0.005648000165820122, 0.006653999909758568, 0.01130400039255619, 0.014031999744474888, 0.007416999898850918, 0.007271999958902597, 0.00837200041860342, 0.0073449998162686825, 0.006653999909758568, 0.010869000107049942, 0.0053820000030100346, 0.005778000224381685, 0.006107000168412924, 0.00634399987757206, 0.005324999801814556, 0.006819999776780605, 0.009837999939918518, 0.007271999958902597, 0.0071379998698830605, 0.0071379998698830605, 0.00940299965441227, 0.009099000133574009, 0.009339000098407269, 0.008206999860703945, 0.008108999580144882, 0.005367000121623278, 0.008403000421822071, 0.007271999958902597, 0.007002000231295824, 0.005367000121623278, 0.006188000086694956, 0.006819999776780605, 0.006653999909758568, 0.005956000182777643, 0.008282000198960304, 0.005685000214725733, 0.009517000056803226, 0.005896000191569328, 0.006653999909758568, 0.005714000202715397, 0.005377999972552061, 0.007621999830007553, 0.005896000191569328, 0.006419000215828419, 0.00786800030618906, 0.0053090001456439495, 0.008919999934732914, 0.005044999998062849, 0.01091499999165535, 0.007271999958902597, 0.004972999915480614, 0.009339000098407269, 0.011985000222921371, 0.020935000851750374, 0.008066999725997448, 0.005367000121623278, 0.00675999978557229, 0.00890399981290102, 0.009434999898076057, 0.006742999888956547, 0.00773600023239851, 0.00942699983716011, 0.00532899983227253, 0.006982999853789806, 0.007273999974131584, 0.005408999975770712, 0.00711800018325448, 0.004707000218331814, 0.008907999843358994, 0.00675999978557229, 0.0077599999494850636, 0.006345999892801046, 0.004557000007480383, 0.00788199994713068, 0.01918400079011917, 0.008070000447332859, 0.008065000176429749, 0.007002000231295824, 0.011985000222921371, 0.005778000224381685, 0.006680000107735395, 0.006819999776780605, 0.006653999909758568, 0.009339000098407269, 0.011985000222921371, 0.004151000175625086, 0.007770000025629997, 0.007668999955058098, 0.007271999958902597], "sum": 1.0}, {"stage_idx": 4, "stage": "weights_after_dropout", "weights": [0.009087000042200089, 0.005243000108748674, 0.007271999958902597, 0.007573000155389309, 0.0036349999718368053, 0.014422000385820866, 0.005917000118643045, 0.005896000191569328, 0.008035999722778797, 0.007999000139534473, 0.005998999811708927, 0.00635599996894598, 0.007965999655425549, 0.008976000361144543, 0.012072999961674213, 0.005834000185132027, 0.006419000215828419, 0.013148000463843346, 0.005896000191569328, 0.007277000229805708, 0.007794000208377838, 0.007271999958902597, 0.004505999851971865, 0.006085999775677919, 0.007044999860227108, 0.011985000222921371, 0.00646300008520484, 0.004846999887377024, 0.006419000215828419, 0.009196000173687935, 0.018712999299168587, 0.005807999987155199, 0.011985000222921371, 0.005255000200122595, 0.008779999800026417, 0.007098999805748463, 0.008190000429749489, 0.01638999953866005, 0.0057310000993311405, 0.005648000165820122, 0.006653999909758568, 0.01130400039255619, 0.014031999744474888, 0.007416999898850918, 0.007271999958902597, 0.00837200041860342, 0.0073449998162686825, 0.006653999909758568, 0.010869000107049942, 0.0053820000030100346, 0.005778000224381685, 0.006107000168412924, 0.00634399987757206, 0.005324999801814556, 0.006819999776780605, 0.009837999939918518, 0.007271999958902597, 0.0071379998698830605, 0.0071379998698830605, 0.00940299965441227, 0.009099000133574009, 0.009339000098407269, 0.008206999860703945, 0.008108999580144882, 0.005367000121623278, 0.008403000421822071, 0.007271999958902597, 0.007002000231295824, 0.005367000121623278, 0.006188000086694956, 0.006819999776780605, 0.006653999909758568, 0.005956000182777643, 0.008282000198960304, 0.005685000214725733, 0.009517000056803226, 0.005896000191569328, 0.006653999909758568, 0.005714000202715397, 0.005377999972552061, 0.007621999830007553, 0.005896000191569328, 0.006419000215828419, 0.00786800030618906, 0.0053090001456439495, 0.008919999934732914, 0.005044999998062849, 0.01091499999165535, 0.007271999958902597, 0.004972999915480614, 0.009339000098407269, 0.011985000222921371, 0.020935000851750374, 0.008066999725997448, 0.005367000121623278, 0.00675999978557229, 0.00890399981290102, 0.009434999898076057, 0.006742999888956547, 0.00773600023239851, 0.00942699983716011, 0.00532899983227253, 0.006982999853789806, 0.007273999974131584, 0.005408999975770712, 0.00711800018325448, 0.004707000218331814, 0.008907999843358994, 0.00675999978557229, 0.0077599999494850636, 0.006345999892801046, 0.004557000007480383, 0.00788199994713068, 0.01918400079011917, 0.008070000447332859, 0.008065000176429749, 0.007002000231295824, 0.011985000222921371, 0.005778000224381685, 0.006680000107735395, 0.006819999776780605, 0.006653999909758568, 0.009339000098407269, 0.011985000222921371, 0.004151000175625086, 0.007770000025629997, 0.007668999955058098, 0.007271999958902597], "sum": 1.0, "dropout_applied": false}, {"stage_idx": 5, "stage": "topk_after_dropout", "k": 5, "topk": [{"pos": 92, "score_masked": 1.0470656156539917, "weight": 0.020935283973813057, "k": [-0.8501790165901184, -0.5833209753036499, 0.09089799970388412, -0.9968799948692322, 0.10269799828529358, 0.1192220002412796, -0.6288110017776489, 0.6836320161819458, 0.6123660206794739, 0.9382479786872864, 0.44201600551605225, 0.003739000065252185, 0.0509289987385273, 0.33491599559783936, 0.9502699971199036, 0.632614016532898, -0.3508799970149994, -0.875311017036438, 0.07466399669647217, 0.16754299402236938, -0.46388500928878784, 0.2608200013637543, 1.0060349702835083, -0.6652079820632935, -0.5784080028533936, -1.371291995048523, -0.10246700048446655, -0.32861098647117615, -1.085571050643921, 0.992281973361969, 0.5599510073661804, -0.22750599682331085], "v": [-0.38437598943710327, -0.3888550102710724, -0.16528600454330444, -0.28243499994277954, -0.8752580285072327, -0.3865619897842407, -0.38551101088523865, -0.027261000126600266, 0.19474799931049347, -0.718995988368988, 0.07780999690294266, 0.4029090106487274, -1.1229469776153564, 0.3695240020751953, 0.002945000072941184, -0.5265160202980042, -0.865136981010437, 0.041648998856544495, 0.633808970451355, -0.6338760256767273, -0.09970200061798096, 0.06652799993753433, -0.6460049748420715, -0.7571280002593994, -0.004044999834150076, -0.6576859951019287, 0.06501699984073639, -0.7368000149726868, -0.273389995098114, -0.4854159951210022, 0.44297999143600464, 0.6459800004959106]}, {"pos": 113, "score_masked": 0.9597234725952148, "weight": 0.019184330478310585, "k": [-0.06213599815964699, 1.0174859762191772, 0.6176009774208069, 0.26571500301361084, 1.019629955291748, 0.9507700204849243, -0.6475909948348999, -0.3092319965362549, -0.49603599309921265, 1.2110539674758911, 0.5260319709777832, 0.2127929925918579, 0.42299699783325195, -0.307343989610672, -0.13818199932575226, 0.7693750262260437, 0.4183749854564667, -0.7951740026473999, 0.10438600182533264, -0.4217439889907837, -1.8492189645767212, 1.4954450130462646, 0.6720280051231384, -0.01079699955880642, -0.3500019907951355, 0.6763659715652466, 1.3995599746704102, 0.7133359909057617, -0.6634820103645325, 0.2864150106906891, 0.0843840017914772, -0.3919470012187958], "v": [0.29615598917007446, 0.21123400330543518, 0.014971000142395496, -0.778997004032135, 0.9446930289268494, 0.18475699424743652, -0.05198799818754196, -0.21262800693511963, -0.13525399565696716, 0.20106999576091766, -0.3400369882583618, 0.488101989030838, -0.3254750072956085, -0.4500040113925934, 0.5400810241699219, 0.9702309966087341, 0.059797000139951706, 0.18183700740337372, 0.22082500159740448, -0.4315760135650635, -0.4533790051937103, -0.25547999143600464, 1.3441699743270874, -1.6704089641571045, 0.5083829760551453, 0.6605280041694641, 0.41156700253486633, 1.3195819854736328, -0.4453139901161194, 1.5794179439544678, -0.24321599304676056, -0.07211899757385254]}, {"pos": 30, "score_masked": 0.9348326325416565, "weight": 0.018712710589170456, "k": [-0.4481320083141327, -0.9292780160903931, 0.4880340099334717, 0.3931480050086975, 0.24969899654388428, 0.019293000921607018, 0.3368479907512665, -0.14652399718761444, -0.15219399333000183, 0.6690660119056702, -0.3302040100097656, -0.16684700548648834, 0.052570000290870667, -0.22888000309467316, 0.7656620144844055, 0.6503279805183411, 0.6640459895133972, -0.35638999938964844, 1.0935579538345337, 0.25070199370384216, -0.8722540140151978, -0.5786470174789429, 0.4035100042819977, 0.3974739909172058, -1.3161640167236328, 0.693157970905304, 0.5075010061264038, -0.022870000451803207, 0.6420779824256897, 0.3173849880695343, 0.32589399814605713, -0.5769910216331482], "v": [0.49272799491882324, -0.5268530249595642, -0.053752999752759933, 0.8583300113677979, -1.0361520051956177, -0.29798901081085205, 0.09523200243711472, -0.31492799520492554, -0.3929539918899536, 0.1295820027589798, -0.5529299974441528, 0.026419999077916145, 0.39261800050735474, -0.2528440058231354, 0.306878000497818, 0.11204499751329422, -0.003364000003784895, 0.917464017868042, -0.23394900560379028, 0.04684099927544594, -0.4738599956035614, 0.22227400541305542, -0.8874289989471436, -0.379067987203598, -0.2769950032234192, 0.1743980050086975, 0.4993079900741577, 0.09473799914121628, 0.5647500157356262, -0.6631079912185669, 1.2011090517044067, -0.23255400359630585]}, {"pos": 37, "score_masked": 0.8022983074188232, "weight": 0.016389954835176468, "k": [0.22928500175476074, -0.27428001165390015, -0.07054299861192703, 0.5892860293388367, 0.6770709753036499, -0.5923500061035156, 0.2466229945421219, 0.07608400285243988, -0.44501399993896484, -0.37115299701690674, 0.7856069803237915, -0.8257420063018799, 0.12703199684619904, -0.5224800109863281, 0.008113999851047993, -0.40067100524902344, -0.47687798738479614, 0.04976699873805046, -0.35390201210975647, 0.2687090039253235, -0.18100599944591522, 0.8321279883384705, 0.36305999755859375, -0.14640499651432037, -0.6519060134887695, -0.9309459924697876, 0.049768999218940735, -0.5143610239028931, -0.28109800815582275, 0.5381870269775391, 1.0521140098571777, 0.16938099265098572], "v": [0.6223909854888916, 0.006978000048547983, -0.11719799786806107, -0.1617719978094101, 0.438728004693985, 0.4706929922103882, 1.3525619506835938, 0.5437759757041931, 0.4625070095062256, -0.05862199887633324, -0.5793499946594238, -0.49646198749542236, 0.277209997177124, -1.0535889863967896, 0.7270529866218567, -0.4802890121936798, 1.266787052154541, -0.23398500680923462, -0.1947920024394989, 0.9704099893569946, -0.0684330016374588, -0.15334400534629822, -0.06571000069379807, 0.7608879804611206, -0.23648600280284882, -0.8330709934234619, 0.6980699896812439, 0.12538200616836548, -0.20867399871349335, 0.3169020116329193, -0.17754000425338745, -0.526652991771698]}, {"pos": 5, "score_masked": 0.6744018793106079, "weight": 0.014422250911593437, "k": [-0.7481439709663391, 0.8004440069198608, 0.08608400076627731, 0.6788100004196167, 0.4988729953765869, 0.7797200083732605, 0.23098599910736084, -0.045430999249219894, 0.5803760290145874, -0.5713649988174438, -0.4696429967880249, -0.3938960134983063, 1.2408360242843628, -0.179067000746727, 0.2164900004863739, 0.48583999276161194, 1.1030329465866089, 0.21605999767780304, 0.5505009889602661, -0.7781190276145935, -0.7365949749946594, -0.03187499940395355, -0.7990099787712097, 0.11691900342702866, -0.558650016784668, 1.5395270586013794, 0.3582249879837036, -0.46120399236679077, 0.3352679908275604, -0.3741360008716583, -0.539788007736206, -0.6660959720611572], "v": [0.4235050082206726, 0.22827500104904175, 0.660535991191864, 0.760362982749939, 0.2621679902076721, 0.3106040060520172, -0.29889199137687683, 0.5098450183868408, -0.22647400200366974, 1.1039149761199951, -0.5249999761581421, 0.13789400458335876, 0.32471901178359985, 0.11790599673986435, -0.0836620032787323, 0.06694500148296356, -0.009961999952793121, 0.6134300231933594, -0.6417869925498962, -0.3431040048599243, 0.3280079960823059, 0.028636999428272247, -0.041085999459028244, -1.1629849672317505, 0.2654869854450226, 0.7228909730911255, -0.08319000154733658, 0.32994401454925537, -1.1787559986114502, 0.861204981803894, 1.1237770318984985, -0.2059440016746521]}]}, {"stage_idx": 6, "stage": "context_head", "context": [-0.0744360014796257, -0.08275700360536575, -0.09080799669027328, -0.061746999621391296, -0.1906059980392456, 0.05193600058555603, 0.11787500232458115, -0.06941399723291397, 0.04938700050115585, 0.06825900077819824, 0.009251999668776989, 0.009897000156342983, -0.03731599822640419, 0.012450000271201134, 0.01608400046825409, 0.08722999691963196, 0.18129000067710876, -0.0688909962773323, 0.12952299416065216, -0.061223000288009644, 0.021333999931812286, 0.04142199829220772, -0.06885500252246857, -0.100101999938488, 0.1200999990105629, -0.04701099917292595, 0.09143500030040741, 0.05917999893426895, -0.03686299920082092, 0.0689769983291626, 0.03427499905228615, 0.006787999998778105]}]}, {"head": 4, "head_dim": 32, "trace": [{"stage_idx": 0, "stage": "q_after_proj_rope", "q": [0.6550440192222595, -0.11557099968194962, 0.15406499803066254, -0.6574079990386963, 0.020618999376893044, -0.7226589918136597, -0.23597300052642822, 1.3734010457992554, -0.8094819784164429, 0.37426498532295227, 0.836700975894928, 0.5373470187187195, 0.6272410154342651, 1.343214988708496, -0.11076399683952332, -0.2131820023059845, 0.4406470060348511, -0.2688480019569397, 0.35881200432777405, -0.018797999247908592, -0.36168599128723145, -0.33496999740600586, 0.8260859847068787, 0.18427400290966034, 0.06965900212526321, 0.6657930016517639, -0.003071000101044774, 0.17379499971866608, 0.22332100570201874, 0.3348900079727173, 1.058819055557251, 0.41498398780822754]}, {"stage_idx": 1, "stage": "scores_raw", "scores": [0.33722299337387085, 0.07176399976015091, -0.25613299012184143, 0.2249850034713745, -0.43328699469566345, -0.13806000351905823, 0.29389598965644836, 0.026395000517368317, 0.026252999901771545, 0.8207529783248901, -0.34188199043273926, -0.12664000689983368, 0.3351620137691498, -0.4369800090789795, 0.02507600001990795, -0.4783329963684082, -0.5675240159034729, 0.0462069995701313, 0.026395000517368317, -0.1833149939775467, 0.29539400339126587, -0.25613299012184143, 0.4603250026702881, 0.25766000151634216, 0.5774629712104797, 0.16178999841213226, 0.043094001710414886, -0.4955050051212311, -0.5675240159034729, 0.04939499869942665, -0.01788399927318096, 0.38569799065589905, 0.16178999841213226, -0.21171799302101135, -0.0717179998755455, 0.04924299940466881, 0.6175249814987183, -0.45041799545288086, -0.13960899412631989, -0.4964680075645447, 0.19399100542068481, -0.31828901171684265, -0.20708900690078735, 0.2548440098762512, -0.25613299012184143, 0.20150500535964966, -0.0541750006377697, 0.19399100542068481, 0.1213650032877922, 0.3011859953403473, -0.3560599982738495, 0.5325459837913513, -0.28438401222229004, 0.12169600278139114, -0.027580000460147858, 0.11515399813652039, -0.25613299012184143, 0.41119900345802307, 0.41119900345802307, -0.7862290143966675, -0.6620010137557983, 0.24695399403572083, 0.453359991312027, 0.2437019944190979, 0.19494399428367615, 0.37730398774147034, -0.25613299012184143, 0.01813800074160099, 0.19494399428367615, -0.21218900382518768, -0.027580000460147858, 0.19399100542068481, -0.6085649728775024, 0.04809900000691414, 0.3334459960460663, 0.1315069943666458, 0.026395000517368317, 0.19399100542068481, -0.19270199537277222, -0.07559400051832199, -0.31192800402641296, 0.026395000517368317, -0.5675240159034729, 0.1987069994211197, 0.29490599036216736, 0.17513400316238403, 0.30782198905944824, 0.12275099754333496, -0.25613299012184143, 0.09522800147533417, 0.24695399403572083, 0.16178999841213226, 0.42286399006843567, 0.7274789810180664, 0.19494399428367615, 0.18125399947166443, -0.3128190040588379, -0.28276801109313965, -0.29259198904037476, 0.13287299871444702, -0.3037010133266449, 0.5960209965705872, -0.1013759970664978, 0.5317379832267761, 0.11271899938583374, -0.7706800103187561, 0.5285720229148865, 0.15400399267673492, 0.18125399947166443, -0.09802500158548355, -0.465831995010376, -0.20094899833202362, -0.16086600720882416, 0.09560000151395798, -0.04231100156903267, 0.34727099537849426, 0.01813800074160099, 0.16178999841213226, -0.3560599982738495, -0.13424299657344818, -0.027580000460147858, 0.19399100542068481, 0.24695399403572083, 0.16178999841213226, 0.11200399696826935, -0.563156008720398, 0.21360599994659424, -0.25613299012184143]}, {"stage_idx": 2, "stage": "scores_masked", "scores": [0.33722299337387085, 0.07176399976015091, -0.25613299012184143, 0.2249850034713745, -0.43328699469566345, -0.13806000351905823, 0.29389598965644836, 0.026395000517368317, 0.026252999901771545, 0.8207529783248901, -0.34188199043273926, -0.12664000689983368, 0.3351620137691498, -0.4369800090789795, 0.02507600001990795, -0.4783329963684082, -0.5675240159034729, 0.0462069995701313, 0.026395000517368317, -0.1833149939775467, 0.29539400339126587, -0.25613299012184143, 0.4603250026702881, 0.25766000151634216, 0.5774629712104797, 0.16178999841213226, 0.043094001710414886, -0.4955050051212311, -0.5675240159034729, 0.04939499869942665, -0.01788399927318096, 0.38569799065589905, 0.16178999841213226, -0.21171799302101135, -0.0717179998755455, 0.04924299940466881, 0.6175249814987183, -0.45041799545288086, -0.13960899412631989, -0.4964680075645447, 0.19399100542068481, -0.31828901171684265, -0.20708900690078735, 0.2548440098762512, -0.25613299012184143, 0.20150500535964966, -0.0541750006377697, 0.19399100542068481, 0.1213650032877922, 0.3011859953403473, -0.3560599982738495, 0.5325459837913513, -0.28438401222229004, 0.12169600278139114, -0.027580000460147858, 0.11515399813652039, -0.25613299012184143, 0.41119900345802307, 0.41119900345802307, -0.7862290143966675, -0.6620010137557983, 0.24695399403572083, 0.453359991312027, 0.2437019944190979, 0.19494399428367615, 0.37730398774147034, -0.25613299012184143, 0.01813800074160099, 0.19494399428367615, -0.21218900382518768, -0.027580000460147858, 0.19399100542068481, -0.6085649728775024, 0.04809900000691414, 0.3334459960460663, 0.1315069943666458, 0.026395000517368317, 0.19399100542068481, -0.19270199537277222, -0.07559400051832199, -0.31192800402641296, 0.026395000517368317, -0.5675240159034729, 0.1987069994211197, 0.29490599036216736, 0.17513400316238403, 0.30782198905944824, 0.12275099754333496, -0.25613299012184143, 0.09522800147533417, 0.24695399403572083, 0.16178999841213226, 0.42286399006843567, 0.7274789810180664, 0.19494399428367615, 0.18125399947166443, -0.3128190040588379, -0.28276801109313965, -0.29259198904037476, 0.13287299871444702, -0.3037010133266449, 0.5960209965705872, -0.1013759970664978, 0.5317379832267761, 0.11271899938583374, -0.7706800103187561, 0.5285720229148865, 0.15400399267673492, 0.18125399947166443, -0.09802500158548355, -0.465831995010376, -0.20094899833202362, -0.16086600720882416, 0.09560000151395798, -0.04231100156903267, 0.34727099537849426, 0.01813800074160099, 0.16178999841213226, -0.3560599982738495, -0.13424299657344818, -0.027580000460147858, 0.19399100542068481, 0.24695399403572083, 0.16178999841213226, 0.11200399696826935, -0.563156008720398, 0.21360599994659424, -0.25613299012184143]}, {"stage_idx": 3, "stage": "weights_softmax", "weights": [0.010250000283122063, 0.007860000245273113, 0.005663000047206879, 0.009162000380456448, 0.004743000026792288, 0.006372999865561724, 0.009814999997615814, 0.007511999923735857, 0.007511000148952007, 0.0166229996830225, 0.005197000224143267, 0.006446000188589096, 0.010228999890387058, 0.004726000130176544, 0.007501999847590923, 0.004534999839961529, 0.004147999919950962, 0.007662000134587288, 0.007511999923735857, 0.00609100004658103, 0.009829999879002571, 0.005663000047206879, 0.011593000032007694, 0.009465999901294708, 0.013032999821007252, 0.008600999601185322, 0.007637999951839447, 0.0044570001773536205, 0.004147999919950962, 0.0076859998516738415, 0.007185999769717455, 0.010758999735116959, 0.008600999601185322, 0.005919999908655882, 0.006810000166296959, 0.007685000076889992, 0.013566000387072563, 0.0046629998832941055, 0.00636299978941679, 0.004453000146895647, 0.008882000111043453, 0.00532200001180172, 0.005946999881416559, 0.009438999928534031, 0.005663000047206879, 0.008949000388383865, 0.006930000148713589, 0.008882000111043453, 0.008259999565780163, 0.009886999614536762, 0.005123999901115894, 0.012461000122129917, 0.005504999775439501, 0.008263000287115574, 0.007116999942809343, 0.00820900034159422, 0.005663000047206879, 0.011037000454962254, 0.011037000454962254, 0.003333000000566244, 0.003774000098928809, 0.009364999830722809, 0.011512000113725662, 0.009335000067949295, 0.008891000412404537, 0.010669000446796417, 0.005663000047206879, 0.007449999917298555, 0.008891000412404537, 0.005917000118643045, 0.007116999942809343, 0.008882000111043453, 0.0039809998124837875, 0.007675999775528908, 0.010211000218987465, 